tree
version=v4
num_class=1
num_tree_per_iteration=1
label_index=0
max_feature_idx=17
objective=binary sigmoid:1
feature_names=WATT AbsMax AbsMean P2P RMS Skewness Kurtosis Crest Shape Impulse 1x 2x 3x 4x 1xB 2xB 3xB 4xB
feature_infos=[-0.79510010851726765:2.9140082514704937] [-0.32909072808573731:7.8859866814067408] [-0.57765032242850411:7.680103686104335] [-0.36874951057364341:7.556046763221155] [-0.46183128170153409:7.2000096844274859] [-6.8792176128632407:1.28685139622407] [-0.33936545165326548:15.102733614221895] [-1.2639463290175716:9.9234107351745404] [-0.80676898296301591:20.862825282498253] [-0.64770437422583294:17.111363473286257] [-0.43478185603494057:6.5805715425322546] [-0.5698849407636134:8.2952493395673468] [-0.1827017713584311:11.825762503148589] [-0.29246224389078868:8.2171090472781412] [-0.49977374158392263:10.460436891767856] [-0.7153896261607694:8.8509896100545546] [-0.51119573976290578:9.8965385308283498] [-0.43007204706795332:11.445954610709689]
tree_sizes=3415 3439 3468 3461 3460 3477 3471 3472 3469 3469 3466 3462 3478 3479 3487 3477 3481 3477 3478 3485 3497 3492 3492 3485 3500 3498 3480 3497 3493 3496 3504 3489 3491 3477 3483 3476 3487 3468 3480 3466 3460 3481 3470 3471 3461 3473 3471 3482 3469 3474 3466 3465 3470 3475 3475 3486 3465 3480 3475 3481 3477 3467 3475 3487 3488 3473 3490 3503 3494 3496 3502 3481 3490 3509 3494 3484 3497 3506 3513 3526 3512 3526 3532 3512 3508 3536 3523 3507 3539 3527 3524 3531 3545 3538 3539 3546 3550 3559 3574 3555

Tree=0
num_leaves=31
num_cat=0
split_feature=8 11 0 4 2 2 14 0 9 11 10 2 10 4 2 14 13 11 15 5 17 4 14 10 4 13 10 2 10 2
split_gain=419701 23092.7 38889.2 50185.8 18541.6 60119.4 67703.6 29203.9 8136.35 6999.94 6134.39 2519.03 4911.86 1748.38 1196.67 5467.28 1163.47 1126.49 1022.05 416.539 363.245 335.025 328.386 1110.66 558.041 311.569 228.345 215.251 184.764 135.05
threshold=1.4250195684669522 0.98768722873450099 -0.29984984454162894 -0.16334233421573388 -0.35904160019344605 -0.3742487839541076 -0.40271084711822552 -0.68797150531686346 -0.26865522746039744 -0.30602954031256274 -1.0000000180025095e-35 -0.37296340967948094 -0.36254948846149349 -0.33454665737178929 -0.37585901732506471 -0.45134992159586812 -0.25960119976060242 -0.3727777035511417 0.97331883223890647 -1.7880080962483578 -0.29071280569208974 0.17409379812447831 -0.39172857832328839 -0.045618893579040892 -0.33454665737178929 -0.26322949813198138 -0.097310693900626591 -0.084861543500094491 -0.097310693900626591 -0.37224634404971363
decision_type=2 2 2 2 2 2 2 2 2 2 2 2 2 2 2 2 2 2 2 2 2 2 2 2 2 2 2 2 2 2
left_child=1 4 3 -3 5 14 7 8 9 11 22 12 -7 -12 -1 17 -15 -16 20 26 29 -5 23 -8 -25 -26 -6 -2 -10 -13
right_child=27 2 -4 21 19 6 10 -9 28 -11 13 18 -14 16 15 -17 -18 -19 -20 -21 -22 -23 -24 24 25 -27 -28 -29 -30 -31
leaf_value=-1.9799686951135609 -1.9809297408834317 -1.9809297320624391 -1.980866690211047 -1.1195649093427049 -1.9809297388370992 -1.1195648675419629 -1.977315623602883 -1.9809298228188124 -1.9809297733106046 -1.9790962940731462 -1.9365295273857226 -1.2168765357788132 -1.96477924866223 -1.120336679429129 -1.1288069648414036 -1.9753823830191237 -1.9809496377703413 -1.980929772772674 -1.9809290429284616 -1.98024493592836 -1.9442828541720243 -1.9809297430604811 -1.9784632685531456 -1.9672572904470218 -1.1195648787513333 -1.9613530495460154 -1.1195382470494684 -1.1195648760347487 -1.3236915991274638 -1.1219390409435679
leaf_weight=17376.136505126953 2.9023701250553122 1143.9983350709081 3165.205808378756 1672.462096169591 4.7598870471119872 179.48258237540722 166.01557869464159 609.26532936096191 139.77811830490828 109.12884966284037 45.044765867292881 159.28206460177898 111.45087452232838 129.56181284785271 108.20036845654249 594.8694509267807 17.876000754535198 18.110783644020557 14.163597285747526 49509.804130479693 5.4568251445889464 4.5276976823806754 3365.1240501403809 14.627946004271505 31.577790826559063 5.1081808581948307 8.706577427685259 6952.7994121015072 4.4123438447713843 2526.9190736338496
leaf_count=149672 25 9854 27264 14406 41 1546 1430 5248 1204 940 388 1372 960 1116 932 5124 154 156 122 426460 47 39 28986 126 272 44 75 59889 38 21766
internal_value=-1.86545 -1.92928 -1.74024 -1.47026 -1.94431 -1.87545 -1.64011 -1.34559 -1.22649 -1.19239 -1.94122 -1.16375 -1.44335 -1.39127 -1.97473 -1.84851 -1.22468 -1.25099 -1.13368 -1.98009 -1.12922 -1.12189 -1.97077 -1.85163 -1.44501 -1.23678 -1.42401 -1.11992 -1.96082 -1.12757
internal_weight=0 81241.1 5986.19 2820.99 75254.9 25731.6 7634.28 3859.34 3250.07 3105.88 3774.94 2996.76 290.933 192.483 18097.3 721.181 147.438 126.311 2705.82 49523.3 2691.66 1676.99 3582.45 217.329 51.3139 36.686 13.4665 6955.7 144.19 2686.2
internal_count=759696 699782 51563 24299 648219 221643 65759 33243 27995 26753 32516 25813 2506 1658 155884 6212 1270 1088 23307 426576 23185 14445 30858 1872 442 316 116 59914 1242 23138
is_linear=0
shrinkage=1


Tree=1
num_leaves=31
num_cat=0
split_feature=8 11 0 4 2 2 14 0 11 6 10 2 10 4 15 13 2 14 5 5 17 4 8 14 10 4 13 10 2 11
split_gain=212993 18012.5 22707.9 20337 16728.3 43235.8 34130 12430.9 4026.78 2815.52 2317.12 1255.83 3341.02 708.367 419.279 394.799 380.741 1753.86 475.216 285.385 173.67 112.226 95.1838 90.3552 376.256 194.355 129.021 89.939 79.1649 89.4293
threshold=1.4250195684669522 0.98768722873450099 -0.29984984454162894 -0.16334233421573388 -0.35904160019344605 -0.37501713150809707 -0.3969089838899908 -0.68797150531686346 -0.30602954031256274 -0.26789499096036135 1.0000000180025095e-35 -0.37296340967948094 -0.36254948846149349 -0.33454665737178929 1.2017785961375276 -0.25960119976060242 -0.37674936341842635 -0.45134992159586812 0.38154733972863619 -1.7880080962483578 -0.28899974364558972 0.17409379812447831 -0.35540063185268206 -0.387387206785831 -0.045618893579040892 -0.33454665737178929 -0.25314506758890148 -0.097310693900626591 -0.37585901732506471 -0.52196755824916719
decision_type=2 2 2 2 2 2 2 2 2 2 2 2 2 2 2 2 2 2 2 2 2 2 2 2 2 2 2 2 2 2
left_child=1 4 3 -3 5 16 7 8 9 11 23 12 -7 -12 20 -15 -1 18 -18 27 -13 -5 -20 24 -8 -26 -27 -6 29 -24
right_child=-2 2 -4 21 19 6 10 -9 -10 -11 13 14 -14 15 -16 -17 17 -19 22 -21 -22 -23 28 -25 25 26 -28 -29 -30 -31
leaf_value=-0.1137306173686596 0.40622762446010374 -0.11379411802018967 -0.11372612428267499 0.40635229374416915 -0.11379409229147371 0.40981162006231586 -0.11383917533826271 -0.11381648112970771 -0.11271821787327407 -0.11134687707198572 -0.082683178374553218 0.40348340122177817 -0.10441111083333771 0.40584493770035446 -0.11380229893542998 -0.11379336993026101 -0.092940540915269751 -0.11094716136139615 0.19770532957493728 -0.1130577525796912 -0.099674465571212484 -0.11379410769043563 0.12939312679881368 -0.11248988054986482 -0.10494010214074989 0.49226440234285507 -0.11393920630358978 0.40635577694651892 0.40538136683025333 0.73551701287406501
leaf_weight=15645.502105712891 11113.909851074219 1049.7025077566504 2904.4506241902709 2672.7549945563078 4.3675468191504505 392.25292444229126 140.85468706488609 633.31903648376465 177.88276199996471 118.0829536691308 50.710366874933243 4391.2986466065049 186.38902950286865 134.45704167336226 15.773123793303965 16.404725946485996 22.819389931857586 553.17681860923767 16.453419744968414 45452.446007214487 6.8706221655011168 4.1544955670833579 2.8782839253544834 3134.7668886780739 11.148671090602873 21.738181754946709 4.1872339695692089 13.915919333696364 58.409081526100636 15.777227453887461
leaf_count=146764 59914 9854 27264 14406 41 2127 1319 5941 1666 1106 465 23790 1728 725 148 154 209 5180 117 426460 63 39 27 29370 104 135 39 75 318 148
internal_value=0 -0.0617506 0.0958889 0.259259 -0.0764275 -0.0120273 0.158353 0.304861 0.354998 0.371278 -0.0885252 0.382693 0.244173 0.240654 0.400852 0.349339 -0.11057 -0.0367229 0.316209 -0.112899 0.402697 0.405545 0.416045 -0.108555 -0.0392341 0.244211 0.394356 0.282103 0.462661 0.642001
internal_weight=0 77852.9 6631.06 3726.61 71221.9 25751.2 9436.14 5921.87 5288.55 5110.67 3514.27 4992.58 578.642 201.572 4413.94 150.862 16315 669.514 116.337 45470.7 4398.17 2676.91 93.518 3312.7 177.929 37.0741 25.9254 18.2835 77.0646 18.6555
internal_count=759696 699782 51563 24299 648219 221643 68880 36569 30628 28962 32311 27856 3855 1344 24001 879 152763 5999 819 426576 23853 14445 610 30967 1597 278 174 116 493 175
is_linear=0
shrinkage=0.1


Tree=2
num_leaves=31
num_cat=0
split_feature=8 11 0 2 2 14 4 0 11 9 10 2 10 2 14 4 17 5 5 15 14 10 4 13 2 10 10 13 2 2
split_gain=148243 15122.7 16524.4 15308.2 34886.2 23234 12773.5 8196.04 2612.92 1771.69 1349.7 711.253 2222.49 363.284 1287.81 283.924 283.617 265.695 229.858 112.074 77.1344 300.124 173.052 121.869 74.068 1774.53 170.036 397.764 64.0937 56.1278
threshold=1.4250195684669522 0.98768722873450099 -0.29984984454162894 -0.35904160019344605 -0.37501713150809707 -0.39266782232650438 -0.16334233421573388 -0.68797150531686346 -0.30602954031256274 -0.22022677773891638 0.0072803292154015008 -0.37296340967948094 -0.36254948846149349 -0.37674936341842635 -0.45134992159586812 -0.33454665737178929 -0.29709343075811034 0.38154733972863619 -1.7880080962483578 0.91824310043286739 -0.38198913017804087 -0.037133439659299793 -0.33454665737178929 -0.25314506758890148 -0.35648584680201595 -1.0000000180025095e-35 -0.030399137897489697 -0.26416935581808715 -0.084861543500094491 1.0000000180025095e-35
decision_type=2 2 2 2 2 2 2 2 2 2 2 2 2 2 2 2 2 2 2 2 2 2 2 2 2 2 2 2 2 2
left_child=1 3 6 4 13 7 -3 8 9 11 20 12 -6 -1 17 -12 19 -15 -5 -13 21 -7 -23 -24 25 26 -20 -28 -2 -8
right_child=28 2 -4 18 5 10 29 -9 -10 -11 15 16 -14 14 -16 -17 -18 -19 24 -21 -22 22 23 -25 -26 -27 27 -29 -30 -31
leaf_value=-0.11223926974396033 -0.12070692295949095 -0.11231044208504593 -0.11223702180311768 0.22297303947903935 0.30586291947862432 -0.11100534009433638 0.30405358949467159 -0.11233206535818033 -0.11122628326311745 -0.11234573147065428 -0.079019531002552879 0.30175795309889764 -0.10203750478633554 -0.090053168635873537 -0.10923652303963045 0.28641591410159672 -0.080116246968009661 0.29412487051321551 -0.11086074215462052 -0.11232289304813292 -0.11170133331466713 -0.11254045537103743 0.43851974851048692 -0.11235715025392068 -0.11212456412390914 0.86940892926326707 0.91116613296232285 -0.11232796817218826 0.30407913466237135 -0.050610452040856069
leaf_weight=14335.073394775391 3.5529673099517813 961.71280436962843 2661.1342399343848 20.554823353886604 467.76724982261658 147.32538596540689 3179.047104999423 618.21820259094238 175.35870842635632 112.78123614192009 26.410400442779064 5289.0283303260803 186.96750998497009 21.276122257113457 507.97253024578094 109.03990656882524 19.573044084012508 116.9766892939806 817.88452542573214 6.5444423779845229 2808.723389916122 12.273526467382906 22.372191324830055 4.8944872915744808 40812.156039193273 19.149607703089714 5.4714532047510174 12.408472761511801 13218.204540014267 4.4684147834777823
leaf_count=146764 25 9854 27264 116 2127 1505 14403 6329 1791 1153 258 24084 1874 209 5180 521 187 610 8371 67 28681 124 129 50 417710 196 56 127 59889 42
internal_value=0 -0.0597578 0.0822299 -0.074252 -0.0123636 0.132205 0.207073 0.235023 0.269338 0.280309 -0.0936011 0.287727 0.189382 -0.108933 -0.0355903 0.215163 0.299842 0.235003 -0.111349 0.301246 -0.107562 -0.0453505 0.199277 0.339635 -0.111514 -0.0823836 -0.104192 0.200872 0.303965 0.303556
internal_weight=0 73482.6 6806.36 66676.2 24988.6 10007.3 4145.23 6876.24 6258.02 6082.66 3131.04 5969.88 654.735 14981.3 646.225 135.45 5315.15 138.253 41687.6 5295.57 2995.59 186.866 39.5402 27.2667 41667.1 854.914 835.764 17.8799 13221.8 3183.52
internal_count=759696 699782 51563 648219 221643 68880 24299 37612 31283 29492 31268 28339 4001 152763 5999 779 24338 819 426576 24151 30489 1808 303 179 426460 8750 8554 183 59914 14445
is_linear=0
shrinkage=0.1


Tree=3
num_leaves=31
num_cat=0
split_feature=8 14 2 2 11 11 0 11 2 4 0 6 2 10 0 2 10 15 13 2 15 1 5 10 2 4 8 10 14 10
split_gain=113142 13332.8 15565.2 25218.1 10900.8 9010.45 10728.3 5196.77 4536.69 4300.99 2213.4 1037.8 597.829 2068.42 548.115 385.853 939.153 334.004 1317.03 903.32 140.613 119.44 114.876 106.824 65.4271 64.2734 61.7396 58.3003 53.3707 540.729
threshold=1.4250195684669522 -0.40271084711822552 -0.37674936341842635 -0.35988669314704941 0.98768722873450099 0.98768722873450099 -0.29984984454162894 -0.30602954031256274 -0.090277382594316738 -0.16334233421573388 -0.68797150531686346 -0.26660178794786688 -0.37296340967948094 -0.36254948846149349 -1.0000000180025095e-35 -0.3573821713160506 -0.062565854869280943 -0.65670774832410084 -0.26555955211456528 -0.37224634404971363 1.3153484206841097 -0.041230346614729789 -1.7880080962483578 -0.062565854869280943 -0.35904160019344605 -0.33860186491044009 -0.35184199186896453 -0.097310693900626591 -0.38198913017804087 -0.13074993538552557
decision_type=2 2 2 2 2 2 2 2 2 2 2 2 2 2 2 2 2 2 2 2 2 2 2 2 2 2 2 2 2 2
left_child=1 2 -1 7 15 17 9 10 -6 -7 11 12 13 25 -10 16 -5 18 19 -3 -14 -17 27 -21 -18 26 -4 -19 29 -24
right_child=-2 5 3 4 8 6 -8 -9 14 -11 -12 -13 20 -15 -16 21 24 22 -20 23 -22 -23 28 -25 -26 -27 -28 -29 -30 -31
leaf_value=-0.11087237409133906 0.25048585738823448 -0.10327178934576986 0.0096774719354880828 -0.10940386401977208 -0.11100267851630022 -0.11100265746927501 -0.11092130655874144 -0.11069771254484156 0.25058318132339685 0.24988262303347147 -0.11108939814253012 -0.11106393990273813 0.24850402215369508 -0.10328283065465485 -0.11100781060825785 -0.11006733876533861 0.24816557420221447 -0.11442225977175249 -0.11010302483394491 -0.111027396538513 -0.11122613977467669 0.34372024358752934 -0.11102230076934781 0.26485386794783744 0.44637253918362862 0.25692970948086913 0.29493318704933408 0.26319343779989529 -0.11063794923946041 0.0023984421474952857
leaf_weight=8430.6632499694824 14365.693542480469 113.76184502243996 20.896362900733948 160.5681232213974 483.35765688866377 396.74080128967762 2391.3747867196798 508.44743703305721 1488.266242980957 1970.1976415663958 194.8665521889925 87.509847566485405 5505.4199163094163 223.92753408849239 43.136524766683578 7315.1930670812726 38.168582916259766 6.0790399089455631 1141.6219230145216 7.8721810430288306 10.887548722326754 5.8048328608274451 3942.3283395767212 191.15409134328365 29.545673012733459 610.41644056141376 11.913051486015318 12.486719638109205 33050.000666223466 470.49965722858906
leaf_count=94330 59914 1229 135 1790 5413 4443 26776 5669 6206 8239 2176 977 23051 2456 483 81777 160 56 12737 88 120 29 44086 826 174 2576 69 53 369368 4290
internal_value=0 -0.0580405 -6.48112e-05 0.0557461 -0.0505626 -0.091436 0.0384641 0.197466 0.156094 0.189392 0.220972 0.230972 0.235661 0.158475 0.240398 -0.105715 0.0223133 -0.107311 -0.0602929 0.121506 0.247794 -0.109708 -0.109136 0.249986 0.334649 0.249601 0.113253 0.13955 -0.109259 -0.0989293
internal_weight=0 68863.1 25169 16738.3 9564.04 43694.1 4758.31 7174.28 2014.76 2366.94 6665.84 6470.97 6383.46 867.153 1531.4 7549.28 228.282 38935.8 1454.41 312.788 5516.31 7321 37481.4 199.026 67.7143 643.226 32.8094 18.5658 37462.8 4412.83
internal_count=759696 699782 227591 133261 96032 472191 39458 37229 12102 12682 31560 29384 28407 5236 6689 83930 2124 432733 14880 2143 23171 81806 417853 914 334 2780 204 109 417744 48376
is_linear=0
shrinkage=0.1


Tree=4
num_leaves=31
num_cat=0
split_feature=8 14 2 2 11 11 0 11 2 4 0 6 0 2 10 2 10 15 13 2 17 1 5 12 4 15 15 2 4 10
split_gain=90478 11971.8 13307.7 20778.7 10109.4 7437.13 8616.15 4160.54 3903.81 2809.05 1895.97 822.242 526.409 509.742 1739.15 353.325 745.979 164.314 758.591 491.561 132.781 127.357 91.6008 78.6884 52.1589 51.0197 50.939 44.8117 43.8583 43.2551
threshold=1.4250195684669522 -0.39790437116650118 -0.37674936341842635 -0.35988669314704941 0.98768722873450099 0.98768722873450099 -0.29984984454162894 -0.30602954031256274 -0.090277382594316738 -0.16334233421573388 -0.68797150531686346 -0.26660178794786688 -1.0000000180025095e-35 -0.37296340967948094 -0.36254948846149349 -0.3573821713160506 -0.062565854869280943 -0.65670774832410084 -0.26744387965060507 -0.37296340967948094 -0.2922581736636462 -0.041230346614729789 -1.7880080962483578 -0.17005919401531902 -0.33860186491044009 0.016882852114510502 0.97331883223890647 -0.084861543500094491 -0.11711423090787064 -0.097310693900626591
decision_type=2 2 2 2 2 2 2 2 2 2 2 2 2 2 2 2 2 2 2 2 2 2 2 2 2 2 2 2 2 2
left_child=1 2 -1 7 15 17 9 10 -6 -7 11 13 -10 14 24 16 -5 18 19 -3 26 -17 29 -21 25 -4 -15 -2 -11 -19
right_child=27 5 3 4 8 6 -8 -9 12 28 -12 -13 -14 20 -16 21 -18 22 -20 23 -22 -23 -24 -25 -26 -27 -28 -29 -30 -31
leaf_value=-0.10970970991280656 -0.12357642281429833 -0.10623433697015175 0.16867703569796558 -0.10824559244802988 -0.10984670304416842 -0.10984668657564725 -0.10975722291482096 -0.10952421320837347 0.21721201592329684 0.21726627570474333 -0.10992002201327154 -0.10990158958195805 -0.1098534262629885 0.21532999454655177 -0.10249816130060199 -0.10890296223291265 0.26652046591116541 -0.11291308887753215 -0.10856094636887435 -0.080498939284506854 -0.09789740128199359 0.3022369969284901 -0.10845827206705363 0.23171167984498028 0.22181779004378482 -0.10631595854860164 -0.10986181093221187 0.21720704329430457 -0.081490883995818567 0.22553180836228448
leaf_weight=8020.7003746032715 3.8596384525299063 74.636817716062069 25.458824589848518 162.11833891272545 497.78906456381083 306.50749205052853 2174.3012045025826 493.96829204261303 1691.2949886322021 1887.006185978651 203.71838104724884 84.738163188099861 50.684787921607494 5831.3914053961635 231.84853310883045 7360.3851076811552 78.993771225214005 5.4909491166472462 938.67843078821898 8.6090598180890066 13.588456623256205 7.5420492440462104 33277.413761675358 129.55849176645279 634.74485366791487 9.1793340817093831 4.8209210187196723 14878.292583227158 4.9266042560338965 12.09271404892206
leaf_count=98184 25 890 144 1975 6100 3756 26638 6024 6808 7596 2489 1035 621 23527 2753 89912 349 55 11446 96 142 36 405867 554 2576 60 59 59889 41 49
internal_value=0 -0.0565318 -0.00315917 0.0460065 -0.0496164 -0.0914583 0.0313916 0.171018 0.137122 0.170991 0.190704 0.199663 0.207696 0.203549 0.133542 -0.104584 0.0145362 -0.107053 -0.0699147 0.100553 0.214334 -0.108482 -0.108338 0.212258 0.215297 0.0958021 0.215061 0.217119 0.216488 0.119844
internal_weight=0 64222.2 25403 17382.3 9848.81 38819.2 4372.74 7533.46 2239.77 2198.44 7039.49 6835.77 1741.98 6751.03 901.232 7609.04 241.112 34446.5 1151.48 212.804 5849.8 7367.93 33295 138.168 669.383 34.6382 5836.21 14882.2 1891.93 17.5837
internal_count=759696 699782 242794 144610 105801 456988 38031 38809 13529 11393 32785 30296 7429 29261 5533 92272 2324 418957 12986 1540 23728 89948 405971 650 2780 204 23586 59914 7637 104
is_linear=0
shrinkage=0.1


Tree=5
num_leaves=31
num_cat=0
split_feature=8 0 17 2 14 5 10 6 6 12 11 16 11 4 10 12 13 12 13 4 4 14 5 14 12 2 4 4 11 0
split_gain=74449.6 10813.4 18253.4 11791.3 8756.85 4744.05 2829.78 4387.39 2181.62 2141.17 1731.7 1581.2 1442.77 994.708 507.008 412.465 372.989 1968.44 1071.36 379.584 364.472 269.543 208.998 177.007 413.631 361.898 175.282 166.459 157.671 139.002
threshold=1.4250195684669522 -0.29984984454162894 -0.35855091596933703 -0.37674936341842635 -0.30772548800907457 0.30099462851043107 -0.062565854869280943 -0.27899013712966741 -0.27009081821179498 -0.15776945597589628 0.98768722873450099 0.31180741138056789 0.98768722873450099 -0.33454665737178929 0.051141909304531656 -0.16882958045835766 -0.20746974587072337 -0.16794032573550427 -0.26049556568610438 -0.16005038340150943 -0.33495709124748679 -0.32792827826921828 0.30666218151538943 -0.4676735903920835 -0.17686165515725541 -0.37585901732506471 -0.15183378124012967 -0.15802385295510349 0.25368175091730705 -0.74241391022198677
decision_type=2 2 2 2 2 2 2 2 2 2 2 2 2 2 2 2 2 2 2 2 2 2 2 2 2 2 2 2 2 2
left_child=1 2 3 -1 5 15 12 -8 9 11 -6 14 23 -9 16 -5 17 19 20 -7 -19 -15 26 24 25 -4 -18 -14 -16 -24
right_child=-2 -3 6 4 10 8 7 13 -10 -11 -12 -13 27 21 28 -17 22 18 -20 -21 -22 -23 29 -25 -26 -27 -28 -29 -30 -31
leaf_value=-0.10852708974375223 0.19424893039956367 -0.10884209575067903 -0.10759586241632149 -0.10660632020708592 -0.10883085218680209 -0.090349855121487244 -0.10444469793475397 -0.10099991544710558 -0.094595045609362563 -0.10655632204755683 0.19388164091834592 -0.10664930444080807 -0.10882233969857283 0.19578149020639735 0.26633212694006031 0.15900643748273263 -0.10882255759633699 -0.11408542152665087 -0.1031045566932096 0.20748381065320853 0.19984296855141026 -0.092692847694718472 -0.11124446509610696 -0.10747601965999556 -0.10460888459453699 0.18593071090226684 0.19433584549100028 0.19219597079324768 -0.10905796125611554 0.19426676194069861
leaf_weight=3515.8442039489746 14963.036926269531 23067.050742439926 67.426353648304939 827.24081396311522 2075.8657689243555 360.98798421770334 1511.0536647289991 136.12101650983095 344.47308070957661 289.54194409400225 207.90577864646912 203.07918356359005 20.412586659193039 1005.4628437161446 13.002599641680716 62.910212822258472 42.316164515912533 37.548528291285038 126.58048029243946 48.546538695693016 2455.7959875687957 33.468309693038464 14.928214222192763 16104.361488558352 448.46578875184059 111.40542425215244 34.721047922968864 183.63045061379671 80.211849167943001 6227.1372657194734
leaf_count=47116 59914 308690 897 11021 27738 4313 19807 1568 4461 3821 835 2698 274 4195 59 356 568 464 1544 200 10083 430 192 214946 5948 481 139 742 1055 25141
internal_value=0 -0.0552209 -0.0214174 0.0545338 0.0971492 0.133632 -0.0870988 0.00825693 0.152811 0.16139 -0.0812731 0.169433 -0.102223 0.153185 0.175372 -0.0878345 0.177685 0.148837 0.180707 -0.0550444 0.195115 0.186489 0.191516 -0.105446 -0.0533313 0.0752601 0.0278124 0.162082 -0.0566943 0.193536
internal_weight=0 59657.5 36590.4 16968.6 13452.8 11169 19621.8 2686.11 10278.9 9934.4 2283.77 9644.86 16935.7 1175.05 9441.78 890.151 9348.56 3029.46 2619.92 409.535 2493.34 1038.93 6319.1 16731.7 627.298 178.832 77.0372 204.043 93.2144 6242.07
internal_count=759696 699782 391092 141804 94688 66115 249288 26000 54738 50277 28573 46456 223288 6193 43758 11377 42644 16604 12091 4513 10547 4625 26040 222272 7326 1378 707 1016 1114 25333
is_linear=0
shrinkage=0.1


Tree=6
num_leaves=31
num_cat=0
split_feature=8 0 17 2 14 5 10 6 6 12 11 16 11 4 10 12 13 12 13 4 4 14 5 14 12 2 2 11 2 0
split_gain=62440.7 9858.54 16022.2 10171.8 7424.94 3892.19 2474.36 3644.4 1795.89 1771.34 1512.37 1372.5 1209.98 805.442 408.371 358.283 305.748 1653.49 889.419 323.06 299.468 239.215 162.457 152.541 367.576 359.23 148.583 132.784 128.138 127.092
threshold=1.4250195684669522 -0.29984984454162894 -0.35775518563628916 -0.37674936341842635 -0.30772548800907457 0.30099462851043107 -0.062565854869280943 -0.27917099503382886 -0.26976207564703808 -0.15776945597589628 0.98768722873450099 0.31180741138056789 0.98768722873450099 -0.33454665737178929 0.051141909304531656 -0.16900070881407406 -0.20746974587072337 -0.16794032573550427 -0.26049556568610438 -0.16005038340150943 -0.33495709124748679 -0.35695989790136712 0.30666218151538943 -0.46545624687123827 -0.17686165515725541 -0.37585901732506471 -0.07264222841371909 0.25368175091730705 -0.084861543500094491 -0.74241391022198677
decision_type=2 2 2 2 2 2 2 2 2 2 2 2 2 2 2 2 2 2 2 2 2 2 2 2 2 2 2 2 2 2
left_child=1 2 3 -1 5 15 12 -8 9 11 -6 14 23 -9 16 -5 17 19 20 -7 -19 -15 26 24 25 -4 -18 -16 -14 -22
right_child=-2 -3 6 4 10 8 7 13 -10 -11 -12 -13 28 21 27 -17 22 18 -20 -21 29 -23 -24 -25 -26 -27 -28 -29 -30 -31
leaf_value=-0.10759326854171483 0.17758848776974276 -0.1079276018537932 -0.10685002766124126 -0.10559225584593944 -0.10791233381294763 -0.087554588075826292 -0.10434081029964606 -0.10011176950745859 -0.097934003433102892 -0.10539058081236444 0.17719145817689702 -0.10562541627257008 -0.10791265421937919 0.17923793164382357 0.23201334719554945 0.13658563342060612 -0.10791290212204892 -0.11284001201058221 -0.10109749273589148 0.18945020360032705 0.18348139038268679 -0.057359890686199434 0.1765940698481574 -0.1067686247546884 -0.10330816930782999 0.16874546231293588 0.17767972373612009 -0.10812332907856621 0.17533211750747124 -0.10431303996930444
leaf_weight=3257.1735610961914 14739.809936523438 21039.728255867958 79.498437255620956 756.3835361674428 1934.4997017085552 349.00500674545765 1356.3533919528127 125.39037102460861 307.32470435649157 269.2783712670207 205.8595227599144 198.36368228495121 17.598577611148357 959.15362511575222 13.595411732792853 66.455250598490238 38.663451008498669 35.01178827881813 120.01261901855469 47.878422558307648 2457.4073894023895 44.72598085552454 6178.9731682538986 14464.931893378496 524.69574454426765 116.76263530552387 34.447330884635448 73.667049691081047 172.77988890558481 15.440960794687269
leaf_count=47843 59914 308690 1160 11026 28337 4470 19445 1553 4351 3886 839 2882 259 4009 60 377 569 474 1583 200 10074 559 25415 211517 7600 518 140 1062 708 176
internal_value=0 -0.0540603 -0.020942 0.0505558 0.0898711 0.123135 -0.0864258 0.00614541 0.14011 0.147551 -0.0804911 0.154674 -0.10139 0.138849 0.160188 -0.0860331 0.162213 0.136113 0.164846 -0.0541378 0.177573 0.168697 0.174841 -0.104531 -0.0596382 0.0571115 0.0266487 -0.0551303 0.149149 0.181684
internal_weight=0 55261.1 34221.3 16359.4 13102.3 10961.9 17861.9 2485.62 10139.1 9831.74 2140.36 9562.47 15376.3 1129.27 9364.1 822.839 9276.84 3024.76 2627.87 396.883 2507.86 1003.88 6252.08 15185.9 720.957 196.261 73.1108 87.2625 190.378 2472.85
internal_count=759696 699782 391092 143764 95921 66745 247328 25566 55342 50991 29176 47105 221762 6121 44223 11403 43101 16977 12307 4670 10724 4568 26124 220795 9278 1678 709 1122 967 10250
is_linear=0
shrinkage=0.1


Tree=7
num_leaves=31
num_cat=0
split_feature=8 0 17 2 14 5 10 6 6 12 11 16 11 4 13 12 13 10 0 4 4 14 0 5 4 14 15 13 4 4
split_gain=53093.5 8978.74 14126.9 8922.55 6474.85 3249.57 2094.01 3013.9 1499.79 1521.83 1345.13 1209.06 960.215 606.809 344.015 1628.27 782.234 319.754 296.994 254.554 249.747 225.161 137.54 129.84 168.594 111.191 275.794 217.195 106.407 95.8605
threshold=1.4250195684669522 -0.29984984454162894 -0.35612859276863701 -0.37674936341842635 -0.30772548800907457 0.30099462851043107 -0.062565854869280943 -0.27955307235716237 -0.26976207564703808 -0.15734569024569398 0.98768722873450099 0.31180741138056789 0.98768722873450099 -0.33454665737178929 -0.20812434107844544 -0.16794032573550427 -0.26049556568610438 -0.097310693900626591 -0.74241391022198677 -0.16005038340150943 -0.33495709124748679 -0.36102520589329451 -0.74241391022198677 0.30801379080915542 -0.15183378124012967 -0.46545624687123827 -0.26620316112792552 -0.20408627022899761 -0.33454665737178929 -0.15802385295510349
decision_type=2 2 2 2 2 2 2 2 2 2 2 2 2 2 2 2 2 2 2 2 2 2 2 2 2 2 2 2 2 2
left_child=1 2 3 -1 5 17 12 -8 9 11 -6 14 25 -9 15 19 18 -5 20 -7 -17 -15 -16 24 -24 26 -4 -28 -19 -14
right_child=-2 -3 6 4 10 8 7 13 -10 -11 -12 -13 29 21 22 16 -18 28 -20 -21 -22 -23 23 -25 -26 -27 27 -29 -30 -31
leaf_value=-0.10676279466723593 0.16494115545972679 -0.10711372117503051 -0.096324940662219485 -0.10495108834942038 -0.10709619172896101 -0.08495162936762507 -0.10506425750967426 -0.095900829726271813 -0.095922648818127842 -0.10529600612585595 0.1645054993001922 -0.10468669229959476 -0.10710327018050497 0.16552376227074106 -0.11129288184182751 -0.11238696252731768 -0.10060914601313729 -0.10582369936165495 -0.10566469791065608 0.17780985498274915 0.16983010246469279 -0.05331205569645317 -0.10785031192522272 0.16450455533049077 0.16530578980407717 -0.10590380408186784 -0.10721512400525263 0.16201036957667492 0.18854234659216412 0.16217911532413412
leaf_weight=3057.73122215271 14304.576293945312 19174.788802608848 515.00977194309235 692.87166763469577 1832.2532375454903 387.70561385527253 1194.2136356756091 108.62191469967365 285.93877765536308 253.53671227768064 202.50013220310211 193.06169927492738 14.489963199943302 881.84617744386196 18.37538979575038 31.761106487363577 118.86437720805407 15.967015981674193 40.82829761505127 40.743088141083717 2464.5685973204672 49.665037743747234 40.498738583177328 6017.4913389086723 51.112807873636484 13033.352935701609 46.496318317949772 84.281495563685894 53.178359109908342 150.8074940033257
leaf_count=49265 59914 308690 7976 11032 29443 5370 18785 1457 4391 4013 850 3071 234 3792 232 467 1711 187 599 176 10373 649 621 25300 214 208885 742 389 232 636
internal_value=0 -0.0530411 -0.0205159 0.0466411 0.0834559 0.114533 -0.0865042 0.00332654 0.129783 0.136465 -0.0800662 0.142983 -0.101002 0.127774 0.148173 0.120936 0.150118 -0.0844875 0.161864 -0.0599645 0.166239 0.153856 0.161884 0.162706 0.0445516 -0.103897 -0.0633938 0.0662908 0.120567 0.138574
internal_weight=0 51052.6 31877.8 15799 12741.3 10706.5 16078.8 2234.35 9944.49 9658.55 2034.75 9405.01 13844.4 1040.13 9211.95 3084.47 2656.02 762.017 2537.16 428.449 2496.33 931.511 6127.48 6109.1 91.6115 13679.1 645.788 130.778 69.1454 165.297
internal_count=759696 699782 391092 147547 98282 67989 243545 24683 56538 52147 30293 48134 218862 5898 45063 18696 13150 11451 11439 5546 10840 4441 26367 26135 835 217992 9107 1131 419 870
is_linear=0
shrinkage=0.1


Tree=8
num_leaves=31
num_cat=0
split_feature=5 0 17 2 14 5 10 6 16 12 9 11 11 4 10 10 13 13 12 13 4 4 4 0 0 5 2 11 11 2
split_gain=45622.6 8139.3 12583.6 7967.28 5778.37 2743.36 1593.22 2367 1316.7 1264.9 1261.25 1211.15 729.734 436.541 304.026 295.629 276.116 217.766 1275.53 690.147 204.202 186.354 183.945 125.661 114.694 106.888 145.857 104.471 102.854 98.7833
threshold=-1.0659202492292807 -0.29984984454162894 -0.35372484696664436 -0.37585901732506471 -0.30772548800907457 0.30099462851043107 -0.062565854869280943 -0.27955307235716237 0.25521261650935484 -0.15734569024569398 -0.22503185378420273 0.98768722873450099 0.98768722873450099 -0.33454665737178929 -0.097310693900626591 0.066822720421880352 -0.2609590516561443 -0.20874888181669662 -0.16794032573550427 -0.26049556568610438 -0.33495709124748679 -0.16005038340150943 -0.094068124389809479 -0.74241391022198677 -0.74241391022198677 0.30801379080915542 -0.07264222841371909 -0.29508908866995448 -0.36722325201965539 -0.37674936341842635
decision_type=2 2 2 2 2 2 2 2 2 2 2 2 2 2 2 2 2 2 2 2 2 2 2 2 2 2 2 2 2 2
left_child=22 2 3 29 5 14 12 -8 9 10 15 -6 -4 -9 -5 17 27 18 21 20 -20 28 -1 -22 -19 26 -26 -15 -7 -2
right_child=1 -3 6 4 11 8 7 13 -10 -11 -12 -13 -14 16 -16 -17 -18 24 19 -21 23 -23 -24 -25 25 -27 -28 -29 -30 -31
leaf_value=-0.1070924750787513 -0.1060344876557608 -0.10639015799476666 -0.10357407822438865 -0.10394803924150167 -0.10636968393971975 0.050458144197600523 -0.10404990195460617 -0.09367275243630975 -0.10196530868957539 -0.10431131762063278 -0.10665151385934662 0.15437613165315864 0.12814197644331718 0.16087850847508636 0.11955499556925374 -0.091916710104457983 -0.11583399922340953 -0.11116160730546043 -0.11208105492866477 -0.10113856181731583 0.15944732897141928 0.17009265760738973 0.15522582422399189 -0.10263025497912606 -0.10705137170929602 0.15507891650018024 0.15536865849984535 -0.11202808794853908 -0.10359220042359628 -0.014605100681151131
leaf_weight=26.784007139503956 2909.7002220153809 17455.550879180431 12207.087345164269 633.71423586085439 1740.2681549601257 51.388689536601305 1055.4584430903196 87.296454153954983 254.57739279419184 227.6332590021193 212.12689435482025 198.45483483374119 137.44060660153627 732.57867420092225 67.327694967389107 54.594879876822233 39.440553367137909 16.42944784834981 28.417702563107014 110.26171297952533 2470.9661762714386 32.924161326140165 13744.474965028465 18.431788258254528 37.016280595213175 5769.3676224723458 49.508784424513578 14.300974797457455 276.74981127306819 123.17366218566895
leaf_count=456 51440 308555 213412 11055 30695 545 18191 1255 4393 3944 3630 869 755 3194 404 898 540 229 452 1717 10804 149 60052 272 623 25209 216 163 4241 1338
internal_value=0 -0.0522463 -0.02027 0.0427876 0.0787134 0.108494 -0.0877871 -0.00327211 0.122425 0.128531 0.134337 -0.0796788 -0.100994 0.118482 -0.0824829 0.140071 0.142036 0.1415 0.119528 0.14374 0.154464 -0.0567103 0.154716 0.157507 0.152684 0.153424 0.0431028 0.155653 -0.0794669 -0.102321
internal_weight=0 47012.2 29556.6 15283 12250.2 10311.4 14273.6 1929.08 9610.39 9355.82 9128.18 1938.72 12344.5 873.617 701.042 8916.06 786.32 8861.46 2989.14 2628.08 2517.82 361.063 13771.3 2489.4 5872.32 5855.89 86.5251 746.88 328.139 3032.87
internal_count=759696 699188 390633 153123 100345 68781 237510 23343 57322 52929 48985 31564 214167 5152 11459 45355 3897 44457 18180 13245 11528 4935 60508 11076 26277 26048 839 3357 4786 52778
is_linear=0
shrinkage=0.1


Tree=9
num_leaves=31
num_cat=0
split_feature=5 0 17 2 14 5 10 6 16 12 11 9 11 4 13 12 13 2 12 0 13 4 4 11 0 11 5 4 14 12
split_gain=39505.4 7407.2 11167.7 7028.62 5051.71 2340.21 1376.37 2021.37 1159.68 1090.35 1077.62 1068.65 617.857 366.43 272.973 1228.77 618.802 275.039 260.066 230.242 224.287 194.602 156.641 105.105 93.4876 88.8622 88.7002 126.416 81.5645 207.098
threshold=-1.0659202492292807 -0.29984984454162894 -0.35293870053823756 -0.37674936341842635 -0.30772548800907457 0.30099462851043107 -0.062565854869280943 -0.27955307235716237 0.28176989538387015 -0.15689599501005044 0.98768722873450099 -0.23382160364024052 0.98768722873450099 -0.33454665737178929 -0.20614557587962321 -0.16794032573550427 -0.26049556568610438 -0.090277382594316738 -0.16900070881407406 -0.74241391022198677 -0.2609590516561443 -0.33495709124748679 -0.094068124389809479 -0.37002438292790202 -0.74241391022198677 -0.30249104513860631 0.30801379080915542 -0.15183378124012967 -0.46545624687123827 -0.17686165515725541
decision_type=2 2 2 2 2 2 2 2 2 2 2 2 2 2 2 2 2 2 2 2 2 2 2 2 2 2 2 2 2 2
left_child=22 2 3 -2 5 18 12 -8 9 11 -6 14 28 -9 15 17 19 23 -5 21 25 -17 -1 -7 -16 -15 27 -26 29 -4
right_child=1 -3 6 4 10 8 7 13 -10 -11 -12 -13 -14 20 24 16 -18 -19 -20 -21 -22 -23 -24 -25 26 -27 -28 -29 -30 -31
leaf_value=-0.10638871045345717 -0.10535883692722214 -0.10574190135935152 0.044312753987597354 -0.10267428284343597 -0.10572433831317166 0.041116763729195052 -0.10305841253702085 -0.094109975514054797 -0.10243999016171695 -0.10467141781754336 0.14634921322548086 -0.1052556562724712 0.11836178815966006 0.1524065555220924 -0.10938068681934719 -0.11068366854250929 -0.094062858219311402 0.15479888555775889 0.10421693943938358 -0.10385414453683611 -0.11464583875293566 0.15088691738249604 0.1472851243254365 -0.10129206911807356 -0.1063427941021665 -0.11077513490438905 0.14637461489644682 0.14722232888525941 -0.10465526336380011 -0.10067560986751521
leaf_weight=24.387298654764891 2685.5762767791748 15886.318712580949 131.62235225737095 584.04133384302258 1625.8647065907717 61.824925299733877 954.552067309618 77.383873142302036 239.24746602401137 209.83776936680079 189.34425052255392 195.45008598268032 127.84314611554146 672.31552293151617 14.500978715717791 28.785757824778557 114.29845439642668 58.367566823959351 67.811956208199263 36.92128187417984 34.301205489784479 2385.5595187693834 13071.437835622579 320.45114362239838 33.884490448981524 13.078965149819849 5532.7744155265391 46.842656813561916 10546.807405617088 391.68545244634151
leaf_count=456 52145 308555 1401 11136 31477 629 18020 1201 4530 3996 871 3664 718 3076 221 501 1898 274 418 650 514 10934 60052 5377 626 163 25379 215 203217 7382
internal_value=0 -0.0514219 -0.0199057 0.040591 0.0739612 0.102 -0.0873249 -0.00489443 0.114866 0.120618 -0.0794306 0.125972 -0.100219 0.112663 0.131206 0.106877 0.133373 -0.0473895 -0.0811515 0.143978 0.134896 0.147768 0.146813 -0.0782605 0.144201 0.147384 0.144856 0.0407907 -0.102743 -0.0642081
internal_weight=0 43267.3 27381 14431.4 11745.8 9930.6 12949.6 1751.63 9278.75 9039.5 1815.21 8829.66 11198 797.08 8634.21 3006.21 2565.57 440.644 651.853 2451.27 719.696 2414.35 13095.8 382.276 5628 685.394 5613.5 80.7271 11070.1 523.308
internal_count=759696 699188 390633 154941 102796 70448 235692 22974 58894 54364 32348 50368 212718 4954 46704 20263 13983 6280 11554 12085 3753 11435 60508 6006 26441 3239 26220 841 212000 8783
is_linear=0
shrinkage=0.1


Tree=10
num_leaves=31
num_cat=0
split_feature=5 0 17 2 14 5 16 12 11 9 10 6 11 10 13 12 13 0 2 4 4 13 4 0 2 13 4 5 2 2
split_gain=34428.2 6734.58 9971.4 6563.74 4827.64 1975.95 1143.23 1063.46 994.412 932.269 765.12 1402.88 407.953 282.424 269.583 1308.94 662.134 217.921 201.904 193.632 163.285 147.658 134.667 109.225 83.2394 104.197 78.7331 76.6696 69.7109 62.7207
threshold=-1.0659202492292807 -0.29984984454162894 -0.34651365623732294 -0.37585901732506471 -0.30772548800907457 0.30099462851043107 0.25521261650935484 -0.15689599501005044 0.98768722873450099 -0.24541831714916948 -0.062565854869280943 -0.27936492942946017 0.98768722873450099 -0.097310693900626591 -0.20874888181669662 -0.16829201145390957 -0.26230368020899869 -0.74241391022198677 -0.37224634404971363 -0.33495709124748679 -0.16005038340150943 -0.2609590516561443 -0.094068124389809479 -0.74241391022198677 -0.37674936341842635 -0.19668348656018994 -0.33454665737178929 0.30532267625435161 -0.3519909122417077 -0.07264222841371909
decision_type=2 2 2 2 2 2 2 2 2 2 2 2 2 2 2 2 2 2 2 2 2 2 2 2 2 2 2 2 2 2
left_child=22 2 3 24 5 13 7 9 -6 14 12 -12 -4 -5 15 20 17 19 -13 -17 -7 28 -1 -16 -2 -26 -15 29 -20 -25
right_child=1 -3 10 4 8 6 -8 -9 -10 -11 11 18 -14 26 23 16 -18 -19 21 -21 -22 -23 -24 27 25 -27 -28 -29 -30 -31
leaf_value=-0.10575814084116804 -0.10479486594676844 -0.10516210732764664 -0.1032951021435554 -0.10214801081139224 -0.10514537807911789 -0.088613055357249546 -0.10058268275005366 -0.10409364958411405 0.1398571549156262 -0.10364760546715759 -0.10273108083433871 -0.092455338983179258 0.1113196102114338 -0.099364027796990537 -0.10848473431406276 -0.11148196391710018 -0.09532343874983909 -0.10309887267425628 0.1465045650085415 0.14412767279136648 0.1553243367889986 -0.11409970110724194 0.14080554600001668 -0.10521311102311869 -0.098927579830274115 0.085217657402689995 0.16019489206378743 0.14029975033406106 -0.1100074893775394 0.14076990150320035
leaf_weight=22.191392961889505 2708.0423030853271 14449.746355123818 9529.6283783949912 538.50866368785501 1641.0297721959651 359.82027261704206 254.00627207756042 216.89656252786517 184.26450532674789 182.26830004528165 807.59685648232698 45.821616031229496 89.401780381798744 14.634845115244387 17.858224339783192 29.996577084064484 128.35812454298139 37.099839985370636 438.35131627321243 2466.6222707629204 29.705823767930269 24.034996248781681 12343.106824811548 23.225381910800934 73.277583438903093 52.919233959168196 58.009601265192032 5318.1631561107934 10.857024893164633 18.72123434394598
leaf_count=456 57726 308555 200845 11211 34918 6424 5261 4541 896 3744 16727 768 503 175 314 553 2339 728 2121 11937 150 388 60052 495 1205 276 271 25883 143 91
internal_value=0 -0.0506973 -0.0195895 0.0352343 0.0687776 0.096869 0.10858 0.114598 -0.0804122 0.120106 -0.0914816 -0.02029 -0.1013 -0.0771802 0.124944 0.101204 0.126256 0.137482 0.107977 0.141057 -0.07001 0.127384 0.140363 0.138415 -0.101095 -0.0217083 0.107905 0.139238 0.140305 0.0045718
internal_weight=0 39748.9 25299.1 14353.4 11519.2 9693.9 9082.74 8828.74 1825.29 8611.84 10945.7 1326.66 9619.03 611.153 8429.57 3051.6 2662.08 2533.72 519.065 2496.62 389.526 473.243 12365.3 5377.97 2834.24 126.197 72.6444 5360.11 449.208 41.9466
internal_count=759696 699188 390633 169138 109931 74117 62460 57199 35814 52658 221495 20147 201348 11657 48914 22131 15557 13218 3420 12490 6574 2652 60508 26783 59207 1481 446 26469 2264 586
is_linear=0
shrinkage=0.1


Tree=11
num_leaves=31
num_cat=0
split_feature=5 0 17 2 14 5 16 11 12 9 10 6 11 10 13 12 13 0 4 2 4 13 4 11 0 2 5 5 2 4
split_gain=30156.7 6120.56 8909.32 5906.09 4362.68 1702.59 1002.83 961.69 935.618 809.561 550.929 1099.79 321.334 263.63 250.113 1185.4 565.977 197.303 172.56 155.106 142.013 118.417 116.657 101.685 97.4858 80.0528 95.9832 73.8159 138.197 69.2721
threshold=-1.0659202492292807 -0.29984984454162894 -0.34405030079931137 -0.37585901732506471 -0.30991677853507821 0.30099462851043107 0.25521261650935484 0.98768722873450099 -0.15689599501005044 -0.24541831714916948 -0.062565854869280943 -0.27936492942946017 0.98768722873450099 -0.097310693900626591 -0.20746974587072337 -0.16794032573550427 -0.26049556568610438 -0.74241391022198677 -0.16005038340150943 -0.37224634404971363 -0.33495709124748679 -0.2609590516561443 -0.094068124389809479 -0.36722325201965539 -0.74241391022198677 -0.37674936341842635 0.38963909230737337 0.30941936564284062 -0.07264222841371909 -0.33454665737178929
decision_type=2 2 2 2 2 2 2 2 2 2 2 2 2 2 2 2 2 2 2 2 2 2 2 2 2 2 2 2 2 2
left_child=22 2 3 25 5 13 8 -6 9 14 12 -12 -4 -5 15 18 17 20 23 -13 -17 -21 -1 -7 -16 -2 -27 28 -26 -15
right_child=1 -3 10 4 7 6 -8 -9 -10 -11 11 19 -14 29 24 16 -18 -19 -20 21 -22 -23 -24 -25 27 26 -28 -29 -30 -31
leaf_value=-0.10519242196035433 -0.1042539183351 -0.10464269016583616 -0.10305322477106789 -0.10126730212994001 -0.10462900880719726 0.039161629082075898 -0.099532690093825371 0.134349764664699 -0.10345094362024805 -0.10287726376553388 -0.10230193587960996 -0.093867312024100091 0.10244066877094336 -0.096186997904931265 -0.10762176402623905 -0.11005247429542515 -0.095117727246766828 -0.10241435360618055 0.14573990272845225 0.13412595588604365 0.1382238299412609 -0.11391677905604368 0.1354378724601174 -0.10093922775423292 -0.10854562978221663 -0.08496225602070856 0.10182430713622326 0.1354994511591876 0.13551426185654275 0.15336379731608768
leaf_weight=20.182079046964645 2549.3098812103271 13136.250711224973 8491.0650133900344 493.2859168164432 1569.2141842357814 61.668494191020727 235.5790561363101 188.63178439438343 201.06880803406239 167.22448063269258 715.28067691624165 36.891014162451029 76.783530108630657 13.809333156794308 16.786687910556793 23.264350242912769 114.51761980727315 35.27595853805542 37.658670995384455 360.48182578012347 2375.6601023003459 20.332527726888657 11587.906238824129 323.90415958315134 35.852718375623226 81.046035580337048 41.648189730942249 4937.5102805905044 65.746824469417334 57.191316604614258
leaf_count=456 59736 308555 196657 11245 36697 703 5339 977 4625 3770 16258 663 444 178 328 480 2272 757 202 1946 12211 354 60052 6574 669 1266 247 25415 340 280
internal_value=0 -0.0500467 -0.0193014 0.0328442 0.0653607 0.0929528 0.103954 -0.0789846 0.109664 0.114893 -0.0925456 -0.0270115 -0.101212 -0.0753357 0.119429 0.0964067 0.122143 0.132364 -0.0585761 0.101916 0.135816 0.120882 0.13502 -0.0785315 0.132962 -0.100457 -0.0215581 0.133763 0.0493898 0.104827
internal_weight=0 36462.9 23326.7 13625.9 10953.9 9196 8631.72 1757.85 8396.14 8195.07 9700.83 1132.99 8567.85 564.287 8027.85 2971.95 2548.72 2434.2 423.231 417.705 2398.92 380.814 11608.1 385.573 5055.9 2672 122.694 5039.11 101.6 71.0006
internal_count=759696 699188 390633 174311 113062 75388 63685 37674 58346 53721 216322 19221 197101 11703 49951 23199 15720 13448 7479 2963 12691 2300 60508 7277 26752 61249 1513 26424 1009 458
is_linear=0
shrinkage=0.1


Tree=12
num_leaves=31
num_cat=0
split_feature=5 0 17 2 14 5 16 12 11 9 10 6 11 10 13 12 13 0 4 4 0 4 13 4 2 13 2 11 5 2
split_gain=26526.5 5560.31 7962.97 5231.66 3827.65 1481.76 896.728 849.13 800.048 707.014 503.571 973.901 287.968 234.592 222.706 1123.77 547.039 186.32 149.48 134.694 105.382 101.677 100.261 93.3564 78.4325 84.04 65.9127 65.2859 63.1119 151.546
threshold=-1.0659202492292807 -0.29984984454162894 -0.34405030079931137 -0.37585901732506471 -0.30772548800907457 0.30099462851043107 0.31180741138056789 -0.15689599501005044 0.98768722873450099 -0.23382160364024052 -0.062565854869280943 -0.27936492942946017 0.9021275571659646 -0.097310693900626591 -0.21060717642779972 -0.16829201145390957 -0.26049556568610438 -0.74241391022198677 -0.33495709124748679 -0.33454665737178929 -0.74241391022198677 -0.094068124389809479 -0.2609590516561443 -0.16005038340150943 -0.37674936341842635 -0.19668348656018994 -0.068416953448366583 -0.29508908866995448 0.31065154612802498 -0.076765675559852739
decision_type=2 2 2 2 2 2 2 2 2 2 2 2 2 2 2 2 2 2 2 2 2 2 2 2 2 2 2 2 2 2
left_child=21 2 3 24 5 13 7 9 -6 14 12 -12 -4 26 15 23 17 18 -17 -13 -16 -1 27 -7 -2 -26 -5 -21 29 -22
right_child=1 -3 10 4 8 6 -8 -9 -10 -11 11 19 -14 -15 20 16 -18 -19 -20 22 28 -23 -24 -25 25 -27 -28 -29 -30 -31
leaf_value=-0.10468432892955606 -0.10374723275640899 -0.10417687703076968 -0.10237221516959363 -0.10435808915227048 -0.10415236893765195 -0.086953327304138087 -0.10181721623541531 -0.10288516095069777 0.12969422038815748 -0.1033375628408362 -0.10153368055604879 -0.086642388410759261 0.095087021049077874 0.099796309670868333 -0.10709791167104343 -0.10965892560461923 -0.10321810103129014 -0.1018738495088321 0.13338252422549232 0.13663132912889309 -0.11000289599631229 0.13093621464203314 -0.11323032824055973 0.15539189448595303 -0.096330026631614843 0.073069832233454202 0.26781272980835652 -0.11024771156305363 0.13098894037101283 0.13119460884682005
leaf_weight=18.345613714307547 2317.4038009643555 11936.607454568148 7731.5613472014666 445.51296262070537 1411.2237222902477 331.85406249016523 213.99384298548102 190.53767139092088 163.22507157176733 151.12641385942698 651.86260943859816 35.986481446772814 74.569005362689495 67.291160207241774 18.963435508310795 25.595235750079155 107.96767118945718 34.997468709945679 2239.296423509717 327.96358831599355 37.251188110560179 10826.821836236864 18.061998922377825 16.695216625928879 65.249675992876291 53.134193178266287 4.8100322224199763 11.07317093759775 4636.4784004203975 86.627579391002655
leaf_count=456 59736 308555 196657 11230 36332 6935 5362 4818 902 3754 16258 679 444 458 410 567 2390 825 12277 1799 698 60052 342 96 1231 282 21 143 25508 479
internal_value=0 -0.0494614 -0.0190419 0.0319616 0.0634518 0.0896702 0.100163 0.10565 -0.0799092 0.110819 -0.091759 -0.0265657 -0.100486 -0.074359 0.115114 0.0924774 0.116771 0.127098 0.130636 0.0977554 0.12817 0.130538 0.116338 -0.0753452 -0.0996915 -0.0202983 -0.100383 0.128568 0.129107 0.0586649
internal_weight=0 33406.9 21470.3 12619.2 10183.4 8609 8091.38 7877.39 1574.45 7686.85 8851.08 1044.95 7806.13 517.614 7535.73 2756.41 2407.86 2299.89 2264.89 393.085 4779.32 10845.2 357.099 348.549 2435.79 118.384 450.323 339.037 4760.36 123.879
internal_count=759696 699188 390633 174311 113062 75828 64119 58757 37234 53939 216322 19221 197101 11709 50185 23090 16059 13669 12844 2963 27095 60508 2284 7031 61249 1513 11251 1942 26685 1177
is_linear=0
shrinkage=0.1


Tree=13
num_leaves=31
num_cat=0
split_feature=5 0 17 2 14 5 11 11 12 9 10 6 11 13 12 13 10 4 0 4 4 11 4 13 12 0 4 11 11 4
split_gain=23414.9 5049.89 7124.4 4646.97 3367.27 1299.69 805.737 716.72 683.092 616.957 457.696 866.881 258.702 226.409 975.834 439.299 201.044 171.612 148.295 119.579 111.733 98.1104 89.0678 88.82 77.7032 72.7772 69.3788 59.9781 56.7757 55.3862
threshold=-1.0659202492292807 -0.29984984454162894 -0.34405030079931137 -0.37674936341842635 -0.30772548800907457 0.30099462851043107 -0.5283718225335351 0.98768722873450099 -0.15689599501005044 -0.2560616977732359 -0.062565854869280943 -0.27936492942946017 0.98768722873450099 -0.20614557587962321 -0.16776571547826238 -0.26140316548654624 -0.097310693900626591 -0.16005038340150943 -0.74241391022198677 -0.33495709124748679 -0.33495709124748679 -0.3589983685524924 -0.094068124389809479 -0.2609590516561443 -0.16953684890096268 -0.74241391022198677 -0.33454665737178929 0.98768722873450099 -0.30249104513860631 -0.15183378124012967
decision_type=2 2 2 2 2 2 2 2 2 2 2 2 2 2 2 2 2 2 2 2 2 2 2 2 2 2 2 2 2 2
left_child=22 2 3 -2 5 16 -7 -6 9 13 12 -12 -4 14 17 18 29 21 20 -13 -16 24 -1 28 -8 -15 -18 -17 -21 -5
right_child=1 -3 10 4 7 6 8 -9 -10 -11 11 19 -14 25 15 27 26 -19 -20 23 -22 -23 -24 -25 -26 -27 -28 -29 -30 -31
leaf_value=-0.1042275581302621 -0.10328376916744952 -0.10375876021580593 -0.10171498142568405 -0.10394776476070276 -0.10373652585652755 -0.098375743446686204 -0.060741146358700038 0.12567936878451921 -0.10218944201165264 -0.099860352396345442 -0.10078489088841042 -0.10856167071043142 0.088215478114940793 -0.10593744047897727 -0.1080343852480304 -0.10479142674920808 -0.097608207303431782 0.13471716694293304 -0.10078893211900171 0.13032381107272897 0.12902208035091328 -0.10355413650398884 0.12712096262885411 -0.11222193954932179 0.10884084800806032 0.12453289192246308 0.14083240821594717 0.23217530236104478 -0.10913498070430022 0.23009606497952523
leaf_weight=16.668834656476974 2105.8045120239258 10841.998630315065 7038.7316441982985 407.40407736226916 1296.0267674587667 207.52426474913955 67.450593650341034 152.16496101766825 161.21484404057264 142.81748704612255 593.99135582521558 26.76910687983036 72.453385297209024 13.743773944675921 20.075994431972504 98.583879522979259 15.905871868133543 45.004403125494719 29.043527126312256 311.79913416132331 2066.9888675808907 276.71084218844771 10075.23176959157 16.937675062566996 45.076566085219383 4445.885187651962 52.418368216603994 5.5813024044036856 10.226244103163479 5.0247908234596244
leaf_count=456 59736 308555 196657 11283 36675 5458 1262 902 4474 3845 16258 617 444 320 500 2350 219 276 757 1845 12152 6701 60052 355 445 26630 280 25 146 21
internal_value=0 -0.0489319 -0.0188057 0.0311862 0.0608228 0.0859145 0.0959682 -0.0796313 0.101405 0.105928 -0.0910314 -0.026209 -0.0997798 0.110059 0.0869362 0.11375 -0.0735573 -0.0501622 0.123619 0.0949108 0.126742 -0.0715383 0.126739 0.11098 0.00719067 0.123823 0.0853235 -0.0867363 0.12272 -0.099878
internal_weight=0 30573.4 19731.4 11660.5 9554.65 8106.45 7625.7 1448.19 7418.18 7256.96 8070.91 959.724 7111.19 7114.14 2654.52 2220.27 480.753 434.242 2116.11 365.732 2087.06 389.238 10091.9 338.963 112.527 4459.63 68.3242 104.165 322.025 412.429
internal_count=759696 699188 390633 174311 114575 76998 65195 37577 59737 55263 216322 19221 197101 51418 24468 15784 11803 8684 13409 2963 12652 8408 60508 2346 1707 26950 499 2375 1991 11304
is_linear=0
shrinkage=0.1


Tree=14
num_leaves=31
num_cat=0
split_feature=5 0 17 2 14 5 16 11 12 9 10 8 11 10 13 12 13 11 4 11 2 4 4 2 10 13 0 2 5 5
split_gain=20726.1 4587.9 6384.7 4213.45 3080.55 1140.88 703.249 693.803 670.578 548.335 321.354 679.018 207.05 188.355 186.555 849.365 397.125 136.381 130.807 112.601 97.1784 92.7414 78.3488 73.3197 89.536 72.7705 72.1304 67.5755 68.77 66.1124
threshold=-1.0659202492292807 -0.29984984454162894 -0.34146368399693544 -0.37585901732506471 -0.30991677853507821 0.30099462851043107 0.34449019308031698 0.98768722873450099 -0.15689599501005044 -0.22503185378420273 -0.062565854869280943 -0.3007921265738277 0.98768722873450099 -0.097310693900626591 -0.20680460614849736 -0.16776571547826238 -0.26005616699787854 -0.30249104513860631 -0.16005038340150943 -0.3589983685524924 -0.37224634404971363 -0.33495709124748679 -0.094068124389809479 -0.37224634404971363 -0.097310693900626591 -0.2609590516561443 -0.74241391022198677 -0.37674936341842635 0.38963909230737337 0.31065154612802498
decision_type=2 2 2 2 2 2 2 2 2 2 2 2 2 2 2 2 2 2 2 2 2 2 2 2 2 2 2 2 2 2
left_child=22 2 3 27 5 13 8 -6 9 14 12 -12 -4 -5 15 18 17 21 19 23 -13 -17 -1 -7 -25 -22 -16 -2 -29 -28
right_child=1 -3 10 4 7 6 -8 -9 -10 -11 11 20 -14 -15 26 16 -18 -19 -20 -21 25 -23 -24 24 -26 -27 29 28 -30 -31
leaf_value=-0.10381659277035903 -0.10287803013893637 -0.10338271894666938 -0.1016917440762525 -0.099372407289129217 -0.10335611399758771 -0.078796155003658302 -0.10255346657363396 0.12220895049694583 -0.10179682928696543 -0.10356917408599287 -0.10059094498337307 -0.096096409982373732 0.080807184435836676 0.086689031836396355 -0.10555848688845851 -0.10802147538183748 -0.091066601584193996 -0.10457210080773115 0.13290073006649328 -0.10275072471184428 0.12154783720853023 0.12551656639353082 0.12385847019724805 -0.063767328303673848 0.20096251868660292 -0.11043730781244628 0.046006549696725803 -0.082589233898120673 0.080793370791723745 0.12378511790982556
leaf_weight=15.139248181134461 1977.4243125915527 9844.112324161455 6256.5362304002047 374.05291216447949 1224.8320605158806 39.217903137207031 177.39735786616802 153.4448047876358 162.26683777570724 125.00855755805969 525.63629725575447 25.38224895298481 62.790285866707563 63.669252548366785 14.018662568181751 17.151976551860571 92.797714333981276 26.566878993064165 35.4779820330441 257.25078048557043 247.07765625789762 1974.8211353570223 9344.1162755005062 20.570464160293341 33.716711796820164 14.304667346179484 112.35462387278676 70.245224095880985 40.682977579534054 4000.8150902204216
leaf_count=456 61725 308555 192330 11279 38188 691 5345 980 4957 3760 15726 581 396 469 372 466 2369 745 236 6888 1685 12504 60052 407 162 338 1174 1303 248 25309
internal_value=0 -0.048426 -0.0185786 0.0292237 0.0592029 0.0843704 0.0940442 -0.0782438 0.0990899 0.103919 -0.0922673 -0.0330642 -0.0998784 -0.0723087 0.107835 0.0862627 0.111205 0.120504 -0.0500831 -0.0685914 0.0907115 0.123506 0.12349 0.0253874 0.100651 0.108852 0.120889 -0.0986175 -0.0226686 0.121661
internal_weight=0 27969.6 18125.5 10993.8 8905.43 7527.15 7089.43 1378.28 6912.04 6749.77 7131.73 812.401 6319.33 437.722 6624.76 2497.57 2111.34 2018.54 386.234 350.756 286.765 1991.97 9359.26 93.5051 54.2872 261.382 4127.19 2088.35 110.928 4113.17
internal_count=759696 699188 390633 179577 116301 77133 65385 39168 60040 55083 211056 18330 192726 11748 51323 24468 16084 13715 8384 8148 2604 12970 60508 1260 569 2023 26855 63276 1551 26483
is_linear=0
shrinkage=0.1


Tree=15
num_leaves=31
num_cat=0
split_feature=5 0 17 2 14 5 11 11 12 9 10 15 11 13 12 13 10 2 0 4 11 4 11 10 2 16 5 2 13 0
split_gain=18391.3 4167.58 5720.66 3750.77 2719.6 1004.69 634.322 623.194 534.929 479.797 294.14 608.869 187.258 185.581 822.261 350.972 162.004 132.537 121.052 105.794 101.004 87.662 101.894 71.93 69.1632 97.857 67.4932 111.637 67.4596 62.927
threshold=-1.0659202492292807 -0.29984984454162894 -0.34146368399693544 -0.37674936341842635 -0.30991677853507821 0.30099462851043107 -0.5283718225335351 0.98768722873450099 -0.1563977243858449 -0.22503185378420273 -0.062565854869280943 -0.63879943461360844 0.9021275571659646 -0.20614557587962321 -0.16758735855144558 -0.26005616699787854 -0.097310693900626591 -0.090277382594316738 -0.74241391022198677 -0.33454665737178929 -0.3589983685524924 -0.33454665737178929 -0.3589983685524924 -0.24418026626144737 -0.37224634404971363 -0.34871228441732899 0.30941936564284062 -0.07264222841371909 -0.2609590516561443 -0.74241391022198677
decision_type=2 2 2 2 2 2 2 2 2 2 2 2 2 2 2 2 2 2 2 2 2 2 2 2 2 2 2 2 2 2
left_child=23 2 3 -2 5 16 -7 -6 9 13 12 19 -4 14 17 18 -5 20 21 -12 24 22 -16 -1 -8 -26 27 -15 -21 -28
right_child=1 -3 10 4 7 6 8 -9 -10 -11 11 -13 -14 26 15 -17 -18 -19 -20 28 -22 -23 -24 -25 25 -27 29 -29 -30 -31
leaf_value=-0.050367830905579447 -0.10248620875882899 -0.10304455225345942 -0.10113431718805173 -0.098546294340902896 -0.10302317097871723 -0.096719405702696895 -0.07972027552765476 0.11913391811615869 -0.10178161408024139 -0.10322723895388415 -0.087842445632287602 -0.097687339630773917 0.074733092496350462 -0.10808450464360259 0.15625239682660119 -0.086763377706139386 0.074250518014733258 0.12877383251086483 -0.099516056127814168 0.12871668314038318 -0.10173435325431142 0.12413137328896771 -0.1295391055554011 0.12117550973448013 0.1606311525413594 -0.095807010698057665 -0.1047977505473256 0.12296803098955374 -0.10943967327228739 0.11955984635648338
leaf_weight=24.512866836041212 1795.740930557251 8935.0652253571898 5690.7825686186552 343.73162517510355 1124.6226877365261 176.44660779088736 48.91287088394165 142.24130901694298 134.66097703576088 114.49200086481869 28.83845192193985 491.46234037540853 61.194794341921806 35.076491177082062 21.616562157869339 88.141354417428374 64.426087895408273 38.466089755296707 25.365967929363251 214.30448714271188 253.0469152610749 1787.8072512187064 29.500541891902685 8630.4053155370057 45.330591306090355 22.153064025565982 12.542843842878936 51.783578621223569 12.59264614805579 3775.7117218598723
leaf_count=488 61725 308555 192330 11336 38544 5546 972 980 4524 3787 719 15804 396 691 160 2390 511 276 799 1464 7389 12219 509 60020 275 612 358 341 343 25633
internal_value=0 -0.0479612 -0.0183675 0.0286056 0.0568452 0.0810249 0.0903569 -0.0780798 0.0954472 0.0996298 -0.0915957 -0.0325703 -0.0992633 0.103355 0.0812497 0.108228 -0.071271 -0.0478792 0.117447 0.092569 -0.0662722 0.12044 -0.00868269 0.12069 0.0108228 0.0764494 0.116819 0.0296626 0.115499 0.118817
internal_weight=0 25566.1 16631 10131.8 8336.08 7069.21 6661.06 1266.86 6484.61 6349.95 6499.18 747.198 5751.98 6235.46 2360.34 1952.43 408.158 407.91 1864.29 255.736 369.443 1838.92 51.1171 8654.92 116.397 67.4837 3875.11 86.8601 226.897 3788.25
internal_count=759696 699188 390633 179577 117852 78328 66481 39524 60935 56411 211056 18330 192726 52624 25601 16077 11847 9524 13687 2526 9248 12888 669 60508 1859 887 27023 1032 1807 25991
is_linear=0
shrinkage=0.1


Tree=16
num_leaves=31
num_cat=0
split_feature=5 0 17 2 14 5 16 12 11 9 10 8 11 12 13 6 4 10 10 2 4 13 4 13 5 2 15 2 4 5
split_gain=16354.5 3784.82 5128.16 3356.44 2416.24 887.078 565.102 538.669 520.755 427.645 268.503 548.166 169.823 153.236 145.793 754.215 495.911 121.562 83.1985 77.7076 75.5574 67.8136 66.0351 65.5825 65.3414 151.915 59.9323 58.8036 56.8079 54.199
threshold=-1.0659202492292807 -0.29984984454162894 -0.34146368399693544 -0.37585901732506471 -0.30772548800907457 0.30099462851043107 0.34449019308031698 -0.1563977243858449 0.98768722873450099 -0.22503185378420273 -0.062565854869280943 -0.30349499911289518 0.9021275571659646 -0.16882958045835766 -0.21121183996350124 -0.28053499257391884 -0.33454665737178929 -0.097310693900626591 -0.18861531234194326 -0.37224634404971363 -0.16005038340150943 -0.25960119976060242 -0.094068124389809479 -0.26322949813198138 0.3118758480857437 -0.076765675559852739 0.80780943094733082 -0.37674936341842635 -0.32206487738567113 0.38407707503876848
decision_type=2 2 2 2 2 2 2 2 2 2 2 2 2 2 2 2 2 2 2 2 2 2 2 2 2 2 2 2 2 2
left_child=22 2 3 27 5 13 7 9 -6 14 12 -12 -4 -5 15 20 -17 -18 24 -13 -7 -19 -1 28 25 -16 -26 -2 -21 -29
right_child=1 -3 10 4 8 6 -8 -9 -10 -11 11 19 -14 -15 18 16 17 21 -20 23 -22 -23 -24 -25 26 -27 -28 29 -30 -31
leaf_value=-0.10336183486448942 -0.10212238672394752 -0.10273977088122169 -0.10058773400354733 -0.096557572931654387 -0.10269232565459128 -0.099710618642613172 -0.10174004524364033 -0.10148571340354347 0.11641495220880754 -0.10290240357556404 -0.10094131733425145 -0.092598425404887177 0.068999002122473674 0.08159469262029144 -0.11348754172029876 -0.074875402442794184 -0.099918807055213457 0.12269204758296617 -0.11085321753254834 0.1267523700336432 0.16918776270330602 -0.11259477716366367 0.1186314375089178 -0.10424978428979921 0.11908748966685201 0.12077460843688399 -0.12750755343749681 -0.10196621284310901 -0.10654707282811521 0.043608430070457539
leaf_weight=13.422266026958821 1630.3490190505981 8107.5434857718647 5175.8065581507981 316.48218990117311 998.06373985111713 224.15793886594474 150.85659770667553 137.35539359971881 121.69909803569317 103.1678960211575 430.55175496079028 22.695211317390203 59.730646640062332 56.972521960735321 40.846893364563584 144.86061573028564 25.280819121748209 1689.3071654625237 16.270055407658219 206.95985599793494 10.960577325895427 12.339058728888629 7970.6623286996037 14.555887788534163 3442.6077884845436 85.889414129778743 9.8841126561164838 47.838793531060219 10.991450004279612 54.95478843152523
leaf_count=456 61725 308555 192330 11279 37800 7555 5477 5083 905 3767 15562 611 396 475 747 3002 780 12469 316 1509 80 316 60052 412 25558 616 76 1175 236 376
internal_value=0 -0.0475375 -0.0181731 0.0280612 0.0567433 0.0802255 0.089394 0.0942457 -0.0788791 0.0988766 -0.0909462 -0.0321076 -0.098653 -0.0693795 0.102527 0.0816392 0.102844 0.117752 0.114767 0.0840218 -0.0871753 0.120986 0.118258 0.101262 0.115793 0.0452723 0.118382 -0.0974972 0.114987 -0.0241401
internal_weight=0 23349 15241.4 9320.14 7587 6467.24 6093.78 5942.93 1119.76 5805.57 5921.29 685.754 5235.54 373.455 5702.4 2106.91 1871.79 1726.93 3595.5 255.202 235.119 1701.65 7984.08 232.507 3579.23 126.736 3452.49 1733.14 217.951 102.794
internal_count=759696 699188 390633 179577 116301 77596 65842 60365 38705 55282 211056 18330 192726 11754 51515 24202 16567 13565 27313 2768 7635 12785 60508 2157 26997 1363 25634 63276 1745 1551
is_linear=0
shrinkage=0.1


Tree=17
num_leaves=31
num_cat=0
split_feature=5 0 17 2 14 5 16 12 11 9 10 6 11 13 12 13 0 10 4 11 5 4 10 2 10 13 2 13 5 2
split_gain=14570.3 3436.28 4601.01 2996.87 2147.78 789.684 501.675 478.855 468.129 381.583 243.005 491.117 154.464 125.596 671.701 323.47 108.712 105.914 92.7009 96.4232 83.2406 146.937 75.0482 67.6889 63.6704 61.0481 57.9749 53.1215 49.0494 48.5398
threshold=-1.0659202492292807 -0.29984984454162894 -0.34146368399693544 -0.37585901732506471 -0.30772548800907457 0.29831260226524786 0.34449019308031698 -0.1563977243858449 1.0612323300683639 -0.22503185378420273 -0.062565854869280943 -0.27995416358120856 0.9021275571659646 -0.21121183996350124 -0.16829201145390957 -0.26005616699787854 -0.74241391022198677 -0.062565854869280943 -0.33454665737178929 -0.36446012411058543 0.31065154612802498 -0.15183378124012967 -0.18861531234194326 -0.37224634404971363 -0.24418026626144737 -0.2609590516561443 -0.37674936341842635 -0.12226385774474614 0.39196430725836895 -0.3519909122417077
decision_type=2 2 2 2 2 2 2 2 2 2 2 2 2 2 2 2 2 2 2 2 2 2 2 2 2 2 2 2 2 2
left_child=24 2 3 26 5 17 7 9 -6 13 12 -12 -4 14 -7 16 18 -5 19 -16 21 -15 27 -13 -1 29 -2 -22 -28 -25
right_child=1 -3 10 4 8 6 -8 -9 -10 -11 11 23 -14 20 15 -17 -18 -19 -20 -21 22 -23 -24 25 -26 -27 28 -29 -30 -31
leaf_value=-0.050126659254233555 -0.10178240540611772 -0.10246482845929564 -0.10004648687964995 -0.1003350584446599 -0.1023392180760334 -0.071477313914954474 -0.10132710209744221 -0.10125969029678697 0.11458770774777421 -0.10262364757227965 -0.1003076307920323 -0.090285713901678055 0.063593771206430477 -0.10758186796376359 0.16194902460894445 -0.10147191931065432 -0.098765824323665166 0.070003755176263768 0.11947238855798979 -0.11108752805202267 0.11645575737825027 0.12381081954065826 -0.10893440755931048 0.12395326117499239 0.11665891434151981 -0.10917194534731466 -0.070419115517438832 -0.11749375437886476 0.08115424177365084 -0.10664180624746711
leaf_weight=22.960395473986864 1479.8789472579956 7354.6856940668076 4707.3270886316895 266.67924259789288 906.07151013612747 255.16694731079042 137.76385701820254 125.46199336461723 111.75005102157593 94.67434561252594 391.9849455691874 20.656227117404342 58.398369129747152 47.065074905753136 20.343048930168152 74.38385065831244 24.165600895881653 42.291662139818072 1553.15933464095 35.514497894793749 3194.8320025913417 65.824530757963657 14.935954090207813 191.30775875598192 7326.4153674654663 13.185511114075778 67.885542780160904 9.7352561261504871 31.144064038991928 9.5858774334192258
leaf_count=488 61725 308555 192330 10628 37804 7678 5505 5088 901 3807 15631 588 396 1266 146 2537 902 335 12439 669 25695 497 315 1514 60020 403 1355 89 196 194
internal_value=0 -0.047153 -0.0179941 0.0275896 0.0557336 0.0786535 0.0871619 0.0918701 -0.0785221 0.0963657 -0.0903431 -0.0318046 -0.0980413 0.0999236 0.0798558 0.10247 0.111759 -0.0770192 0.11492 -0.0116489 0.111743 0.0273403 0.114703 0.0825888 0.116138 0.0992693 -0.0968255 0.115745 -0.0227504 0.11295
internal_weight=0 21305.9 13951.2 8558.73 6979.82 5962 5653.03 5515.26 1017.82 5389.8 5392.45 626.72 4765.73 5295.13 1962.73 1707.57 1633.18 308.971 1609.02 55.8575 3332.39 112.89 3219.5 234.735 7349.38 214.079 1578.91 3204.57 99.0296 200.894
internal_count=759696 699188 390633 179577 116301 77596 66633 61128 38705 56040 211056 18330 192726 52233 24371 16693 14156 10963 13254 815 27862 1763 26099 2699 60508 2111 63276 25784 1551 1708
is_linear=0
shrinkage=0.1


Tree=18
num_leaves=31
num_cat=0
split_feature=8 0 17 2 14 5 11 11 12 9 10 11 13 12 13 2 11 11 5 11 0 5 4 4 4 2 16 11 4 0
split_gain=13000.9 3142.01 4083.14 2741.32 1992.66 701.534 464.315 455.13 391.802 338.829 189.616 432.87 142.325 585.893 266.751 144.751 127.29 100.087 99.2788 98.9523 84.444 75.6671 149.508 67.5364 61.8844 54.5704 74.0694 54.006 50.2009 49.6339
threshold=1.4250195684669522 -0.29984984454162894 -0.33812501428482861 -0.37674936341842635 -0.30991677853507821 0.29831260226524786 -0.5283718225335351 0.98768722873450099 -0.1563977243858449 -0.2560616977732359 -0.097310693900626591 -0.30957492977794759 -0.20408627022899761 -0.16758735855144558 -0.26140316548654624 -0.090277382594316738 0.9021275571659646 -0.3589983685524924 0.36231746320472785 -0.37599409749649332 -0.74241391022198677 0.3118758480857437 -0.15183378124012967 -0.33454665737178929 -0.33495709124748679 -0.37224634404971363 -0.33481292877346625 0.98768722873450099 -0.33860186491044009 -0.74241391022198677
decision_type=2 2 2 2 2 2 2 2 2 2 2 2 2 2 2 2 2 2 2 2 2 2 2 2 2 2 2 2 2 2
left_child=1 2 3 -1 5 19 -7 -6 9 12 16 18 13 15 20 17 -4 25 23 -5 24 22 -14 -12 -15 -8 -27 -16 -23 -30
right_child=-2 -3 10 4 7 6 8 -9 -10 -11 11 -13 21 14 27 -17 -18 -19 -20 -21 -22 28 -24 -25 -26 26 -28 -29 29 -31
leaf_value=-0.10149136272562509 0.11466290831321767 -0.10223703524405106 -0.10051232273330271 0.091256703088154201 -0.10218306846046024 -0.095098369715276715 -0.067765551325134996 0.11163765423394423 -0.10074270714093513 -0.096960635477186335 -0.088541997042693027 -0.10246246578983263 -0.10985785250346583 -0.105640941212089 -0.10210642523928787 0.12225115683723871 0.062176845745317767 -0.099965183468899613 -0.072251409665195235 -0.096053976611492453 -0.097384479603700211 -0.0053347858886333126 0.1202286722510007 0.13206477369576822 0.11568388717576482 0.14077870517667093 -0.095656233992785375 0.18657193206196365 -0.10401566221570556 0.11486532005158119
leaf_weight=1399.1037092208862 6720.9118347167969 6679.6861962638795 4125.4308569170535 31.641168307512999 882.05037499591708 141.47085087932646 45.407617568969727 112.21334458515048 107.15506545826793 92.715932572260499 15.265732018277047 362.08649519830942 46.022805379703641 12.742516197264193 72.779795370995998 49.807650934904814 48.659787561744452 218.45834883861244 35.415847264230251 259.58047112450004 19.180107593536377 35.635918404906988 73.09458501636982 152.5607779789716 1475.5853069648147 47.439232477918267 18.384999724105 7.1140313744544974 10.397309951484202 2891.59615810588
leaf_count=64278 59914 308690 185692 417 40393 5840 1032 984 4779 3992 461 15825 1269 476 2630 439 337 8173 1237 10686 797 170 609 1362 12802 352 657 39 340 25024
internal_value=0 -0.0466497 -0.0176165 0.02574 0.0525066 0.0754563 0.0836615 -0.0780511 0.088503 0.0924664 -0.0912546 -0.036904 0.0959625 0.0749794 0.101665 -0.0366444 -0.0986158 -0.0606494 0.0798918 -0.0757027 0.111102 0.109464 0.0313313 0.111998 0.113789 0.0165665 0.0747414 -0.0764015 0.112632 0.114081
internal_weight=0 19468.7 12789 8049.58 6650.47 5656.21 5364.99 994.264 5223.52 5116.36 4739.42 565.329 5023.65 1966.9 1587.4 379.498 4174.09 329.69 203.242 291.222 1507.51 3056.75 119.117 167.827 1488.33 111.232 65.8242 79.8938 2937.63 2901.99
internal_count=759696 699782 391092 186178 121900 80523 69420 41377 63580 58801 204914 18885 54809 27397 16744 10653 186029 10214 3060 11103 14075 27412 1878 1823 13278 2041 1009 2669 25534 25364
is_linear=0
shrinkage=0.1


Tree=19
num_leaves=31
num_cat=0
split_feature=5 0 17 2 14 5 11 11 12 9 13 12 13 4 10 15 11 11 10 0 5 2 4 11 13 13 10 11 4 4
split_gain=11622 2832.55 3715.26 2482.87 1810.67 617.157 430.235 384.545 364.609 303.644 139.442 531.183 254.248 144.694 110.032 313.938 97.4926 97.4411 95.486 83.8711 67.561 134.4 60.9293 84.908 57.5857 55.5306 52.8551 50.2688 47.6795 44.8424
threshold=-1.0659202492292807 -0.29984984454162894 -0.33634409704988061 -0.37674936341842635 -0.30772548800907457 0.29831260226524786 -0.5283718225335351 1.0612323300683639 -0.15523573640092711 -0.22503185378420273 -0.20339593679609233 -0.16758735855144558 -0.26140316548654624 -0.16005038340150943 -0.097310693900626591 -0.63879943461360844 0.98768722873450099 -0.3589983685524924 -0.062565854869280943 -0.74241391022198677 0.3118758480857437 -0.076765675559852739 -0.33454665737178929 -0.35389634070015302 -0.2609590516561443 -0.12226385774474614 -0.23486216895563672 0.98768722873450099 -0.33860186491044009 -0.33454665737178929
decision_type=2 2 2 2 2 2 2 2 2 2 2 2 2 2 2 2 2 2 2 2 2 2 2 2 2 2 2 2 2 2
left_child=26 2 3 -2 5 18 -7 -6 9 10 11 13 19 17 16 24 -4 -8 -5 22 21 -12 23 -13 -16 28 -1 -14 -22 -20
right_child=1 -3 14 4 7 6 8 -9 -10 -11 20 12 27 -15 15 -17 -18 -19 29 -21 25 -23 -24 -25 -26 -27 -28 -29 -30 -31
leaf_value=-0.034963056641121697 -0.1011410656445537 -0.10199279860659366 -0.10050744921161764 -0.099484099985748642 -0.10186900318975929 -0.093853223011388903 0.016125948654747074 0.11032803156053926 -0.10228924322548563 -0.10216102721300302 -0.10901729988495928 0.13188788740377583 -0.10107410185771271 0.11957163247398657 0.10734037081957004 -0.097477210922964727 0.049567864140404816 -0.099329381047804088 -0.099265163357491637 -0.097191529019522216 -0.0036017069912891962 0.11837024276912544 0.11578345721597075 -0.14129150334238408 -0.10516816211494978 -0.1161642221513764 0.11326204481911065 0.1706192788612165 0.11324328481572832 0.12469693924339742
leaf_weight=24.151297694072127 1297.3371667861938 6047.9857924766839 3676.506324140355 227.33170271478593 810.90305797569454 136.15698895230889 112.16962406039238 95.455073498189449 100.31801825761795 80.543691294267774 42.28039244376123 23.242002442479134 71.565355058759451 52.739203339442611 116.69946667179465 348.21837028115988 43.802289731800556 209.86694579385221 12.466317839920519 19.447643084451556 35.387028694152832 67.47928817011416 1343.1989269014448 22.288595862686634 14.315770182758568 10.736482491716741 6169.2345360461622 7.5260401070117942 2663.2165381535888 31.605399811640382
leaf_count=548 65632 308555 182340 10748 40931 6139 2192 907 4942 3908 1279 219 2862 507 1331 16413 307 8632 183 893 169 611 12759 474 572 126 59960 44 25304 209
internal_value=0 -0.0464498 -0.0176715 0.02462 0.0510378 0.0734937 0.0814684 -0.079521 0.0863781 0.0903529 0.0936653 0.0724289 0.0992402 -0.0339696 -0.0929309 -0.0478313 -0.0987405 -0.0591148 -0.0733678 0.109039 0.107692 0.0307786 0.111927 -0.00184163 0.08412 0.110808 0.112684 -0.0752208 0.111711 0.061346
internal_weight=0 17720.8 11672.8 7473.26 6175.92 5269.57 4998.16 906.358 4862.01 4761.69 4681.14 1862.04 1487.27 374.776 4199.54 479.234 3720.31 322.037 271.403 1408.18 2819.1 109.76 1388.73 45.5306 131.015 2709.34 6193.39 79.0914 2698.6 44.0717
internal_count=759696 699188 390633 189670 124038 82200 71060 41838 64921 59979 56071 28582 17251 11331 200963 18316 182647 10824 11140 14345 27489 1890 13452 693 1903 25599 60508 2906 25473 392
is_linear=0
shrinkage=0.1


Tree=20
num_leaves=31
num_cat=0
split_feature=5 0 17 2 14 5 11 11 12 9 13 12 13 4 10 6 11 10 0 11 4 11 5 2 0 10 15 4 2 10
split_gain=10396 2572.46 3338.69 2237.95 1632.17 548.5 386.546 346.632 328.142 271.515 128.824 501.619 235.793 120.238 89.3389 241.098 87.6966 86.0072 81.6794 74.6826 63.1426 74.0803 59.5041 120.677 52.4636 49.0702 48.6043 47.4787 44.5332 43.8322
threshold=-1.0659202492292807 -0.29984984454162894 -0.33542962649693608 -0.37674936341842635 -0.30772548800907457 0.29831260226524786 -0.5283718225335351 0.98768722873450099 -0.15523573640092711 -0.25920375179909599 -0.20408627022899761 -0.16776571547826238 -0.26005616699787854 -0.16005038340150943 -0.062565854869280943 -0.27955307235716237 0.98768722873450099 -0.062565854869280943 -0.74241391022198677 -0.3589983685524924 -0.33454665737178929 -0.36446012411058543 0.3118758480857437 -0.076765675559852739 -0.74241391022198677 -0.23486216895563672 0.97331883223890647 -0.33860186491044009 -0.076765675559852739 0.015823311855275603
decision_type=2 2 2 2 2 2 2 2 2 2 2 2 2 2 2 2 2 2 2 2 2 2 2 2 2 2 2 2 2 2
left_child=25 2 3 -2 5 17 -7 -6 9 10 11 13 18 19 16 -16 -4 -5 20 29 21 -13 23 -12 -24 -1 27 -26 -14 -8
right_child=1 -3 14 4 7 6 8 -9 -10 -11 22 12 28 -15 15 -17 -18 -19 -20 -21 -22 -23 24 -25 26 -27 -28 -29 -30 -31
leaf_value=-0.031872401323522918 -0.10085896262617447 -0.1017897533490628 -0.10014590402087112 -0.098935904768132535 -0.10173544559931498 -0.092259105267309099 -0.028566450973473941 0.10765091603892002 -0.10207169486796 -0.094446309288154867 -0.10830312903526054 0.15305729743016547 -0.10523128369466717 0.11899200597521054 -0.098737194767339623 0.070799534951894727 0.045427970875015947 0.059066188643608998 -0.096954559359087714 -0.098658274927969483 0.11426005358802338 -0.10869344121146235 -0.10380806139119657 0.11666776530802113 -0.0040195938716255141 0.11183816549009962 -0.12345050121378956 0.1125021021080722 0.16428700430472554 0.12699726294833025
leaf_weight=23.860029181465507 1189.4470472335815 5482.8064175453037 3336.1047959309071 207.20107667334378 743.80221130885184 126.92757487110794 78.595225140452385 88.466332368552685 92.140132445842028 79.563238045200706 38.580920608714223 17.80626605451107 64.606954362243414 42.098683787509799 282.98325568437576 119.22092592343688 41.902206402271986 41.322280494496226 19.349154949188232 190.94139191508293 1245.0913862995803 27.528991475701332 11.529157357290385 62.420423286035657 35.475594341754913 5649.5768299493939 8.8862955961376411 2449.4823953937739 6.7734102942049494 23.536476045846939
leaf_count=548 66306 308555 182184 10756 41424 6224 1826 912 5007 4085 1276 142 2903 441 14937 1756 298 392 973 8670 12895 608 398 616 165 59960 96 25062 41 240
internal_value=0 -0.0461169 -0.017514 0.0239115 0.0499383 0.0720559 0.0798386 -0.0794786 0.0846988 0.088608 0.0919773 0.0707038 0.0973355 -0.0390387 -0.0930355 -0.0484833 -0.0983401 -0.0726647 0.106981 -0.0617391 0.110039 -0.00588597 0.105986 0.0307324 0.10902 0.111234 0.110004 0.110839 -0.0796562 0.00728355
internal_weight=0 16154.6 10671.8 6891.57 5702.13 4869.86 4621.33 832.269 4494.41 4402.27 4322.7 1716.33 1381.16 335.172 3780.21 402.204 3378.01 248.523 1309.78 293.073 1290.43 45.3353 2606.37 101.001 2505.37 5673.44 2493.84 2484.96 71.3804 102.132
internal_count=759696 699188 390633 191458 125152 82816 71668 42336 65444 60437 56352 28739 17562 11177 199175 16693 182482 11148 14618 10736 13645 750 27613 1892 25721 60508 25323 25227 2944 2066
is_linear=0
shrinkage=0.1


Tree=21
num_leaves=31
num_cat=0
split_feature=8 0 17 2 14 5 11 16 12 9 10 11 13 12 13 13 11 11 11 4 11 4 5 2 4 4 11 5 6 4
split_gain=9311.29 2354.57 2955.61 2006.62 1457.41 495.203 444.289 302.145 283.928 237.893 113.176 277.471 104.031 394.965 182.516 129.288 85.3992 79.978 78.7264 73.865 66.3149 53.916 52.9046 105.249 51.1796 46.1084 65.018 42.9811 41.7234 40.6245
threshold=1.4250195684669522 -0.29984984454162894 -0.33542962649693608 -0.37674936341842635 -0.32026163416987347 0.29831260226524786 0.98768722873450099 0.34449019308031698 -0.15523573640092711 -0.22503185378420273 -0.097310693900626591 -0.30957492977794759 -0.20196628245930612 -0.16740352232743722 -0.26005616699787854 -0.21305083551356657 0.9021275571659646 -0.37599409749649332 -0.36722325201965539 -0.33409575392393481 -0.30249104513860631 -0.33454665737178929 0.3118758480857437 -0.076765675559852739 -0.33860186491044009 -0.33454665737178929 -0.35389634070015302 0.36595255916134567 -0.27844678811362361 -0.15536414010449631
decision_type=2 2 2 2 2 2 2 2 2 2 2 2 2 2 2 2 2 2 2 2 2 2 2 2 2 2 2 2 2 2
left_child=1 2 3 -1 5 17 -6 8 9 12 16 19 13 15 20 18 -4 -5 21 -12 25 -7 23 -14 -24 26 -15 -21 -26 -16
right_child=-2 -3 10 4 6 7 -8 -9 -10 -11 11 -13 22 14 29 -17 -18 -19 -20 27 -22 -23 24 -25 28 -27 -28 -29 -30 -31
leaf_value=-0.10057012821740602 0.11038474527190037 -0.10163034285778537 -0.099911793686052672 0.085692955648693794 -0.10160385320431385 -0.09862066018360964 0.10679807363079351 -0.09996658746481546 -0.10189113048982353 -0.1017759694792963 -0.081299437384622114 -0.10186510455720321 -0.10746814633540479 0.12200607140909792 -0.10522978156550883 0.087374184480666556 0.046187492466778633 -0.093700473833796691 -0.086013952207685873 0.12744904914799185 -0.10247219168674754 0.092135468979747448 -0.0094014695365848486 0.11533984412579829 0.11048662342230922 0.11297295067604661 -0.13493496516046652 -0.060300272166536689 -0.075661496225354855 0.1488626327832141
leaf_weight=1078.7310838699341 5162.7596130371094 4978.2460318906233 3013.5825461000204 28.390621766448021 716.22232370078564 20.986364409327507 119.34233890473843 91.15976171195507 80.4450179990381 65.074565596878529 26.037939161062241 268.49230229854584 34.605759426951408 21.302497079595923 51.465696575120091 84.186854572966695 40.54731746762991 199.37535429000854 203.21476673893631 102.25668953172863 14.982323057949541 50.403135554865003 36.829537391662598 54.732586884871125 2189.8096525575966 1130.3198345340788 18.316250631585717 13.844098547473548 12.107573702931402 7.168687777593731
leaf_count=66310 59914 308690 181162 418 43701 540 1355 5143 4801 3815 967 15548 1268 243 2483 1040 295 10661 9372 1127 810 684 181 589 24546 12799 419 534 231 50
internal_value=0 -0.0456514 -0.0171392 0.0236119 0.0492233 0.0722398 -0.0718381 0.0800875 0.0841145 0.0878595 -0.0913451 -0.0420552 0.0909992 0.071389 0.098057 -0.021041 -0.0979721 -0.0713394 -0.0542784 0.0709226 0.106579 0.0360589 0.104496 0.0290338 0.107508 0.109256 0.00321896 0.105061 0.109463 -0.0741642
internal_weight=0 14752.2 9773.93 6309.17 5230.44 4394.88 835.565 4167.11 4075.95 3995.51 3464.76 410.631 3930.43 1602.35 1243.56 358.791 3054.13 227.766 274.604 142.139 1184.92 71.3895 2328.09 89.3383 2238.75 1169.94 39.6187 116.101 2201.92 58.6344
internal_count=759696 699782 391092 191459 125149 80093 45056 69014 63871 59070 199633 18176 55255 28440 16804 11636 181457 11079 10596 2628 14271 1224 26815 1857 24958 13461 662 1661 24777 2533
is_linear=0
shrinkage=0.1


Tree=22
num_leaves=31
num_cat=0
split_feature=5 0 17 2 14 5 11 11 12 9 13 12 13 2 11 10 15 11 10 11 2 16 4 5 4 0 0 4 11 15
split_gain=8347.12 2121.85 2695.2 1799.9 1299.54 434.783 311.203 281.457 255.542 217.274 104.376 359.079 180.322 122.706 102.137 77.0803 211.197 75.2166 74.8238 61.3966 49.0495 65.0387 48.2941 47.7289 113.802 43.1432 42.9813 42.7312 55.8333 42.4344
threshold=-1.0659202492292807 -0.29984984454162894 -0.33542962649693608 -0.37674936341842635 -0.30772548800907457 0.29831260226524786 -0.52670500555741107 1.0612323300683639 -0.15523573640092711 -0.22503185378420273 -0.20196628245930612 -0.16740352232743722 -0.26005616699787854 -0.090277382594316738 -0.35636497428525388 -0.097310693900626591 -0.63879943461360844 0.9021275571659646 -0.062565854869280943 -0.30249104513860631 -0.37224634404971363 -0.32387531046993517 -0.33454665737178929 0.31300639077736997 -0.15183378124012967 -0.74241391022198677 2.2817738719271259 -0.33454665737178929 -0.35389634070015302 0.80780943094733082
decision_type=2 2 2 2 2 2 2 2 2 2 2 2 2 2 2 2 2 2 2 2 2 2 2 2 2 2 2 2 2 2
left_child=26 2 3 -2 5 18 -7 -6 9 10 11 13 19 14 20 17 22 -4 -5 27 -8 -22 -17 24 -12 -25 -1 28 -13 -27
right_child=1 -3 15 4 7 6 8 -9 -10 -11 23 12 -14 -15 -16 16 -18 -19 -20 -21 21 -23 -24 25 -26 29 -28 -29 -30 -31
leaf_value=0.10925147416256789 -0.10030451291006165 -0.10143882195037046 -0.099606458721288135 -0.09781642019780884 -0.10127574857004765 -0.081352951121738099 -0.054894577377890254 0.10501595030251272 -0.10170494183560748 -0.10160389545631254 -0.11165392807473758 0.11424199177540884 -0.074879204103530578 0.11514163030826513 -0.099028947246937477 -0.087545822880302396 -0.095766311910904747 0.037371530108505684 0.054760038834517383 -0.10222416091569947 0.12214938916800738 -0.1004283027803782 0.10410941836396524 -0.10377012331604357 0.11385444259214415 0.10836518187283058 -0.11416407240457649 0.11148910120105025 -0.12976866915756391 -0.11711629517326703
leaf_weight=4734.3098438829184 979.07978057861328 4503.7003390854225 2728.7956376094371 173.25750999432057 611.69923076219857 119.83979398943484 51.094010829925537 74.155495129525661 73.977148075588048 60.724230476655066 34.364905658178031 20.618649711832404 58.77727322280407 55.833214485086501 163.19983442593366 15.548376794904469 263.16970594599843 40.685475416481495 39.462106362916529 14.119007262401281 58.33098952844739 16.94116648286581 85.156583551317453 9.7169223595410568 64.15644667390734 2039.5777385141701 8.6266795545816404 1035.0426269350573 17.199482457712293 8.3806465193629247
leaf_count=60366 66306 308555 180799 10756 41429 6561 1268 907 4891 3928 1298 243 2848 677 8773 559 16284 298 392 844 566 696 1235 354 764 24615 142 12821 419 102
internal_value=0 -0.0454939 -0.0172249 0.0232647 0.0484673 0.0697097 0.0772997 -0.0789712 0.0823268 0.0859983 0.0891216 0.0687796 0.0957228 -0.020596 -0.0467685 -0.091909 -0.0486387 -0.0975942 -0.0695116 0.104948 0.020725 0.0720548 0.0745187 0.10319 0.0351956 0.106445 0.108845 0.107674 0.00326726 0.107442
internal_weight=0 13416.6 8912.9 5779.55 4800.47 4114.61 3901.89 685.855 3782.05 3708.08 3647.35 1491.16 1145.76 345.399 289.566 3133.36 363.875 2769.48 212.72 1086.98 126.366 75.2722 100.705 2156.2 98.5214 2057.68 4742.94 1072.86 37.8181 2047.96
internal_count=759696 699188 390633 191458 125152 82816 71668 42336 65107 60216 56288 29155 17175 11980 11303 199175 18078 181097 11148 14327 2530 1262 1794 27133 2062 25071 60508 13483 662 24717
is_linear=0
shrinkage=0.1


Tree=23
num_leaves=31
num_cat=0
split_feature=8 0 17 2 14 5 11 16 12 9 13 12 13 2 11 10 11 10 11 5 4 11 5 4 2 3 2 4 11 4
split_gain=7487.85 1943.04 2386.55 1634.4 1186.44 391.736 364.258 247.476 234.813 189.899 91.8122 336.09 151.779 104.841 97.4669 81.7037 207.879 70.2673 65.4289 55.1171 52.4012 51.5024 45.2503 100.578 44.4012 58.3613 40.0461 39.1963 49.1498 38.9822
threshold=1.4250195684669522 -0.29984984454162894 -0.33361503663799358 -0.37674936341842635 -0.32026163416987347 0.29831260226524786 0.98768722873450099 0.34449019308031698 -0.15523573640092711 -0.22503185378420273 -0.20196628245930612 -0.16740352232743722 -0.26140316548654624 -0.090277382594316738 -0.35636497428525388 -0.097310693900626591 -0.3244514304727199 -0.062565854869280943 0.9021275571659646 0.35832511583956889 -0.33860186491044009 -0.30249104513860631 0.31300639077736997 -0.15183378124012967 -0.37224634404971363 -0.30139976527244255 -0.37224634404971363 -0.33454665737178929 -0.35389634070015302 -0.33454665737178929
decision_type=2 2 2 2 2 2 2 2 2 2 2 2 2 2 2 2 2 2 2 2 2 2 2 2 2 2 2 2 2 2
left_child=1 2 3 -1 5 17 -6 8 9 10 11 13 21 14 24 18 19 -5 -4 26 -12 27 23 -22 -7 -26 -17 28 -13 -19
right_child=-2 -3 15 4 6 7 -8 -9 -10 -11 20 12 -14 -15 -16 16 -18 29 -20 -21 22 -23 -24 -25 25 -27 -28 -29 -30 -31
leaf_value=-0.10005329264002816 0.10827579196532638 -0.10130722464702741 -0.099682401607811139 -0.097764235622966961 -0.10126871854547506 -0.050309505542038058 0.10375615332838113 -0.099340625143652786 -0.10155194722502621 -0.10144881709830517 -0.016825895661956348 0.10904008412507325 -0.06659388559052877 0.11278195063359663 -0.098280590460749856 -0.098158040600585958 -0.10085387511200501 -0.097980138012005946 0.034875544006879595 -0.061349986525894074 -0.11081874425520299 -0.10205449031496756 0.10741913874755227 0.11282482323134407 0.12194257810546699 -0.10088929698340109 0.12922665783096299 0.11066753033722526 -0.12444225584910838 0.11824093908256586
leaf_weight=906.34119987487793 4305.4736480712891 4088.1715829940513 2443.03584045358 156.97858708072454 602.89398655295372 49.175666809082031 101.2014140561223 77.571255004033446 68.865256116725504 53.782626075670123 36.530195236206055 20.248071659356356 54.828377973288298 49.324410378932953 153.51854114420712 8.6224383562803251 220.56276945769787 12.028847731649874 36.679485281929374 25.593955253250897 31.037890643812716 11.952756116166709 1842.6420198399574 57.109940730966628 54.482076108455658 14.986702897585927 76.137576508335769 953.07375948876143 16.253149738535285 27.176007016561925
leaf_count=67662 59914 308690 178153 10713 44700 1230 1359 5210 4990 3840 181 243 2712 657 9121 290 15371 185 273 1125 1298 786 24661 743 570 550 928 12909 422 210
internal_value=0 -0.045033 -0.0168486 0.0223358 0.0472874 0.0696975 -0.0718 0.077309 0.0812604 0.0849643 0.0879614 0.0681654 0.0954115 -0.021361 -0.0456719 -0.0914636 -0.0447912 -0.0678557 -0.097692 0.0672604 0.101826 0.10428 0.104071 0.0340773 0.0224004 0.0738704 0.106095 0.106773 0.0050758 0.0518999
internal_weight=0 12250.8 8162.63 5352 4445.66 3741.57 704.095 3545.38 3467.81 3398.95 3345.16 1377.84 1056.36 321.487 272.163 2810.63 330.917 196.183 2479.72 110.354 1967.32 1001.53 1930.79 88.1478 118.644 69.4688 84.76 989.575 36.5012 39.2049
internal_count=759696 699782 391092 194952 127290 81231 46059 70123 64913 59923 56083 29200 17072 12128 11471 196140 17714 11108 178426 2343 26883 14360 26702 2041 2350 1120 1218 13574 665 395
is_linear=0
shrinkage=0.1


Tree=24
num_leaves=31
num_cat=0
split_feature=5 0 17 2 14 5 11 11 12 9 13 12 13 13 1 12 10 6 11 0 11 0 4 11 4 5 4 15 4 4
split_gain=6722.73 1750.64 2181.73 1476.54 1072.25 349.809 328.397 225.498 189.888 169.608 89.1936 314.816 139.969 100.018 63.6199 54.2919 49.6284 134.087 54.301 49.4536 47.4445 43.4706 41.2176 40.0787 39.6065 39.8447 89.2484 38.0343 37.4469 37.2465
threshold=-1.0659202492292807 -0.29984984454162894 -0.33260173218188682 -0.37674936341842635 -0.32026163416987347 0.29831260226524786 0.98768722873450099 -0.5283718225335351 -0.15523573640092711 -0.22503185378420273 -0.20196628245930612 -0.16740352232743722 -0.26005616699787854 -0.21245512717294146 -0.29086687921238774 -0.16900070881407406 -0.062565854869280943 -0.27844678811362361 0.9021275571659646 -0.74241391022198677 -0.35636497428525388 -0.74241391022198677 -0.094068124389809479 0.98768722873450099 -0.33860186491044009 0.31300639077736997 -0.15183378124012967 0.80780943094733082 -0.33454665737178929 -0.33454665737178929
decision_type=2 2 2 2 2 2 2 2 2 2 2 2 2 2 2 2 2 2 2 2 2 2 2 2 2 2 2 2 2 2
left_child=22 2 3 -2 5 14 -6 -7 9 10 11 13 19 15 28 -9 18 -18 -4 29 -17 -12 -1 -14 -23 26 -26 -27 -5 -13
right_child=1 -3 16 4 6 7 -8 8 -10 -11 21 12 23 -15 -16 20 17 -19 -20 -21 -22 24 -24 -25 25 27 -28 -29 -30 -31
leaf_value=-0.10275536740339551 -0.099813228879322924 -0.10114890491663886 -0.099690049075829165 -0.094553257471451935 -0.10110233071908295 -0.086652112377400559 0.10173083865909081 -0.083647588615658172 -0.10141257954744234 -0.1013090778528612 -0.10358082583891942 0.0046656064920862069 -0.10412331588175219 0.083015690708908935 -0.096527610569168851 0.088705408374713829 -0.094029400188523113 0.067429713669308791 0.024746890233240063 -0.093612434081286944 -0.083803801429399707 -0.005909298250327634 0.1074296399375704 0.14751317170363706 -0.11028405366071473 0.10831708364847246 0.11180100032617701 -0.1164837756129532 0.12516063477288361 0.10972455362041721
leaf_weight=9.3520870264619571 831.24069532006979 3697.4100914914161 2205.9006923818961 11.527845747768877 553.10626935213804 83.082397079095244 93.283983938395977 168.68216532003134 56.531898161396384 48.878369580954313 10.348603665828703 35.099035492166877 43.445426591672003 69.678616865538061 144.77567739598453 41.553262260742486 198.37078634463251 69.440188580192626 35.634319374337792 12.624796198680995 25.867089979350567 33.400664016604424 3940.7971439305693 7.4088264629244796 27.64588922355324 1669.8281013155356 52.378655624575913 7.5603438857942811 23.715068710967898 875.25639191363007
leaf_count=456 68350 308555 177522 273 45233 5543 1361 9415 4541 3852 416 657 2670 1057 10634 603 14786 1261 265 904 1603 156 60052 52 1255 24199 745 100 229 12951
internal_value=0 -0.0449137 -0.0169528 0.021703 0.0463654 0.0685151 -0.0718304 0.0759879 0.0802289 0.0835099 0.0864422 0.0662551 0.0940491 -0.0222617 -0.0671967 -0.0533311 -0.0928508 -0.052165 -0.0977118 0.102948 0.022519 0.100784 0.106932 -0.067463 0.101965 0.104015 0.0350778 0.107304 0.0532929 0.105674
internal_weight=0 11133.7 7436.27 4926.92 4095.68 3449.29 646.39 3269.27 3186.19 3129.66 3080.78 1279.62 973.834 305.781 180.019 236.103 2509.35 267.811 2241.54 922.98 67.4204 1801.16 3950.15 50.8543 1790.81 1757.41 80.0245 1677.39 35.2429 910.355
internal_count=759696 699188 390633 196799 128449 81855 46594 70719 65176 60635 56783 29912 17234 12678 11136 11621 193834 16047 177787 14512 2206 26871 60508 2722 26455 26299 2000 24299 502 13608
is_linear=0
shrinkage=0.1


Tree=25
num_leaves=31
num_cat=0
split_feature=8 0 17 2 14 5 11 11 12 9 13 12 13 2 11 10 11 11 1 4 11 10 5 4 12 4 11 13 4 2
split_gain=6038.32 1605.11 1926.39 1325.09 958.499 310.994 225.961 222.597 181.583 156.252 82.9384 275.721 135.533 92.4065 83.5499 66.9726 166.779 55.3777 49.3188 48.8018 44.1974 41.6836 41.6175 93.2907 38.0714 36.7194 42.9608 36.7159 36.4695 34.0546
threshold=1.4250195684669522 -0.29984984454162894 -0.33260173218188682 -0.37674936341842635 -0.30991677853507821 0.29694955886668378 -0.52588445168788622 1.0612323300683639 -0.15523573640092711 -0.22503185378420273 -0.20196628245930612 -0.16740352232743722 -0.2609590516561443 -0.090277382594316738 -0.35636497428525388 -0.097310693900626591 -0.30957492977794759 0.9021275571659646 -0.29086687921238774 -0.33368357714698349 -0.30249104513860631 -0.18861531234194326 0.31300639077736997 -0.15183378124012967 -0.17766401971093387 -0.33454665737178929 -0.36446012411058543 -0.12226385774474614 -0.15536414010449631 -0.37224634404971363
decision_type=2 2 2 2 2 2 2 2 2 2 2 2 2 2 2 2 2 2 2 2 2 2 2 2 2 2 2 2 2 2
left_child=1 2 3 -1 5 18 24 -6 9 10 11 13 20 14 29 17 19 -4 -5 -17 25 22 23 -12 -7 26 -13 -24 -14 -8
right_child=-2 -3 15 4 7 6 8 -9 -10 -11 21 12 28 -15 -16 16 -18 -19 -20 -21 -22 -23 27 -25 -26 -27 -28 -29 -30 -31
leaf_value=-0.09953590018680733 0.10659752797727501 -0.10104786910315136 -0.099429905611051625 0.048897094427817894 -0.10080298731235304 0.056854086057605252 -0.045358186672433853 0.099899639709995616 -0.10085077955287834 -0.10118440009648402 -0.10848614848102672 0.13472490025718084 -0.098952542931007706 0.11332594946267918 -0.097027725106682061 -0.074602723343994856 -0.10129059445591496 0.028071722531568463 -0.097733344999357236 0.099589635664056153 -0.10176577493493291 -0.12762147908978186 0.10509769594238789 0.11427474057528453 -0.10106607606413731 0.10861411129845609 -0.089439534887850405 -0.1090500701142304 0.14391821142442221 0.067050673387721291
leaf_weight=753.65094459056854 3578.0000610351562 3356.5754263121635 1992.4258200796321 27.960440403781831 477.10451356321573 18.65715728327632 46.204384326934814 62.499255269765854 55.353440932929516 45.833040927536786 30.229438939131796 14.681823079474269 44.470447598956525 43.990568122826517 134.5507985111326 20.479209151118994 180.33189032319933 34.65715136565268 127.71289341058582 74.929012950509787 10.546947439201174 8.0533871324732882 1569.1485283598304 49.724471333436668 83.987027898430824 801.75451358500868 20.468721712008119 8.0472652800381166 7.181111470796167 64.676906624808908
leaf_count=68356 59914 308690 176528 414 43314 224 1281 986 4908 3983 1657 163 2970 674 9462 937 15217 262 10293 1346 836 149 24760 767 6602 13022 504 134 53 1290
internal_value=0 -0.0444522 -0.016554 0.0214677 0.0457678 0.0664779 0.0734977 -0.0775567 0.0785644 0.0819895 0.0849314 0.0647523 0.0920793 -0.0201401 -0.0440622 -0.0909603 -0.0447217 -0.09725 -0.0713971 0.0621995 0.101665 0.099334 0.100437 0.030052 -0.0723617 0.104228 0.00419038 0.104005 -0.0651862 0.0202097
internal_weight=0 10165.9 6809.31 4506.49 3752.84 3213.23 3057.56 539.604 2954.92 2899.56 2853.73 1188.53 899.104 289.423 245.432 2302.82 275.74 2027.08 155.673 95.4082 847.452 1665.2 1657.15 79.9539 102.644 836.905 35.1505 1577.2 51.6516 110.881
internal_count=759696 699782 391092 196802 128446 84146 73439 44300 66613 61705 57722 30255 17548 12707 12033 194290 17500 176790 10707 2283 14525 27467 27318 2424 6826 13689 667 24894 3023 2571
is_linear=0
shrinkage=0.1


Tree=26
num_leaves=31
num_cat=0
split_feature=5 0 17 2 14 5 11 16 2 9 11 4 5 14 10 3 10 11 13 11 6 2 5 8 10 6 2 2 2 5
split_gain=5428.12 1445.56 1761.71 1194.45 866.592 282.029 266.595 186.433 463.215 136.734 58.9904 192.477 114.117 53.9542 47.233 44.6132 44.5949 111.853 58.5158 48.5329 43.5232 42.2114 39.101 42.3993 35.015 32.8949 32.3937 30.4503 27.0404 25.8876
threshold=-1.0659202492292807 -0.29984984454162894 -0.33260173218188682 -0.37585901732506471 -0.32026163416987347 0.29694955886668378 0.98768722873450099 -0.31141176433668843 -0.088066472916176336 -0.22503185378420273 -0.36446012411058543 -0.33454665737178929 0.36675348958325288 -0.3637605132270128 -0.062565854869280943 0.25836364183474575 -0.062565854869280943 -0.30957492977794759 -0.26555955211456528 0.98768722873450099 -0.27955307235716237 -0.37769577499769913 0.38407707503876848 -0.35184199186896453 -0.2194934856958938 -0.28871550587085676 -0.084861543500094491 -0.37224634404971363 -0.37224634404971363 0.31519141736725365
decision_type=2 2 2 2 2 2 2 2 2 2 2 2 2 2 2 2 2 2 2 2 2 2 2 2 2 2 2 2 2 2
left_child=24 2 3 21 5 14 -6 9 -9 10 13 -12 29 -7 -5 -3 19 18 27 -4 -14 -2 -23 -24 -1 -25 -21 -18 -16 -13
right_child=1 15 16 4 6 7 -8 8 -10 -11 11 12 20 -15 28 -17 17 -19 -20 26 -22 22 23 25 -26 -27 -28 -29 -30 -31
leaf_value=-0.026444168089482901 -0.10103426345192186 -0.10100552298205855 -0.09909645007483249 -0.097970652822088347 -0.10081193954117183 0.10578106682209683 0.098548596094648944 -0.10334680990092082 0.1075719122358899 -0.10106621049684131 -0.098028197693336871 0.041491832653003352 -0.10085211357234949 -0.082272449356480482 -0.10463641913803245 1.3922826582336973 -0.095310161322702605 -0.1011777434897623 -0.10227340058219013 -0.13250925516405088 0.10286265237309451 -0.10030000760005747 -0.085457467794576525 0.16306912766345449 0.10622222292292922 -0.08641971257963299 0.080337138842998396 0.12144065365126847 0.10987132906513686 0.099552939028329804
leaf_weight=20.016619273461401 667.13701486587524 3033.9294385416433 1816.4848431199789 113.22998274676502 448.87805978581309 1319.1249028742313 78.861431419849396 186.00158303976059 236.5405327565968 37.993457362987101 63.027018933556974 86.296990246511996 44.084599616006017 15.435281063430009 8.3369795083999652 0.20008057449012895 7.392428519204258 149.72125048097223 20.139412015676498 10.00199571251869 13.761391548439859 40.656800134107471 18.758111111819744 23.17713717836887 3259.5642675673589 6.8456990672275415 25.079589746892452 52.594363523647189 19.912948166951537 697.27445869799703
leaf_count=605 66664 308544 177522 10272 44837 22797 1361 15168 4203 3653 2753 2497 3828 777 127 11 262 13883 1131 65 249 2515 208 227 59903 387 200 771 173 14103
internal_value=0 -0.0443383 -0.016685 0.0211579 0.0466582 0.0685179 -0.071021 0.0757309 0.0147262 0.0870515 0.0902437 0.0705266 0.0831524 0.103606 -0.0691102 -0.100907 -0.0916893 -0.0501448 0.0452136 -0.0968465 -0.052389 -0.0923857 -0.0278744 0.0324892 0.105413 0.106182 0.0196532 0.0947295 0.0465669 0.0931585
internal_weight=0 9240.88 6206.75 4125.33 3368.76 2841.02 527.739 2699.54 422.542 2277 2239 904.444 841.417 1334.56 141.48 3034.13 2081.41 229.847 80.1262 1851.57 57.846 756.575 89.4377 48.7809 3279.58 30.0228 35.0816 59.9868 28.2499 783.571
internal_count=759696 699188 390633 196799 126798 80600 46198 70028 19371 50657 47004 23430 20677 23574 10572 308555 193834 16047 2164 177787 4077 70001 3337 822 60508 614 265 1033 300 16600
is_linear=0
shrinkage=0.1


Tree=27
num_leaves=31
num_cat=0
split_feature=5 0 17 2 14 5 12 16 11 9 13 15 4 2 3 0 3 2 5 2 11 17 13 13 10 11 13 0 11 2
split_gain=4878.71 1314.57 1586.35 1081.34 790.446 249.173 192.042 185.348 169.431 128.478 74.6769 265.967 231.44 66.5687 43.4247 42.2609 41.5845 40.4673 40.0655 98.1221 37.4081 37.0738 36.4862 35.1021 34.3996 85.4973 47.9431 33.2607 31.0231 32.7576
threshold=-1.0659202492292807 -0.29984984454162894 -0.33064692654719768 -0.37585901732506471 -0.30772548800907457 0.29694955886668378 -0.15523573640092711 0.42137305150069609 1.0612323300683639 -0.26865522746039744 -0.20481862080898841 -0.44103763747947727 -0.33454665737178929 -0.088066472916176336 -0.29947366734110253 -0.74241391022198677 -0.31376311551797004 -0.37769577499769913 0.31413154877493582 -0.076765675559852739 0.98768722873450099 -0.33634409704988061 -0.2609590516561443 -0.19268501141954816 -0.062565854869280943 -0.30957492977794759 -0.26322949813198138 2.2817738719271259 -0.51903149537158255 -0.37674936341842635
decision_type=2 2 2 2 2 2 2 2 2 2 2 2 2 2 2 2 2 2 2 2 2 2 2 2 2 2 2 2 2 2
left_child=27 2 3 17 5 14 7 9 -6 10 11 12 -7 16 -5 -12 -13 -2 19 -17 24 -20 -14 -19 -4 26 -26 -1 -25 -30
right_child=1 -3 20 4 8 6 -8 -9 -10 -11 15 13 22 -15 -16 18 -18 23 21 -21 -22 -23 -24 28 25 -27 -28 -29 29 -31
leaf_value=0.10524014419696259 -0.10093540001888981 -0.10080435964081123 -0.099345631830700845 0.043700984610186025 -0.10055060106999372 -0.062118634203584537 -0.10066923738117065 -0.1010612772046931 0.096450556649070429 -0.087810253197856319 -0.10286490270086135 0.13738250317876122 0.10811319812033721 0.12662489605650143 -0.098232894937904047 -0.11467343920279033 -0.099315609191027693 -0.079499796328768718 0.10323798294398415 0.11168710949074888 0.015530997827290997 0.28616843888931232 -0.01479052461183694 -0.082248312796708842 0.09102949115068458 -0.1010646423248399 -0.10245835657903915 -0.11228059751442941 0.54113218786338146 0.085926569613994946
leaf_weight=2978.9814245253801 616.74914073944092 2748.3038210440427 1617.3031060304493 27.206285531632602 392.37895452231169 94.730097288265824 62.362889202311635 57.120374578051269 49.122641958296299 44.174742918461561 10.293925076723097 7.9011502414941779 711.20771213341504 16.781448602676392 103.78831674158573 29.172275432385504 122.48733763210475 50.805643941275775 1305.2985573811457 55.739478432573378 31.418385550379753 11.17368560284376 25.00375047326088 11.34014548640698 47.458298190496862 133.31202894076705 17.538858419284225 7.046209141612052 1.7130649089813221 20.486219384707514
leaf_count=60366 68016 308555 174277 464 43533 3889 6583 5587 913 4255 517 90 13755 260 10196 1619 10505 2789 24799 1000 271 91 1022 196 894 13654 1076 142 179 203
internal_value=0 -0.0440382 -0.0165428 0.0201902 0.0453639 0.0657571 0.0726577 0.0769968 -0.0786317 0.0811755 0.0842992 0.0630625 0.0850079 -0.0608445 -0.0687546 0.0990135 -0.0849724 -0.0920508 0.100496 0.0339187 -0.0926536 0.104791 0.103939 -0.0270845 -0.0945257 -0.055217 0.0388187 0.104727 0.0523145 0.121054
internal_weight=0 8422.37 5674.07 3827.04 3125.94 2684.44 2553.45 2491.08 441.502 2433.96 2389.79 978.111 830.942 147.17 130.995 1411.68 130.388 701.094 1401.38 84.9118 1847.03 1316.47 736.211 84.3451 1815.61 198.309 64.9972 2986.03 33.5394 22.1993
internal_count=759696 699188 390633 200461 129078 84632 73972 67389 44446 61802 57547 29521 18666 10855 10660 28026 10595 71383 27509 2619 190172 24890 14777 3367 189901 15624 1970 60508 578 382
is_linear=0
shrinkage=0.1


Tree=28
num_leaves=31
num_cat=0
split_feature=8 0 17 2 14 5 11 13 10 4 4 6 1 12 2 3 11 11 4 8 13 5 2 15 3 10 11 13 17 4
split_gain=4388.92 1206.2 1399.01 968.626 700.741 221.945 218.853 154.193 324.149 214.162 152.342 143.184 50.6608 50.638 68.5538 50.3178 39.2236 39.0314 37.6255 51.2607 35.2568 34.2435 60.9479 32.2928 32.2865 32.119 77.4568 41.7387 28.8687 28.1145
threshold=1.4250195684669522 -0.29984984454162894 -0.33064692654719768 -0.37769577499769913 -0.32026163416987347 0.29694955886668378 0.98768722873450099 -0.2005591638920545 -0.097310693900626591 -0.33454665737178929 -0.18004505286306818 -0.2811306619441804 -0.041230346614729789 -0.17232980715670587 -0.084861543500094491 -0.31440920726998639 0.98768722873450099 -0.3790518614921029 -0.33860186491044009 -0.34524747117017018 -0.25916352374443957 0.31300639077736997 -0.076765675559852739 0.80780943094733082 0.45151986917085835 -0.062565854869280943 -0.30957492977794759 -0.2609590516561443 -0.33725864896066715 -0.33454665737178929
decision_type=2 2 2 2 2 2 2 2 2 2 2 2 2 2 2 2 2 2 2 2 2 2 2 2 2 2 2 2 2 2
left_child=1 2 3 -1 5 17 -6 8 10 -10 15 -11 16 18 -15 -7 25 -5 19 -9 -13 22 -20 28 -3 -4 27 29 -23 -27
