tree
version=v4
num_class=1
num_tree_per_iteration=1
label_index=0
max_feature_idx=45
objective=binary sigmoid:1
feature_names=WATT R_AbsMax S_AbsMax T_AbsMax R_AbsMean S_AbsMean T_AbsMean R_P2P S_P2P T_P2P R_RMS S_RMS T_RMS R_Skewness S_Skewness T_Skewness R_Kurtosis S_Kurtosis T_Kurtosis R_Crest S_Crest T_Crest R_Shape S_Shape T_Shape R_Impulse S_Impulse T_Impulse RS_phase ST_phase TR_phase RS_Level ST_Level TR_Level R_1x S_1x T_1x R_2x S_2x T_2x R_3x S_3x T_3x R_4x S_4x T_4x
feature_infos=[2.2000000000000002:55] [0.0400390625:244.72875976562] [0.1451416015625:245.20922851562] [0.080078125:244.73876953125] [0.00046044921874999998:70.85797473144531] [0.011671386718749999:70.97627014160156] [0.00086083984374999995:70.073609497070308] [0.0400390625:326.358398437495] [0.16015625:326.878906249995] [0.0400390625:326.408447265625] [0.0067593717154443003:73.919086226500724] [0.032871070539950198:73.963889594602549] [0.0112893117065378:73.471783643070026] [-16.421383540937114:11.143789372162191] [-11.045611392738511:5.6089627696841546] [-14.668152675871976:6.0902332681384621] [1.0797343690792085:455.8715338219136] [1.0809313962166067:228.80654766671464] [1.0818999634549855:411.86353371771247] [0.28501134902161029:41.464421443136473] [0.58999446022385749:26.171337567487928] [0.12645317614257881:28.373076085276349] [1.0002881656996083:14.679950448812288] [1.0014091186952794:10.124198034730044] [1.0007042711820977:13.114299702206218] [1.0075546688012489:347.82608695652169] [1.1501681250905746:150.07945382849744] [1.0123378677633661:279.06976744186051] [-3.1415926535897931:3.1415926535897598] [-3.1415926535897931:3.1415926535897816] [-3.1415926535897931:3.1415926535897816] [-126.43063946533204:51.52948266601814] [-0.99009082031249995:244.29304980468248] [-243.80845703124496:0.98924999999999996] [0.00069081687893250004:83.751144040890779] [0.0011152792927761001:81.800053597958524] [0.00041794884058699998:83.444997245148485] [0.00065978870508019997:137.19527127005321] [0.00078349650308860003:137.04152121711385] [0.0004334326324017:137.75510230324073] [0.00061116651551980004:10.628039275342854] [0.00095314303680639999:7.1577445578447332] [0.00066737935966599995:8.9909126017285015] [0.0006707522662484:9.7136651887577248] [0.0010739759839509999:4.1824108479666533] [0.00047498362098900002:3.5980151040934709]
tree_sizes=3408 3444 3442 3458 3449 3429 3439 3452 3446 3445 3449 3459 3458 3470 3446 3471 3475 3475 3481 3487 3490 3467 3495 3486 3504 3474 3467 3484 3465 3499 3469 3468 3498 3494 3483 3491 3477 3478 3444 3484 3482 3486 3504 3457 3464 3479 3486 3481 3480 3475 3491 3472 3492 3491 3480 3505 3501 3494 3505 3509 3484 3506 3468 3487 3501 3473 3488 3494 3496 3475 3478 3518 3503 3510 3504 3476 3496 3510 3466 3493 3516 3510 3501 3492 3505 3532 3498 3483 3454 3482 3470 3488 3497 3470 3456 3475 3461 3511 3500 3454

Tree=0
num_leaves=31
num_cat=0
split_feature=35 8 22 33 4 37 39 4 18 28 31 9 4 24 12 34 37 0 4 9 4 20 21 9 11 17 11 37 6 17
split_gain=45961.6 71414.4 35139.4 30458.5 232398 24250.1 17679.5 17073 15946.7 34281.1 14396.7 59261.5 24019.1 13500.4 23223.4 11091.4 9721.92 8507.11 7243.78 6464.12 7579.68 6280.33 6072.64 5078.73 5804.96 4232.71 4201.18 12306.3 3981.44 3975.81
threshold=0.096709664368563819 10.550292968750002 1.1061688436040857 -7.1079296874999986 5.5534830322265636 27.326345763261745 22.842816210736036 15.327243408203126 1.5205024939238065 3.1415926535884986 -0.62342822265625741 26.605957031250004 7.1516096801757767 1.1075142391356125 24.413994744810868 0.07929420182714271 3.7435954951120896 13.000000000000002 16.899136962890626 52.391113281250007 15.327243408203126 2.7780484104809227 3.0993192047846958 26.605957031250004 8.319396494095038 1.5085197563377462 58.760307168095039 24.113296798283866 21.956260742187506 1.5160339907801421
decision_type=2 2 2 2 2 2 2 2 2 2 2 2 2 2 2 2 2 2 2 2 2 2 2 2 2 2 2 2 2 2
left_child=3 -2 6 4 29 21 7 -3 -7 -10 11 12 -6 -8 19 -5 -9 -11 -19 20 -15 -4 -20 24 -23 -14 27 -18 -24 -1
right_child=1 2 5 15 10 8 13 16 9 17 -12 -13 25 14 -16 -17 26 18 22 -21 -22 23 28 -25 -26 -27 -28 -29 -30 -31
leaf_value=-2.160600346479467 -1.1832278598286763 -2.1750508320418773 -1.187351256460127 -2.1741154778062661 -2.1750557963008261 -2.1434714737448299 -2.1543519623566088 -2.1376099383735658 -2.1750550640550044 -2.1737622336404927 -2.1600753656032787 -2.1647983561474438 -2.1420175870375036 -2.1750499862567549 -1.2528832200544788 -1.4670252391387599 -1.9985233535420357 -2.1226736285034375 -1.2499423130299121 -2.1707402990338163 -1.3265831078391623 -2.1408993794157398 -2.1179031109166919 -2.1518928348133519 -1.1934342049368039 -1.1872504503431551 -1.1792027880548577 -1.1980695203663616 -1.350756629588715 -1.1790712045544565
leaf_weight=41.856708377599716 1189.6241563558578 352.01337814331055 69.453617066144943 33939.561625182629 346.39472681283951 1310.8191761374474 1313.8175347745419 168.24360454082489 1067.5090455710888 154.62942317128181 21809.757266432047 4611.6193306148052 48.442145973443985 182.85300636291504 648.25206115841866 223.29713195562363 308.16099521517754 127.90738081932068 1298.004096776247 764.650480479002 248.21089366078377 140.50703409314156 148.72625759243965 10702.805235415697 119.80185034871101 1119.3509937524796 818.7959942817688 509.83351692557335 124.10553479194641 2936.9954384565353
leaf_count=418 11886 3517 694 339108 3461 13097 13127 1681 10666 1545 217912 46077 484 1827 6477 2231 3079 1278 12969 7640 2480 1404 1486 106937 1197 11184 8181 5094 1240 29345
internal_value=-2.06234 -1.93656 -1.9801 -2.10441 -2.0325 -2.05721 -1.75865 -1.53798 -1.85369 -1.72365 -2.12203 -1.98657 -1.44377 -1.90939 -1.73486 -2.16949 -1.41374 -1.46365 -1.39901 -1.99617 -1.68649 -2.13527 -1.34009 -2.14128 -1.70485 -1.22686 -1.33933 -1.49962 -1.76894 -1.19286
internal_weight=0 21768.7 20579.1 65077.3 30914.4 15264.3 5314.83 2157.05 4231.7 2920.88 27935.6 6125.81 1514.19 3157.78 1843.97 34162.9 1805.03 1853.37 1698.74 1195.71 431.064 11032.6 1570.84 10963.1 260.309 1167.79 1636.79 817.995 272.832 2978.85
internal_count=867722 217502 205616 650220 308881 152513 53103 21552 42281 29184 279118 61206 15129 31551 18424 341339 18035 18518 16973 11947 4307 110232 15695 109538 2601 11668 16354 8173 2726 29763
is_linear=0
shrinkage=1


Tree=1
num_leaves=31
num_cat=0
split_feature=35 9 33 5 22 37 31 9 28 18 4 39 4 16 25 12 23 39 12 9 38 39 17 35 9 17 0 6 18 23
split_gain=32787.6 31379.6 26775.7 101301 21508.2 17226.5 10533 25526 9819.88 15523.4 9285.25 10847.8 5073.33 4560.02 4403.46 3487.09 3278.84 3208.62 8734.08 3134.46 2895.28 3404.73 2400.51 2308.28 2032.66 1911.76 1800.87 5117.81 1675.78 1467.77
threshold=0.088507099172559708 26.605957031250004 -7.1079296874999986 5.5779494018554692 1.1062327915358303 27.190861793667356 -0.66505883789062492 26.605957031250004 3.1415926535890288 1.5217096719811205 15.327243408203126 39.375693369083706 7.1516096801757767 1.4864656539115473 1.7200050068909036 18.792339156138976 1.1150325052747014 24.204120501904203 24.413994744810868 52.391113281250007 24.611904246947422 23.90039059433558 1.4864540064595542 0.078010395414527409 10.012268066406252 1.5834228569872535 20.250000000000004 21.956260742187506 1.5228795749832098 1.1157812601934387
decision_type=2 2 2 2 2 2 2 2 2 2 2 2 2 2 2 2 2 2 2 2 2 2 2 2 2 2 2 2 2 2
left_child=2 16 3 -1 10 13 7 12 -7 -10 -3 14 -5 20 17 -11 -2 28 19 -19 22 -22 -6 -4 -25 -18 27 -17 -12 -8
right_child=1 4 23 6 5 8 29 -9 9 15 11 -13 -14 -15 -16 26 25 18 -20 -21 21 -23 -24 24 -26 -27 -28 -29 -30 -31
leaf_value=0.42150563949340092 -0.11043758980756556 -0.11145305403222985 -0.11085059457695912 -0.11143247478856166 0.4064641393178221 -0.092106466410160917 -0.10865593751742303 -0.10199203070656156 -0.073861087317052418 -0.082308506990343921 0.38910705638231069 -0.10865827287042087 0.41294697112705248 -0.10276831859950092 -0.024895340303584038 -0.11825825929068162 0.43146979071605263 0.34760728188084389 0.40994585978956793 -0.10118025765393444 0.82466154816288206 -0.075058544441885075 -0.080979773452998921 0.53960257564243497 -0.10896915528550617 -0.0938186916410233 0.43628231107350235 0.41030189869699196 -0.079612576695612794 -0.042787380210108417
leaf_weight=5274.4070842638612 122.35114553570747 867.59788582473993 31051.651301167905 206.86207877844572 134.6674952507019 1446.4245600104332 15421.639404378831 3331.4810143858194 1298.0809047967196 178.27845325320959 2995.5101736560464 791.50209045410156 1706.9162302389741 10147.572959944606 417.61002857238054 255.13673783838749 2762.3981789052486 196.71892784535885 1072.2281305044889 744.99725985527039 117.05862836539745 65.647412121295929 404.48928604274988 102.94118835031986 91.074314579367638 71.06713330745697 1677.9332771971822 649.59273362159729 78.269348561763763 4333.6755566522479
leaf_count=29716 1293 9410 338438 2254 864 15402 166299 36072 13676 1830 18419 8478 9699 108825 4144 2171 15870 1273 6259 8062 1255 704 4337 756 889 634 10212 3875 777 45829
internal_value=0 0.0892952 -0.043763 0.0232583 0.0507312 -0.0124964 -0.0607606 0.0652075 0.131621 0.211346 0.195243 0.2375 0.356266 -0.085493 0.287268 0.345439 0.396409 0.31289 0.214781 -0.0074312 0.157355 0.501387 0.0407712 -0.108702 0.235152 0.418295 0.374966 0.261246 0.377172 -0.0942065
internal_weight=0 26495.1 61520.6 30275 23539.3 16374.9 25000.6 5245.26 5505.45 4059.02 7164.43 6296.84 1913.78 10869.4 5505.33 2760.94 2955.82 5087.72 2013.94 941.716 721.863 182.706 539.157 31245.7 194.016 2833.47 2582.66 904.729 3073.78 19755.3
internal_count=867722 237770 629952 289869 219973 163151 260153 48025 47166 31764 56822 47412 11953 115985 38934 18088 17797 34790 15594 9335 7160 1959 5201 340083 1645 16504 16258 6046 19196 212128
is_linear=0
shrinkage=0.1


Tree=2
num_leaves=31
num_cat=0
split_feature=35 33 4 9 22 37 31 9 28 18 10 4 39 25 16 0 10 3 12 23 35 4 12 31 16 39 17 39 11 9
split_gain=25991.7 23676 68643.8 19307.3 15317.8 13895.4 9334.73 19802.3 6989.06 10423.6 6690.82 6565.75 6898.68 3102.52 3073.82 2950.54 2079.12 2027.13 7715.33 1872.82 1846.61 1547.63 2266.58 1286.75 1215.6 3935.87 1215.09 1139.17 1137.24 1093.17
threshold=0.088507099172559708 -7.1079296874999986 5.5534830322265636 26.605957031250004 1.1063613278103723 27.190861793667356 -0.58284863281249988 26.605957031250004 3.1415926535884986 1.5185713187388523 7.9895655040423366 15.327243408203126 39.375693369083706 1.7208743215186957 1.48670268472194 13.000000000000002 18.867773759137577 25.932800292968505 24.413994744810868 1.1150325052747014 0.078010395414527409 15.327243408203126 16.372732715283885 -0.61165673828124933 1.4752485929978454 34.68492263425906 1.4864540064595542 34.68492263425906 58.760307168095039 10.012268066406252
decision_type=2 2 2 2 2 2 2 2 2 2 2 2 2 2 2 2 2 2 2 2 2 2 2 2 2 2 2 2 2 2
left_child=1 2 -1 19 11 14 7 10 -7 -10 -4 -5 13 17 21 -11 -17 -13 -19 -2 -3 -6 -23 -12 -20 28 -24 -15 -26 -22
right_child=3 20 6 4 5 8 -8 -9 9 15 23 12 -14 27 -16 16 -18 18 24 -21 29 22 26 -25 25 -27 -28 -29 -30 -31
leaf_value=0.31048142040093546 -0.1090443828558792 -0.10960458578437667 -0.1103579217473119 -0.11035053607051487 -0.11187136065632526 -0.11039313004498363 -0.098033024758131651 -0.10109909065123085 -0.093805089393433849 -0.11011496720980561 0.30810175191138583 0.33392456703861373 -0.10718096027808316 -0.10526564371186815 -0.10159705762329885 -0.11436222984185936 0.29205330786586842 -0.069315132250306832 0.32398526728180299 0.30639084586121229 0.34947857547599348 0.49325145096016004 0.29296278338948173 0.79069216673000609 -0.081427454317373332 0.30094323477302865 -0.084502272140575374 0.32415591167151953 0.3196903063360651 -0.10703769536073787
leaf_weight=6392.6092033982277 112.05198740959167 28399.760604865849 429.6372297257185 836.90359500795603 228.18531350791454 1157.2409237474203 17025.132198035717 3927.4649440348148 1167.3957620933652 211.30263794213533 2197.8819662630558 1582.3165171146393 725.54806518554688 377.93065255135298 9216.7205294668674 131.19486030191183 3104.1795709505677 848.74358157068491 1797.2348898425698 3437.4010317325592 140.17493622004986 176.13007092475891 136.06289518624544 56.675294116139412 455.44191743433475 1335.5727015435696 228.50115523487329 73.847426414489746 83.666302531957626 83.818594053387642
leaf_count=29711 1293 338438 5084 9891 2523 13570 197986 45888 13220 2388 10562 7840 8478 4163 107325 1259 16149 9276 8603 16504 756 1118 712 638 3577 6389 2610 491 391 889
internal_value=0 -0.0422732 0.0197562 0.0756643 0.0433112 -0.0141801 -0.0588709 0.0419724 0.109343 0.164455 0.251312 0.154912 0.185405 0.217791 -0.0855722 0.251928 0.275573 0.23651 0.202413 0.293276 -0.107349 0.106521 0.198687 0.320233 0.265222 0.208885 0.0563755 -0.0350726 -0.0191764 0.17865
internal_weight=0 58653.2 30029.4 27423.6 23874.1 15756.9 23636.8 6611.66 5771.31 4614.07 2684.19 8117.21 7280.3 6554.75 9985.6 3446.68 3235.37 6102.98 4520.66 3549.45 28623.8 768.879 540.694 2254.56 3671.92 1874.68 364.564 451.778 539.108 223.994
internal_count=867722 629952 289869 237770 219973 160874 260158 62172 46586 33016 16284 59099 49208 40730 114288 19796 17408 36076 28236 17797 340083 6963 4440 11200 18960 10357 3322 4654 3968 1645
is_linear=0
shrinkage=0.1


Tree=3
num_leaves=31
num_cat=0
split_feature=37 35 23 24 0 4 10 38 4 27 19 24 26 21 28 22 3 0 18 10 12 17 24 22 16 32 11 4 9 35
split_gain=21490.5 17375.6 20396.3 23397.3 16514.4 20617.5 11520.2 7897.02 9821.8 11195.6 5761.85 2185.71 3330.78 2540.46 2107.13 1866.44 1663.84 5603.2 1806.6 1709.38 1439.71 1364.71 1839.81 1615.49 1256.06 5136.53 1264.09 1237.98 6131.93 1899.26
threshold=4.1328704554346904 0.11027649444917677 1.1156970353213964 1.1204780928832239 6.5000000000000009 4.8590455322265633 3.0596710275554706 9.0305389678856098 15.327243408203126 1.6549654601632409 3.0997478238109353 1.1221236287058394 1.8107902439366528 3.0255792558090779 3.1415926535884986 1.1104413312591543 25.727600097656005 13.000000000000002 1.5161212312302974 18.867773759137577 16.721596370013113 1.5236468722502596 1.1127795412556598 1.1081299332354495 1.4764686019025077 4.3323217773437506 58.760307168095039 15.327243408203126 48.369689941406506 0.088507099172559708
decision_type=2 2 2 2 2 2 2 2 2 2 2 2 2 2 2 2 2 2 2 2 2 2 2 2 2 2 2 2 2 2
left_child=-1 2 21 4 5 -4 -5 24 -9 20 14 12 13 -8 -11 -7 -16 -18 -19 -20 -10 27 23 -23 -3 -26 -27 -2 29 -29
right_child=1 7 3 6 -6 15 11 8 9 10 -12 -13 -14 -15 16 -17 17 18 19 -21 -22 22 -24 -25 25 26 -28 28 -30 -31
leaf_value=-0.10113358063062583 -0.10648487505968436 0.25796376109757679 -0.10921287156551995 0.27921960280976599 -0.10730358910331531 -0.087150450337850155 0.14865627674688139 -0.10275381931842183 0.33885264493429834 -0.10931047238404124 -0.054240330831701801 -0.10024605531936269 0.2325006186375328 -0.098261676027635358 0.28105015618935875 0.26806598976381391 -0.053725307135155324 -0.089067509401988959 -0.11161205969900663 0.22963372386680625 -0.10303839920317766 -0.09824217797950624 -0.093837503995192514 0.23773995335148188 0.25599736740260787 -0.087287006818809895 0.26530599416119899 1.0701111433921233 -0.088507618041461844 0.31926639324304412
leaf_weight=18217.655642002821 15959.524415716529 2472.291187748313 1817.2955045849085 994.6280309855938 2162.2431915253401 150.58077611029148 522.0590807273984 2887.0055489093065 76.135847769677639 240.20429503917694 1176.3365597724915 8860.4420648440719 504.35967345535755 2064.362247094512 1639.2505684494972 8372.0513236969709 965.35328192263842 196.95565976202488 151.25734110176563 4973.1892105340958 2333.580567702651 212.0675740391016 867.0248291566968 440.11830721050501 1789.6165834665298 755.73568011820316 117.48544311523438 40.102085195481777 1798.7345996424556 210.65254831314087
leaf_count=232650 202966 10723 23670 4513 26709 1736 3650 36060 384 3086 13215 111047 2530 25944 7548 37421 10950 2430 1704 24723 28949 2677 10914 2074 7521 7725 502 512 22159 1030
internal_value=0 0.0218114 -0.0125371 0.0464543 0.144027 0.196584 -0.0477745 0.0999361 0.0625081 0.103106 0.152675 -0.0749882 -0.00258071 -0.0484222 0.182481 0.26179 0.191324 0.167928 0.208138 0.219561 -0.0890767 -0.0894112 0.00160628 0.128491 0.206636 0.158981 -0.0398482 -0.0970893 -0.0239249 0.439346
internal_weight=0 64750.6 44976.2 25448 12502.2 10339.9 12945.9 19774.4 14639.3 11752.3 9342.55 11951.2 3090.78 2586.42 8166.21 8522.63 7926.01 6286.76 5321.4 5124.45 2409.72 19528.2 1519.21 652.186 5135.13 2662.84 873.221 18009 2049.49 250.755
internal_count=867722 635072 479552 237220 89536 62827 147684 155520 129049 92989 63656 143171 32124 29594 50441 39157 47355 39807 28857 26427 29333 242332 15665 4751 26471 15748 8227 226667 23701 1542
is_linear=0
shrinkage=0.1


Tree=4
num_leaves=31
num_cat=0
split_feature=37 28 23 4 28 18 39 33 22 12 10 18 23 6 2 9 11 15 19 0 22 22 17 35 24 22 24 37 0 31
split_gain=18755.6 14981.2 21383.1 20026.3 16241.7 18788.4 9789.47 8114.56 6232.24 5390.72 12141.1 4937.69 3384.05 2755.39 1694.11 1686.79 2443.87 1463.79 4196.81 1201.48 1175.24 1140.47 1060.2 1054.73 951.719 1713.47 881.299 868.361 812.277 619.748
threshold=4.1328704554346904 3.1415926535884986 1.1166482895708811 15.327243408203126 3.141592653589135 1.58634697641838 23.90039059433558 -36.198861083984276 1.1117226793076112 9.0215146757813027 18.867773759137577 1.5137056394930091 1.115356441230374 21.956260742187506 25.707580566406005 27.166503906250004 5.6345202224090434 0.0062782787083413508 2.7771777282264218 20.250000000000004 1.1098549898851588 1.1164863510192207 1.5228215491564763 0.088507099172559708 1.1127795412556598 1.1089068714046655 1.1111131161241381 27.190861793667356 46.000000000000007 -0.67227587890624896
decision_type=2 2 2 2 2 2 2 2 2 2 2 2 2 2 2 2 2 2 2 2 2 2 2 2 2 2 2 2 2 2
left_child=28 -2 3 12 5 8 17 11 -4 -10 -11 -8 22 -13 26 16 -14 -5 -19 -12 -18 -22 -3 -21 25 -24 -9 -25 29 -1
right_child=1 2 4 6 -6 -7 7 14 9 10 19 13 15 -15 -16 -17 20 18 -20 23 21 -23 24 27 -26 -27 -28 -29 -30 -31
leaf_value=-0.013109673906505609 -0.1083945527281852 -0.10694150147755699 -0.099342108178496688 0.233039262515883 -0.10693032258150932 -0.10747838811501842 -0.10203104486790116 0.23137124079744648 0.22831791645628163 -0.10848544785963224 -0.11099382109032761 -0.11996429386570986 -0.1083161157176499 0.22537048937102303 -0.088137341304269132 -0.10711182111410483 -0.097944955564876132 0.21324006534461093 -0.097917543447498645 1.1500901053051447 0.23114598809433484 -0.10648940702161885 -0.081728484297801926 0.77234845321544299 -0.098874302399650754 0.20758935723920147 -0.08107726906114987 0.24051728205777534 0.37413422596767087 -0.10468129591313338
leaf_weight=775.00890893489122 7969.2693837806582 14499.42631971091 751.34378407895565 2969.2556561678648 2942.3759532868862 2569.5103671550751 721.6877441033721 267.05728507786989 12358.858443416655 1703.6951740160584 94.569095134735107 255.29703801870346 481.10103019326925 2432.4994131401181 4509.9697484448552 647.97430430352688 156.50856736302376 1516.5991210117936 606.94488533586264 13.018821209669111 949.90250937640667 111.82052982598543 436.7446966022253 31.110867857933044 809.63576193153858 385.28944465517998 136.37407101690769 2330.470927387476 36.144354820251465 15943.753186166286
leaf_count=8976 110853 201862 10305 13448 39481 35102 9929 1658 52709 22513 1232 2165 6833 10477 56434 8759 2029 6599 6802 164 4349 1199 5719 337 11147 1736 1492 9739 378 223296
internal_value=0 0.0196981 0.0383638 -0.014499 0.112328 0.144824 0.0784985 0.0116772 0.182335 0.195137 0.0968632 0.130211 -0.082017 0.192569 -0.0705752 0.0301676 0.0825137 0.187701 0.124306 0.238551 0.157876 0.195586 -0.0983414 0.252472 -0.0219191 0.0538755 0.125753 0.247523 -0.0994127 -0.100436
internal_weight=0 62658.3 54689 31894.1 22795 19852.6 13415.7 8322.89 17283.1 16531.7 4172.86 3409.48 18478.4 2687.8 4913.4 2347.31 1699.33 5092.8 2123.54 2469.17 1218.23 1061.72 16131.1 2374.6 1631.67 822.034 403.431 2361.58 16754.9 16718.8
internal_count=867722 635072 524219 352637 171582 132101 109004 82155 96999 86694 33985 22571 243633 12642 59584 23169 14410 26849 13401 11472 7577 5548 220464 10240 18602 7455 3150 10076 232650 232272
is_linear=0
shrinkage=0.1


Tree=5
num_leaves=31
num_cat=0
split_feature=28 22 4 23 18 28 22 12 10 9 12 28 37 22 17 12 39 18 6 6 0 18 0 17 9 0 42 23 18 16
split_gain=16622.5 17531 15773.8 13773.7 14653.4 16191.3 7128.4 3872.9 9422.64 3729.94 7013.74 3216.04 2840.13 2376.69 4231.28 2196.08 2580.93 3252.72 1708.26 1530.23 1476.95 723.44 669.928 587.776 1024.61 559.338 555.591 536.393 515.729 475.182
threshold=3.1415926535884986 1.1137152533131729 15.327243408203126 1.1158682290720581 1.584418138882618 3.141592653589135 1.1070990876430584 9.0215146757813027 18.867773759137577 51.990722656250007 24.413994744810868 3.1415926535897212 3.7435954951120896 1.1109252274584436 1.5190935325570594 16.161230509135141 34.68492263425906 1.5134483225193482 4.6246618652343754 21.956260742187506 3.7250000000000005 1.5205024939238065 20.250000000000004 1.5097110679170684 27.166503906250004 46.000000000000007 0.021956936523029952 1.1137081411170255 1.5226492629795829 1.48670268472194
decision_type=2 2 2 2 2 2 2 2 2 2 2 2 2 2 2 2 2 2 2 2 2 2 2 2 2 2 2 2 2 2
left_child=-1 2 13 -3 5 7 9 26 -9 28 -11 12 -12 -2 23 29 -17 -18 -16 -19 -20 -21 -10 -15 27 -6 -5 -25 -4 -8
right_child=1 3 6 4 25 -7 15 8 22 10 11 -13 -14 14 18 16 17 19 20 21 -22 -23 -24 24 -26 -27 -28 -29 -30 -31
leaf_value=-0.10726827579252583 -0.10194853840606628 -0.10031584937453689 0.22075257307659527 0.037552293161536784 -0.10584694226934398 -0.10573425346215588 0.24147596520696993 -0.10655640357246657 -0.11171028827033869 -0.098384639849515801 -0.095430156923673223 -0.1081572608070307 0.16989631987450682 -0.10707893007886911 -0.085559336318672977 -0.1056143328728497 -0.10806363766067668 -0.13275008352556478 0.20485177173126023 0.59733567396709397 -0.10758318647078505 0.20576205293502783 0.21665419573564831 -0.10780771813106033 -0.10643223261547581 0.66993781584172696 0.20524553422846409 0.2029630532445591 -0.064109655068138149 0.68127186273416396
leaf_weight=13253.623447261751 16344.960047312081 3645.7534258365631 2204.8293408453465 200.74573910981417 2807.9085996448994 2333.6260833963752 118.94925910979509 1519.6125839427114 63.735272884368896 1926.5427302494645 441.460693590343 546.45046332478523 4684.1179937273264 2775.330865457654 355.08613796532154 3400.9833224341273 734.43240177631378 135.69788280874491 1109.4453466907144 50.580001354217529 175.19559641927481 702.30290146917105 2470.0997314453125 72.26328106969595 434.51443232595921 9.3246275782585126 12495.051243834198 239.98841028660536 65.441707275807858 30.962083220481873
leaf_count=203463 247097 54600 9513 1742 41282 34273 503 21999 884 25661 6296 8249 21121 42190 5073 49211 10641 792 4496 413 2584 2868 10209 1107 6491 102 52891 1155 555 261
internal_value=0 0.0160961 -0.0283253 0.0796518 0.109611 0.141041 0.0502257 0.175423 0.0903214 0.100069 0.0664652 0.122458 0.147044 -0.0832672 -0.0241126 -0.044847 -0.056101 0.0476528 0.108581 0.176356 0.162243 0.232069 0.208395 -0.0858885 -0.0071349 -0.103279 0.202594 0.131042 0.212541 0.33231
internal_weight=0 62095.4 36549.5 25545.9 21900.1 19082.9 15042.8 16749.2 4053.45 9868.84 7598.57 5672.03 5125.58 21506.8 5161.82 5173.91 5024 1623.01 1639.73 888.581 1284.64 752.883 2533.84 3522.1 746.766 2817.23 12695.8 312.252 2270.27 149.911
internal_count=867722 664259 446277 217982 163382 121998 136084 87725 33092 71395 61327 35666 27417 310193 63096 64689 63925 14714 12153 4073 7080 3281 11093 50943 8753 41384 54633 2262 10068 764
is_linear=0
shrinkage=0.1


Tree=6
num_leaves=31
num_cat=0
split_feature=28 22 4 23 18 28 22 12 10 9 12 28 37 22 17 39 18 9 10 7 6 0 17 9 42 5 10 39 19 27
split_gain=14772.8 14819.3 13773.6 11597.4 12169.2 13169.6 5898.95 2964.55 7705.58 2892.72 5788.39 2591.69 2239.9 2180.24 3730.91 1771.27 2638.23 2143.44 1677.62 1359.2 1177.93 529.317 525.395 878.409 523.034 565.948 454.348 1783.31 757.673 431.097
threshold=3.1415926535884986 1.1137152533131729 15.327243408203126 1.1157812601934387 1.584418138882618 3.141592653589135 1.1070990876430584 9.0215146757813027 18.867773759137577 51.990722656250007 24.413994744810868 3.1415926535897212 3.7435954951120896 1.11072125362776 1.5190935325570594 34.68492263425906 1.5137056394930091 48.026855468750007 5.4095305638606792 20.702697753906005 21.956260742187506 20.250000000000004 1.5097110679170684 27.166503906250004 0.026097822884677307 5.0780391845703141 59.132983297794652 34.68492263425906 2.7771777282264218 1.727368648100841
decision_type=2 2 2 2 2 2 2 2 2 2 2 2 2 2 2 2 2 2 2 2 2 2 2 2 2 2 2 2 2 2
left_child=-1 2 13 -3 5 7 9 24 -9 -4 -11 12 -12 -2 22 17 -17 -8 -16 -20 -18 -10 -15 29 25 -5 27 28 -14 -24
right_child=1 3 6 4 -6 -7 15 8 21 10 11 -13 26 14 18 16 20 -19 19 -21 -22 -23 23 -25 -26 -27 -28 -29 -30 -31
leaf_value=-0.10647160642475269 -0.10153308632881496 -0.10067858796696685 0.18957683178219609 -0.10969311017197247 -0.10206066023828515 -0.10461345910419624 0.26261549800030587 -0.10547731347507427 -0.11066164260564085 -0.096523894117172104 -0.093522722073945269 -0.10735523837592649 0.096664631943559912 -0.10626821228963315 -0.086655868532153346 -0.10709662535541471 -0.12868005895462312 -0.10434321991612494 0.18772840229147958 -0.10674742050814699 0.20035392022693144 0.19399628922207585 0.18862513273348111 -0.10558488804399398 0.18619001506868818 0.15072404444839116 0.18472292643152499 0.17130312740567144 -0.11810985416672348 -0.072976431415639351
leaf_weight=12077.576622027904 14628.381824120879 3290.2819421291351 2289.0156726911664 122.49176732450724 2592.8545780181885 2137.161113049835 167.75797264277935 1395.8702133968472 58.369765281677246 1775.114741794765 407.18469379469752 497.95391923189163 304.72189876064658 2724.4817711040378 396.67334887385368 670.14856927096844 126.41274603456259 3111.4266796857119 1150.773741401732 181.45734202861786 781.01808761805296 2481.5869750976562 226.12724913284183 418.99645538255572 12309.712210673839 261.84102097153664 2160.1175864040852 1922.0736785680056 356.32231120765209 87.317830599844456
leaf_count=203463 241780 53919 10068 1569 41588 34336 749 22132 887 25661 6296 8249 1545 45434 6170 10648 791 49226 4702 2928 3275 10209 1029 6866 52130 1212 8899 7792 2885 1284
internal_value=0 0.0149124 -0.0275104 0.0740862 0.101007 0.129063 0.0463 0.159093 0.0832676 0.0912963 0.0609917 0.110494 0.131556 -0.0817827 -0.0260702 -0.043683 0.0433846 -0.0855702 0.093868 0.147619 0.154517 0.186995 -0.0860547 -0.0108658 0.182603 0.0677258 0.150878 0.122576 -0.0191051 0.11575
internal_weight=0 59033.6 34383.5 24650.2 21359.9 18767 14569.3 16629.9 3935.83 9712.5 7423.49 5648.37 5150.42 19814.2 5185.83 4856.76 1577.58 3279.18 1728.9 1332.23 907.431 2539.96 3456.92 732.442 12694 384.333 4743.24 2583.12 661.044 313.445
internal_count=867722 664259 446277 217982 164063 122475 136084 88139 33228 71395 61327 35666 27417 310193 68413 64689 14714 49975 13800 7630 4066 11096 54613 9179 54911 2781 21121 12222 4430 2313
is_linear=0
shrinkage=0.1


Tree=7
num_leaves=31
num_cat=0
split_feature=28 22 4 23 18 28 22 12 10 3 12 28 22 17 9 5 37 39 18 12 6 9 24 15 0 15 18 10 39 19
split_gain=13171.3 12654.6 12106.4 9876.59 10234.5 10931 4956.64 2329.42 6453.45 2277.41 4604.88 2155.86 1999.96 3335.74 1893.98 2514.85 1835.37 1565.33 2213.36 1798.31 952.524 538.218 587.346 455.518 441.782 403.137 397.244 393.336 1443.86 643.284
threshold=3.1415926535884986 1.1137152533131729 15.327243408203126 1.1157812601934387 1.584418138882618 3.141592653589135 1.1070990876430584 9.0215146757813027 18.963758585045351 25.932800292968505 24.413994744810868 3.1415926535897212 1.1104413312591543 1.5102669634181096 27.166503906250004 5.0780391845703141 3.7435954951120896 34.68492263425906 1.5134483225193482 16.161230509135141 21.956260742187506 52.751464843750007 1.1077555522491001 0.0069345501211227007 20.250000000000004 -0.0049425555895550493 1.5207463880578145 59.132983297794652 34.68492263425906 2.7771777282264218
decision_type=2 2 2 2 2 2 2 2 2 2 2 2 2 2 2 2 2 2 2 2 2 2 2 2 2 2 2 2 2 2
left_child=-1 2 12 -3 5 7 9 23 -9 -4 21 16 -2 -14 15 -15 -12 19 -19 -8 -20 22 -11 25 -10 -5 -24 28 29 -18
right_child=1 3 6 4 -6 -7 17 8 24 10 11 -13 13 14 -16 -17 27 18 20 -21 -22 -23 26 -25 -26 -27 -28 -29 -30 -31
leaf_value=-0.10575240770418787 -0.10163833013557771 -0.099338022004949109 0.17381854405892422 0.0033547325131569241 -0.10079198230920282 -0.10354361658907828 0.22592380537613954 -0.098082542519596555 -0.10971994121856457 0.65879393145633758 -0.091610443711628242 -0.10663717569834126 -0.10454033692579077 -0.085808914630616212 -0.10528555776675325 0.17000678469880756 0.084359275358467212 -0.10650274137935954 -0.12515574985749814 -0.10340616837109479 0.18023850747275252 -0.10323184348940735 0.27158882501267473 -0.064651122875836811 0.18153201107225184 0.17129317994722837 -0.090560909746312368 0.17002356175170891 0.15533569169703101 -0.11589234985880573
leaf_weight=10998.767196089029 12930.545248501003 3015.3232716023922 2199.514672331512 144.63135282322764 2374.1493831723928 1952.7522709183395 176.0809071958065 1340.8575939163566 53.245380520820618 16.350938443094492 375.73920255154371 453.44653594493866 2768.2635289169848 525.59290206059813 574.60660972073674 1429.3993439488113 313.73119354993105 609.74339243769646 117.48565080761909 2841.4891249239445 781.40285754203796 1558.4759746603668 44.526299338787794 83.768789548426867 2379.2310028076172 12218.595675420016 94.724126059561968 2114.3651179373264 1908.2008547186852 328.26572608947754
leaf_count=203463 234178 53919 9588 1189 41588 34336 764 22445 887 162 6296 8249 50496 8865 10305 6349 1545 10641 792 49211 3281 24722 234 796 9896 52926 1023 8899 7792 2885
internal_value=0 0.0139929 -0.0267959 0.0696679 0.0944697 0.119979 0.0433786 0.146889 0.0780609 0.0847497 0.0575697 0.102216 -0.0804363 -0.0286882 0.0543206 0.101232 0.121006 -0.0426077 0.0405636 -0.0841891 0.140323 -0.0855258 0.0918144 0.167754 0.175157 0.169329 0.025239 0.138132 0.111691 -0.0180333
internal_weight=0 55724.5 32162 23562.6 20547.2 18173.1 13933.5 16220.3 3773.33 9407.34 7207.83 5493.75 18228.4 5297.86 2529.6 1954.99 5040.3 4526.2 1508.63 3017.57 898.889 1714.08 155.601 12447 2432.48 12363.2 139.25 4664.56 2550.2 641.997
internal_count=867722 664259 446277 217982 164063 122475 136084 88139 33228 71395 61807 35666 310193 76015 25519 15214 27417 64689 14714 49975 4073 26141 1419 54911 10783 54115 1257 21121 12222 4430
is_linear=0
shrinkage=0.1


Tree=8
num_leaves=31
num_cat=0
split_feature=28 22 4 23 18 28 22 12 10 3 12 22 17 28 9 6 37 39 18 12 6 42 9 5 4 0 0 10 39 10
split_gain=11766.7 10888.7 10671 8492.11 8762.79 9241.41 4199.57 1873.82 5536.97 1835.37 3922.23 1826.42 2963.19 1815.36 1651.43 2110.29 1525.48 1387.06 1880.33 1533.45 785.054 517.882 473.325 452.205 430.624 381.597 367.392 351.352 1205.75 319.805
threshold=3.1415926535884986 1.1137152533131729 15.327243408203126 1.1156107599059102 1.58634697641838 3.141592653589135 1.1070990876430584 9.0215146757813027 18.867773759137577 25.932800292968505 24.413994744810868 1.1104413312591543 1.5099844472583006 3.1415926535897212 27.166503906250004 4.6246618652343754 3.4165161797221248 34.68492263425906 1.5134483225193482 16.161230509135141 21.956260742187506 0.026097822884677307 53.111816406250007 5.0780391845703141 15.753394165039065 46.000000000000007 20.250000000000004 59.132983297794652 35.257930521284855 17.035355422968863
decision_type=2 2 2 2 2 2 2 2 2 2 2 2 2 2 2 2 2 2 2 2 2 2 2 2 2 2 2 2 2 2
left_child=-1 2 11 -3 5 7 9 21 -9 29 22 -2 -13 16 15 -14 -12 19 -19 -8 -20 23 24 -5 -11 -6 -10 28 -18 -4
right_child=1 3 6 4 25 -7 17 8 26 10 13 12 14 -15 -16 -17 27 18 20 -21 -22 -23 -24 -25 -26 -27 -28 -29 -30 -31
leaf_value=-0.10510424293076155 -0.10050613935185099 -0.10101509599815738 0.018284053224738285 -0.10899158060928027 -0.10454218700349936 -0.10257685753336576 0.20115032113979223 -0.10371495637458178 -0.10933357659013587 -0.041343102005234063 -0.090150309294557557 -0.1043616992523542 -0.083362163337456163 -0.10599299454132141 -0.10457455558248699 0.15730580525694493 -3.8213447902410441e-05 -0.10584585742899495 -0.12211027917498812 -0.10237208533158748 0.16484785097124732 0.15929348481728214 -0.10391003005103545 0.11854813591608959 0.27864277517800046 0.43640299406404987 0.16560636817803365 0.15857495149266823 0.1496820880174633 0.17034727748838227
leaf_weight=10010.335759364069 11825.205927442759 2679.5245586037636 148.54592216014862 131.15412919595838 2148.1835561692715 1798.8438865244389 177.85658693313599 1185.1278406381607 49.616467356681824 127.48856541514397 345.45782997086644 2503.2990048527718 492.73514419794083 412.66126625239849 533.85123160481453 1398.1963059008121 784.12128850445151 554.96769255399704 108.81983363628387 2595.7439494132996 769.47472280263901 11734.957981970161 1397.402451723814 261.45935280621052 62.760786414146423 13.120286315679548 2377.0554351806641 2044.3613438010216 1712.9179761111736 2006.0338898897171
leaf_count=203463 234178 52630 693 1814 41490 34570 764 22447 898 1395 6282 50184 8927 8249 10510 6394 5110 10641 792 49211 3281 52524 24206 1267 540 102 10240 8900 7125 8895
internal_value=0 0.0132213 -0.0261562 0.0660116 0.0887305 0.112144 0.0409083 0.136684 0.0734579 0.0793117 0.0541119 -0.0791912 -0.0280448 0.0954172 0.0507434 0.094593 0.112425 -0.0416316 0.0382465 -0.0829088 0.129294 0.155514 -0.0837634 0.0425376 0.0642161 -0.101258 0.159985 0.127835 0.102667 0.159863
internal_weight=0 52380.9 30001.9 22379 19699.5 17538.2 13248.6 15739.4 3611.8 9041.75 6887.17 16753.3 4928.08 5299.52 2424.78 1890.93 4886.86 4206.86 1433.26 2773.6 878.295 12127.6 1587.65 392.613 190.249 2161.3 2426.67 4541.4 2497.04 2154.58
internal_count=867722 664259 446277 217982 165352 123760 136084 89190 33585 71395 61807 310193 76015 35666 25831 15321 27417 64689 14714 49975 4073 55605 26141 3081 1935 41592 11138 21135 12235 9588
is_linear=0
shrinkage=0.1


Tree=9
num_leaves=31
num_cat=0
split_feature=28 22 4 23 18 28 22 22 17 12 10 9 12 39 9 4 37 39 18 9 6 13 12 24 3 24 10 39 19 6
split_gain=10528.2 9414.3 9428.64 7355.86 7540.13 7851.6 3575.41 1663.82 2638.82 1551.57 4312.37 1509.9 3333.94 1546.22 1447.01 1784.85 1284.62 1231.4 1612.51 1325.93 656.198 516.369 503.4 460.658 441.58 424.777 362.034 1035 547.72 431.374
threshold=3.1415926535884986 1.1137152533131729 15.327243408203126 1.1155258165768025 1.58634697641838 3.141592653589135 1.1070990876430584 1.1104413312591543 1.5097110679170684 8.702917933389811 18.963758585045351 51.587829589844006 24.413994744810868 39.375693369083706 27.166503906250004 4.8590455322265633 3.3371938299945105 34.68492263425906 1.5137056394930091 48.026855468750007 21.956260742187506 -0.0061828632456267995 9.1186504340873409 1.1204780928832239 26.748596191406005 1.1104650921229389 59.132983297794652 34.68492263425906 2.7771777282264218 22.247785156250004
decision_type=2 2 2 2 2 2 2 2 2 2 2 2 2 2 2 2 2 2 2 2 2 2 2 2 2 2 2 2 2 2
left_child=-1 2 7 -3 5 9 11 -2 -9 21 22 -4 24 16 15 -10 -14 19 -19 -8 -20 -5 23 -11 25 -13 27 28 -18 -29
right_child=1 3 6 4 -6 -7 17 8 14 10 -12 12 13 -15 -16 -17 26 18 20 -21 -22 -23 -24 -25 -26 -27 -28 29 -30 -31
leaf_value=-0.10451586902190929 -0.099388628920062172 -0.10133160571659586 0.14869690302496516 -0.035726879978224449 -0.10033442900414911 -0.10158742175683155 0.18508606727500582 -0.10422442111660304 -0.08084818063375597 0.23157640984763639 0.1540756503593011 0.18753273139775195 -0.088485323506382565 -0.098707422378908408 -0.10391998189606502 0.14678172862065705 0.074044784961812646 -0.1050834150438353 -0.11945756407304214 -0.10121759888465742 0.15268238858644601 0.14879031694760958 -0.097635883105248705 -0.12210329890825355 -0.10347010647610894 -0.097589704736918151 0.15182411502174215 0.05211921706599798 -0.11324032270012654 0.16185344477727154
leaf_weight=9106.1312952414155 10814.129014655948 2415.3090953528881 2085.2119797691703 153.71303476020694 1982.0992394462228 1644.2382667288184 173.58852963149548 2262.8068123795092 461.78469096496701 94.932947963476181 2264.4566336870193 110.89152674004436 318.32424682378769 402.6617546081543 494.91482431069016 1355.8221873678267 321.08948403596878 505.67288665473461 100.49666464328766 2373.5576743632555 748.69087274372578 11385.216577962041 1140.8908871486783 60.165735896676779 1267.7349837757647 98.810343980789185 1939.4909686148167 491.12462668865919 303.99283030629158 1323.9576774314046
leaf_count=203463 234178 52030 9567 1298 41762 34601 749 49894 8973 457 10826 900 6273 8463 10703 6445 1546 10648 791 49226 3275 53808 22645 555 24032 1230 8722 2082 2907 5673
internal_value=0 0.0125569 -0.025524 0.0629112 0.0840959 0.105929 0.038748 -0.0780013 -0.0274507 0.128526 0.070818 0.0745477 0.0510429 0.0893581 0.0476726 0.0889496 0.105477 -0.0407349 0.0362908 -0.0817059 0.120476 0.146332 -0.0746565 0.0943773 -0.0812351 0.0531846 0.119575 0.0939424 -0.0170365 0.132162
internal_weight=0 49095.8 27954.8 21141 18725.7 16743.6 12565.3 15389.5 4575.33 15099.4 3560.45 8663.29 6578.08 5100.64 2312.52 1817.61 4697.98 3902.01 1354.86 2547.15 849.188 11538.9 1295.99 155.099 1477.44 209.702 4379.66 2440.16 625.082 1815.08
internal_count=867722 664259 446277 217982 165952 124190 136084 310193 76015 89589 34483 71395 61828 35666 26121 15418 27203 64689 14714 49975 4066 55106 23657 1012 26162 2130 20930 12208 4453 7755
is_linear=0
shrinkage=0.1


Tree=10
num_leaves=31
num_cat=0
split_feature=28 22 4 23 18 28 22 22 17 17 9 10 39 0 6 18 39 18 3 9 11 4 6 3 12 24 42 2 35 0
split_gain=9432.04 8168.53 8343.91 6392.11 6497.04 6712.41 3066.53 1512.59 2355.1 1323.6 1255.59 1512.87 1250.97 1843.13 1640.14 1455.3 1094.69 1392.08 1157.13 978.669 3652.56 630.771 553.295 475.242 561.225 381.353 370.762 354.396 341.154 336.091
threshold=3.1415926535884986 1.1137152533131729 15.327243408203126 1.1155258165768025 1.58634697641838 3.141592653589135 1.1070990876430584 1.1104413312591543 1.5097110679170684 1.5094145726091837 27.166503906250004 5.4095305638606792 24.204120501904203 16.750000000000004 22.247785156250004 1.5226492629795829 34.68492263425906 1.5134483225193482 24.866760253906005 27.166503906250004 18.513154940053532 2.760888549804688 21.956260742187506 26.348205566406005 24.413994744810868 1.1112794993120094 0.026097822884677307 8.5833740234375018 0.099882175601290812 20.250000000000004
decision_type=2 2 2 2 2 2 2 2 2 2 2 2 2 2 2 2 2 2 2 2 2 2 2 2 2 2 2 2 2 2
left_child=-1 2 7 -3 5 9 12 -2 -9 21 11 28 15 14 23 -4 18 -18 -8 26 -21 -5 -19 25 -25 -14 27 -11 -10 -22
right_child=1 3 6 4 -6 -7 16 8 10 19 -12 -13 13 -15 -16 -17 17 22 -20 20 29 -23 -24 24 -26 -27 -28 -29 -30 -31
leaf_value=-0.10398063043095195 -0.098274136670820911 -0.1004340763845675 0.12142018962203914 0.14071927034132856 -0.099288689324696283 -0.10061761679073816 0.16424677396534115 -0.10362898712538882 -0.10431245021862 -0.10898428632294453 -0.10329384165699451 0.13790835625880679 0.15384768734529686 -0.099747837764004255 0.14910270299483205 -0.092937043329552813 -0.10473409596249161 -0.11711423791721645 -0.10078305877938719 -0.10294039630988823 -0.10946542552668613 -0.10488972024616948 0.14236679281544254 -0.096342978736289081 0.044742290617693872 -0.10193203414626043 0.14481347568936329 0.10820987884616813 0.22437444756205227 0.15014735394891254
leaf_weight=8279.8239901550114 9890.4210262261331 2204.0089659392834 4239.553105365485 145.63636362552643 1811.4162692576647 1501.3853620737791 178.34355031698942 2058.6384479925036 397.10009182989597 109.51305035129189 450.39429904893041 1301.5697947181761 269.2986401617527 873.52419175207615 1294.4891775846481 342.2930804900825 459.02209170907736 92.697002820670605 2159.2742132022977 820.8628933057189 51.047013178467751 370.77208949998021 724.03362725675106 654.18240438774228 495.51772437244654 74.39240812137723 10505.860290877521 239.25842640548944 34.306191205978394 2155.5477905273438
leaf_count=203463 234178 52030 21998 710 41762 34601 863 49894 8807 1521 10703 6445 1316 20098 5905 6995 10641 792 49112 17924 898 5864 3281 12300 2125 658 51213 1194 166 10265
internal_value=0 0.0119776 -0.0249493 0.0601665 0.0801518 0.100595 0.0369118 -0.0768486 -0.0268942 0.121576 0.0454569 0.0841167 0.0705824 0.027004 0.066719 0.105406 -0.0399015 0.0346046 -0.0805632 0.127424 0.0771479 -0.0356236 0.112916 -0.00469219 -0.0355356 0.0984838 0.141446 0.0400117 -0.0781747 0.144142
internal_weight=0 45904.4 25989.1 19915.3 17711.3 15899.9 11856.6 14132.4 4242.01 14398.5 2183.37 1732.98 8243.25 3661.4 2787.88 4581.85 3613.37 1275.75 2337.62 13882.1 3027.46 516.408 816.731 1493.39 1149.7 343.691 10854.6 348.771 431.406 2206.59
internal_count=867722 664259 446277 217982 165952 124190 136084 310193 76015 89589 26121 15418 71395 42402 22304 28993 64689 14714 49975 83015 29087 6574 4073 16399 14425 1974 53928 2715 8973 11163
is_linear=0
shrinkage=0.1


Tree=11
num_leaves=31
num_cat=0
split_feature=28 22 4 23 18 28 22 22 17 17 3 12 39 9 6 39 18 12 38 9 11 10 6 10 39 19 3 6 42 0
split_gain=8457.46 7127.93 7385.77 5588.63 5641.94 5793.62 2612.21 1368.7 2103.96 1128.94 1121.32 2436.65 1130.94 1098.31 1305.08 973.796 1208.03 1016.89 917.094 810.237 3161.06 553.318 470.507 394.316 950.781 439.781 362.23 354.424 323.953 319.264
threshold=3.1415926535884986 1.1137152533131729 15.327243408203126 1.1155258165768025 1.58634697641838 3.141592653589135 1.1070990876430584 1.1104413312591543 1.5097110679170684 1.5094145726091837 25.932800292968505 24.413994744810868 39.375693369083706 26.605957031250004 4.6246618652343754 34.68492263425906 1.5137056394930091 16.161230509135141 3.1238050791308685 27.166503906250004 18.513154940053532 3.0956975441323826 21.956260742187506 59.132983297794652 34.68492263425906 2.7771777282264218 26.748596191406005 22.247785156250004 0.026097822884677307 46.000000000000007
decision_type=2 2 2 2 2 2 2 2 2 2 2 2 2 2 2 2 2 2 2 2 2 2 2 2 2 2 2 2 2 2
left_child=-1 2 7 -3 5 9 10 -2 -9 21 -4 26 18 14 -10 17 -17 -8 -13 28 -21 -5 -18 24 25 -20 -12 -26 -11 -28
right_child=1 3 6 4 -6 -7 15 8 13 19 11 12 -14 -15 -16 16 22 -19 23 20 -22 -23 -24 -25 27 -27 29 -29 -30 -31
leaf_value=-0.10349197318618482 -0.097152476051537817 -0.099550624576979316 0.13237736549711224 0.13538991576780851 -0.098248166188426717 -0.099660869404696761 0.15756063441951315 -0.10307589463021641 -0.077002272133050415 0.037597669034987062 0.043877050664786379 -0.084798637518828615 -0.096990571221718627 -0.10045973907968353 0.13149797836247987 -0.10405554033566966 -0.11505397505412217 -0.099444273810864625 0.052141881063416468 -0.10194644660885191 0.13743183471406969 -0.10257072084859807 0.13385419142602498 0.13960030538692711 0.043531709181122646 -0.11383826515652125 -0.10374750445318873 0.14508884107958139 0.13780007248757695 1.4227021645797673
leaf_weight=7525.4569636359811 9047.3757748231292 2011.0763100385666 1939.9477768205106 136.6925955824554 1655.5241661369801 1370.8957530483603 166.94601121544838 1872.2209737226367 396.82740983739495 333.44171082600951 203.48339715600014 275.43105800822377 342.24189949035645 420.93328466266394 1233.0243417136371 417.99084896594286 85.265958018600941 1978.2485021054745 334.70326417684555 749.62418632954359 2088.7927306890488 342.69012511894107 694.55575977265835 1749.8854953944683 480.61446454003453 305.19230314716697 1059.9931802079082 1205.7471387200058 9964.548240210861 1.3719766959547985
leaf_count=203463 234178 52030 9588 710 41762 34601 764 49894 8973 2715 2109 6275 8463 10779 6369 10648 791 49211 1544 17924 11163 5864 3275 8722 2082 2907 24011 5673 51213 21
internal_value=0 0.0114493 -0.0243431 0.0579079 0.0769355 0.0962874 0.0349828 -0.0757618 -0.0264298 0.116016 0.0663433 0.0448447 0.0780401 0.0435427 0.0807335 -0.0391135 0.0331143 -0.0794433 0.0918059 0.121517 0.0742122 -0.0347179 0.106638 0.103739 0.0767636 -0.0270208 -0.0783426 0.116145 0.134556 -0.101774
internal_weight=0 42865.3 24212 18653.3 16642.2 14986.7 11241.6 12970.4 3923.01 13615.8 7898.61 5958.66 4693.82 2050.79 1629.85 3343.01 1197.81 2145.19 4351.57 13136.4 2838.42 479.383 779.822 4076.14 2326.26 639.896 1264.85 1686.36 10298 1061.37
internal_count=867722 664259 446277 217982 165952 124190 136084 310193 76015 89589 71395 61807 35666 26121 15342 64689 14714 49975 27203 83015 29087 6574 4066 20928 12206 4451 26141 7755 53928 24032
is_linear=0
shrinkage=0.1


Tree=12
num_leaves=31
num_cat=0
split_feature=28 22 10 23 18 28 22 22 17 10 9 12 28 1 12 10 39 18 12 37 9 24 6 15 11 39 6 0 23 9
split_gain=7591.41 6225.53 6577.76 4908.18 4855.49 5066.34 2318.86 1207.02 1984.01 1417.29 1148.3 1835.25 989.26 922.434 917.254 2780.62 871.812 1052.47 915.958 786.514 610.915 448.911 401.821 378.311 356.805 895.799 471.223 337.353 336.204 478.689
threshold=3.1415926535884986 1.1137152533131729 17.035355422968863 1.1161248221722804 1.58634697641838 3.141592653589135 1.1070990876430584 1.1098549898851588 1.5190935325570594 2.8916075729725228 51.189941406250007 24.413994744810868 3.1415926535897212 10.3425903320315 8.702917933389811 18.963758585045351 34.68492263425906 1.5134483225193482 16.372732715283885 1.3519711307563196 53.111816406250007 1.110563025729739 21.956260742187506 0.0075694939798351011 58.760307168095039 34.68492263425906 53.199206665039078 46.000000000000007 1.1152746850735107 26.605957031250004
decision_type=2 2 2 2 2 2 2 2 2 2 2 2 2 2 2 2 2 2 2 2 2 2 2 2 2 2 2 2 2 2
left_child=-1 2 7 -3 5 14 10 -2 28 -10 -4 20 19 -11 23 -16 18 -18 -8 -13 21 -12 -19 -5 25 26 -21 -6 -9 -30
right_child=1 3 6 4 27 -7 16 8 9 13 11 12 -14 -15 15 -17 17 22 -20 24 -22 -23 -24 -25 -26 -27 -28 -29 29 -31
leaf_value=-0.10304350965740193 -0.097601940467610421 -0.08441787983486225 0.1396369073804952 0.12978693337062058 -0.10177265822068815 -0.098717445377342769 0.15716093601421077 -0.10248550116950056 -0.1039984199766678 0.14250503552519456 0.15816708732028237 -0.094804056753962543 -0.10475342754607737 -0.10503378888400555 -0.073313240497930449 0.13364128708151204 -0.10384216142502985 -0.11321363756295177 -0.098757534961064153 -0.083868761793191401 -0.10034021954612869 -0.092248905010904325 0.12619209456797212 -0.099442515033247983 0.13195316719648814 0.11010454667105947 0.11386734494246331 0.3850314278302655 0.10042929573710067 -0.09812494364658865
leaf_weight=6837.4416302256286 7758.3088413514197 2184.5134269595146 1610.4795410148799 9587.5694108866155 1454.6002877503633 1238.8249599486589 151.64538295567036 2155.0453781969845 424.43519170954823 1068.5624250806868 186.96868201717734 225.48780170455575 288.24824441969395 175.22454848885536 978.45812698081136 1929.4014555215836 378.95413603633642 78.373257227241993 1798.4903268069029 453.9396758787334 972.25876892730594 116.00311098247766 664.71742179989815 72.540772035717964 1688.7667959630489 1622.6350946128368 164.08151626586914 14.376298636198042 216.46453746035695 276.54127377271652
leaf_count=203463 217293 56826 8347 52487 40361 34267 749 62514 11674 6378 1116 5706 8249 4565 22562 10730 10641 792 49055 4111 24077 1271 3281 647 9047 7793 760 102 1363 7495
internal_value=0 0.0109899 -0.0238099 0.0557856 0.0758354 0.0942252 0.0344783 -0.0740193 -0.0316307 0.0537881 0.0650488 0.0440425 0.0743925 0.107632 0.113244 0.0640037 -0.0384496 0.0317793 -0.0788569 0.0868208 -0.061703 0.0622868 0.100942 0.128066 0.0972432 0.0710826 -0.0313708 -0.0970085 -0.0854429 -0.0109455
internal_weight=0 39935.9 22475.6 17460.3 15275.8 13806.8 10401 12074.6 4316.27 1668.22 7328.87 5718.39 4443.16 1243.79 12568 2907.86 3072.18 1122.04 1950.14 4154.91 1275.23 302.972 743.091 9660.11 3929.42 2240.66 618.021 1468.98 2648.05 493.006
internal_count=867722 664259 446277 217982 161156 120693 134995 311282 93989 22617 70477 62130 35666 10943 86426 33292 64518 14714 49804 27417 26464 2387 4073 53134 21711 12664 4871 40463 71372 8858
is_linear=0
shrinkage=0.1


Tree=13
num_leaves=31
num_cat=0
split_feature=28 22 4 23 18 28 38 39 33 22 17 18 18 17 6 19 16 9 11 24 1 0 0 15 0 15 37 19 0 6
split_gain=6818.87 5437.41 5838.13 4368.17 4300.93 4331.25 1977.27 1689.01 1869.66 1140.65 1775.25 1051.68 950.006 940.835 697.361 673.114 629.1 624.838 2438.73 552.242 448.337 350.844 326.253 325.273 317.159 305.641 300.829 1473.4 299.558 264.071
threshold=3.1415926535884986 1.1137152533131729 15.327243408203126 1.1154416168668029 1.584418138882618 3.141592653589135 3.1238050791308685 23.90039059433558 -36.198861083984276 1.1098549898851588 1.5097110679170684 1.5137056394930091 1.5226492629795829 1.5094145726091837 22.247785156250004 3.1915748374029098 1.4903568548597896 27.166503906250004 18.412024121753159 1.1107513345902407 4.8497314453125009 6.5000000000000009 20.250000000000004 -0.0041267051413936993 46.000000000000007 0.0062090396312489511 24.383992415679089 2.7771777282264218 46.000000000000007 21.956260742187506
decision_type=2 2 2 2 2 2 2 2 2 2 2 2 2 2 2 2 2 2 2 2 2 2 2 2 2 2 2 2 2 2
left_child=28 2 9 -3 5 13 24 26 11 -2 -11 -9 21 20 -13 -14 19 23 -19 -10 -5 -12 -20 -15 -4 -25 27 -8 -1 -21
right_child=1 3 6 4 -6 -7 7 8 16 10 12 14 15 17 -16 -17 -18 18 22 29 -22 -23 -24 25 -26 -27 -28 -29 -30 -31
leaf_value=-0.10322321648370957 -0.098237040552017665 -0.099270550517918832 -0.1030927456091741 0.12722091535060484 -0.094376652853452217 -0.09770557569072319 0.11526166106909726 -0.092380028851970608 0.12206638335739171 -0.10232823488073871 0.12882640431673933 0.011421937589683483 -0.076570476183675504 -0.0054144327720791604 0.13423752326991273 0.080566281789663519 -0.092512324245281427 -0.10387984231034138 -0.11041236948366878 -0.089386330534710387 -0.10064869956240369 -0.10800338992783975 0.13171310917244461 0.12848716249631684 0.2945758673856731 -0.046194897500117349 0.13124305281089205 -0.077422912519703235 0.70929563093047088 0.055222437218213974
leaf_weight=6205.9486508648843 6937.825742835179 1675.2924180626869 1058.5016549006104 118.93213442340493 1417.8936971649528 1137.6811219267547 1876.9315476380289 345.15674316510558 305.71277171745896 1862.9310767874122 815.75296284258366 673.85033169947565 832.07286842912436 190.82401229441166 1472.8497013617307 405.43284696340561 1534.3032035082579 623.88243511691689 57.405410125851631 400.43428508192301 315.11684455350041 67.746868133544922 1821.0292358398438 8900.6804517284036 20.442889213562012 101.3047273978591 1539.9558606594801 503.25841118767858 4.5407934784889212 184.44438253343105
leaf_count=203349 216198 51475 32101 710 42286 34483 10383 9940 2473 59801 5667 4900 22303 1397 7731 4307 41652 17715 910 7998 6091 1917 10436 51554 206 925 8516 7913 114 2271
internal_value=0 0.0105642 -0.0233129 0.0537132 0.0711662 0.0888585 0.0322384 0.0478418 0.00880463 -0.0737478 -0.0311011 0.0696359 0.0314594 0.106358 0.0956856 -0.0250892 -0.0537065 0.111723 0.0674201 0.0131479 -0.038211 0.110666 0.124314 0.123783 -0.0955581 0.126521 0.0968033 0.0745212 -0.102629 -0.0437832
internal_weight=0 37197.6 20837.6 16360 14684.8 13266.9 9915.84 8836.9 4916.75 10921.8 3983.94 2491.86 2121.01 12129.2 2146.7 1237.51 2424.89 11695.1 2502.32 890.591 434.049 883.5 1878.43 9192.81 1078.94 9001.99 3920.15 2380.19 6210.49 584.879
internal_count=867722 664259 446277 217982 166507 124221 136084 103777 76965 310193 93995 22571 34194 89738 12631 26610 54394 82937 29061 12742 6801 7584 11346 53876 32307 52479 26812 18296 203463 10269
is_linear=0
shrinkage=0.1


Tree=14
num_leaves=31
num_cat=0
split_feature=28 22 10 23 18 28 9 11 39 18 37 22 17 9 6 17 9 24 12 9 11 6 1 42 5 0 35 0 12 0
split_gain=6130.09 4768.85 5180.41 3845.58 3773.21 3795.45 1789.36 1567.89 2391.26 1226.3 1085.11 1010.12 1596.18 844.944 1446.9 820.777 579.375 606.338 518.478 508.116 2128.17 501.07 437.645 357.029 528.356 284.257 280.647 266.622 213.433 214.591
threshold=3.1415926535884986 1.1137152533131729 17.035355422968863 1.1154416168668029 1.58634697641838 3.141592653589135 49.548339843750007 58.760307168095039 35.257930521284855 1.5137056394930091 37.674585942887546 1.1098549898851588 1.5094145726091837 27.166503906250004 4.6246618652343754 1.5099844472583006 52.391113281250007 1.11093718992868 24.413994744810868 27.166503906250004 18.412024121753159 53.199206665039078 4.8497314453125009 0.032125434596004553 5.0780391845703141 20.250000000000004 0.10142239554712947 46.000000000000007 24.738186265848089 16.750000000000004
decision_type=2 2 2 2 2 2 2 2 2 2 2 2 2 2 2 2 2 2 2 2 2 2 2 2 2 2 2 2 2 2
left_child=-1 2 11 -3 5 15 -4 8 16 -10 -9 -2 -13 14 26 22 17 -8 -11 23 -21 -18 -5 24 -17 -22 -14 -6 -20 -30
right_child=1 3 6 4 27 -7 7 10 9 18 -12 12 13 -15 -16 19 21 -19 28 20 25 -23 -24 -25 -26 -27 -28 -29 29 -31
leaf_value=-0.10225349173114005 -0.095533046289010104 -0.098507960887610102 0.13656189131135635 0.1240644593178178 -0.10064563866776062 -0.096790017419570995 0.11616651485329428 0.1291058676440564 -0.10289844645873535 -0.11099686472747959 -0.10432767490029743 -0.10241678917487668 -0.10309101981599943 -0.10164972615040391 0.12233267960211661 -0.11479376306911503 -0.087160814266722314 -0.091239620307861702 0.053757142139328667 -0.1033172772372648 -0.10973809763646554 0.09047705026090358 -0.089087740841363006 0.12502304116534249 0.096815788245498899 0.12726403240734696 0.18826659555691319 0.29680004067716115 0.13405484002546969 -0.24079121218020047
leaf_weight=5640.5784882344306 6493.3791121207178 1527.0124413371086 1383.4677519090474 135.58799502812326 1254.3871353380382 1045.5721100624651 343.06554666161537 1481.9738736748695 358.02423138916492 112.23800031840801 230.04654258489609 1679.3152734097093 459.49828102998435 397.54673620685935 1150.060779184103 151.97348396852612 2969.0276524722576 239.25067792832851 496.6140923500061 560.87766270525753 52.145715713500977 167.76405477523804 332.64963949099183 7921.6062588673085 527.70771738886833 1714.4127960205078 35.623363465070724 17.108957767486572 1398.6210545059294 15.440957332029937
leaf_count=203463 217293 51475 8100 872 41807 34635 2076 8940 11696 1911 7419 59398 13736 13458 7225 1813 78460 5355 2421 17515 898 768 6559 48690 3149 10467 172 102 7779 70
internal_value=0 0.0101604 -0.0227116 0.0520261 0.0687876 0.0855554 0.0317385 0.0131749 -0.0105587 0.0676927 0.0977391 -0.0717255 -0.0301915 0.0291845 0.0607997 0.102284 -0.0606545 0.0309515 0.0978847 0.107839 0.0663874 -0.0776603 -0.0273651 0.119055 0.0495009 0.120268 -0.0821282 -0.0952977 0.110155 0.129962
internal_weight=0 34652 19411 15241 13714 12442.5 9195.53 7812.07 6100.05 2380.94 1712.02 10215.4 3722.04 2042.73 1645.18 11397 3719.11 582.316 2022.91 10928.7 2327.44 3136.79 468.238 8601.29 679.681 1766.56 495.122 1271.5 1910.68 1414.06
internal_count=867722 664259 446277 217982 166507 124598 134995 126895 110536 23877 16359 311282 93989 34591 21133 89963 86659 7431 12181 82532 28880 79228 7431 53652 4962 11365 13908 41909 10270 7849
is_linear=0
shrinkage=0.1


Tree=15
num_leaves=31
num_cat=0
split_feature=28 22 4 23 18 28 38 39 18 12 22 17 10 17 1 9 4 2 14 42 32 3 6 20 38 6 23 9 0 0
split_gain=5513.34 4190.14 4620.84 3396.5 3326.74 3337.35 1547.47 1263.15 1475.12 1669.94 961.403 1451.19 1069.25 743.783 579.367 425.884 1770.23 401.437 338.867 330.538 468.045 309.444 556.332 270.598 1200.98 380.218 268.096 334.178 252.94 247.944
threshold=3.1415926535884986 1.1137152533131729 15.327243408203126 1.115356441230374 1.5886402741368608 3.141592653589135 3.1238050791308685 23.90039059433558 1.5126605540248967 24.738186265848089 1.1098549898851588 1.5197493371544613 2.8916075729725228 1.5102669634181096 10.3425903320315 26.605957031250004 16.805295410156255 5.0474243164062509 0.0043694288682519511 0.032125434596004553 7.3671225585937501 26.348205566406005 21.956260742187506 2.7780484104809227 23.883521552309293 53.199206665039078 1.1151943947612557 26.605957031250004 46.000000000000007 20.250000000000004
decision_type=2 2 2 2 2 2 2 2 2 2 2 2 2 2 2 2 2 2 2 2 2 2 2 2 2 2 2 2 2 2
left_child=-1 2 10 -3 5 13 28 23 -9 18 -2 26 -13 17 -14 19 -17 -5 -10 20 -15 -20 -23 -8 25 -25 -12 -28 -4 -18
right_child=1 3 6 4 -6 -7 7 8 9 -11 11 12 14 15 -16 16 29 -19 21 -21 -22 22 -24 24 -26 -27 27 -29 -30 -31
leaf_value=-0.10189339000195936 -0.096490246085685294 -0.09887055648091872 -0.10238981350131336 0.12128319626074452 -0.095391555355823457 -0.095858160877260679 0.12404877475102222 -0.094473930797889377 -0.080897386985359879 0.12622411561083743 -0.10117695956046069 -0.10320790187985496 0.12887552039155473 -0.11294905711843756 -0.10403763000082311 -0.090388166198623457 -0.10896643979781134 -0.080934381255843485 0.10190280848982816 0.12112606541368576 0.091950063252975778 -0.091839983942552217 0.052638817819795361 -0.084246609042104292 0.11899115600118465 0.083519207652097943 0.07872234233305897 -0.096006826747951843 0.22590654327705104 0.12381360004060293
leaf_weight=5120.9249771386385 5788.8029995057732 1374.5895433574915 885.96945802308619 137.62125657498837 1154.0892241429538 961.28638443164527 1345.8558759372681 1059.5590784661472 597.26111209765077 1358.6703955978155 1630.448797127232 340.46077161468565 903.50795178301632 143.23561714589596 121.11494108662009 547.57407057657838 47.10438871383667 342.45645368471742 286.01144366711378 7356.8100088499486 502.89068345725536 502.37461701780558 567.68154004216194 518.43760435655713 1443.7623082399368 182.69653511047363 208.20862434990704 230.78400427103043 24.107029318809509 1600.1782608032227
leaf_count=203463 216198 50904 32101 957 41732 34800 8764 36391 13894 8046 62220 11665 6296 1993 4139 17827 883 7034 2105 48345 3146 13661 2868 8208 8980 860 1470 8205 206 10361
internal_value=0 0.00982258 -0.0222032 0.0505011 0.0665506 0.0826081 0.0297558 0.0440453 0.00822791 0.0410838 -0.0716218 -0.0297068 0.0503275 0.0986747 0.101344 0.104401 0.0653787 -0.0229658 -0.018137 0.115103 0.0465273 0.00950497 -0.0151917 0.0889003 0.0668457 -0.0405314 -0.0825005 -0.013135 -0.0936936 0.117157
internal_weight=0 32163.6 17995.7 14167.8 12793.2 11639.2 8772.39 7862.31 4371.56 3312 9223.33 3434.53 1365.08 10677.9 1024.62 10197.8 2194.86 480.078 1953.33 8002.94 646.126 1356.07 1070.06 3490.75 2144.9 701.134 2069.44 438.993 910.076 1647.28
internal_count=867722 664259 446277 217982 167078 125346 136084 103777 76965 40574 310193 93995 22100 90546 10435 82555 29071 7991 32528 53484 5139 18634 16529 26812 18048 9068 71895 9675 32307 11244
is_linear=0
shrinkage=0.1


Tree=16
num_leaves=31
num_cat=0
split_feature=28 15 23 28 10 18 10 22 23 9 12 36 16 22 9 12 10 12 39 9 28 24 24 13 11 39 6 19 0 12
split_gain=4960.23 3735.95 3273.58 2886.78 2560.82 2163.75 2353 1441.84 1088.49 963.8 1196.14 826.645 729.23 799.554 1013.94 675.906 1795.08 663.872 662.681 592.919 531.693 411.652 333.344 273.404 249.489 790.561 301.123 272.574 245.129 224.779
threshold=3.1415926535884986 -0.0028176131399473997 1.1166482895708811 3.141592653589135 17.035355422968863 1.5944794952199326 2.8916075729725228 1.1089068714046655 1.113979627740334 50.749511718750007 24.413994744810868 4.3508323263043502 1.4921028551588853 1.1160939346910934 27.764587402344002 8.702917933389811 18.963758585045351 5.1374396124823063 6.6760841201242362 53.111816406250007 3.1415926535897212 1.11093718992868 1.1147077850405915 -0.0063483097526093992 58.760307168095039 34.68492263425906 22.247785156250004 2.7771777282264218 20.250000000000004 9.1186504340873409
decision_type=2 2 2 2 2 2 2 2 2 2 2 2 2 2 2 2 2 2 2 2 2 2 2 2 2 2 2 2 2 2
left_child=-1 11 4 5 8 6 -4 9 -3 -6 19 -2 -10 14 17 23 29 -14 -12 21 24 -11 -9 -8 25 27 -27 -20 -18 -17
right_child=1 2 3 -5 7 -7 15 22 12 10 18 -13 13 -15 -16 16 28 -19 20 -21 -22 -23 -24 -25 -26 26 -28 -29 -30 -31
leaf_value=-0.10155574067773231 -0.087035833759672318 -0.088908518134178258 -0.10428021042878377 -0.09460681926195455 0.1261956677926197 -0.09725591403594018 -0.063038594614614668 -0.094373914654440269 -0.095340892666703175 0.11569313523248703 -0.073246825325481768 0.10254954879091197 -0.10259235368874238 -0.11124858256537613 -0.10184933876121781 0.076330371188279234 -0.10650459927299707 0.14768557732354526 0.029777903702553267 -0.099247888433021444 -0.10495872603255652 -0.097704319488699121 0.038412538821797931 0.11900683545162938 0.11888105370521423 0.036514173710938229 0.12496939640819071 -0.10714916024061301 0.12557653552108647 -0.091793174733374144
leaf_weight=4648.2380260527134 4087.5079546421766 3922.9362018741667 587.05162803642452 1059.3601938188076 1274.2293438911438 657.69260607473552 83.46314268745482 1007.2960180770606 586.77906465530396 276.27344919927418 354.61665875650942 243.7023937702179 120.6984740216285 300.02849352173507 268.73854270577431 90.357066953554749 47.013577282428741 869.33495506644249 283.57091462798417 895.66128189116716 165.18414136767387 134.35879771225154 232.7344082929194 7136.1142354607582 1061.848112821579 586.47050279378891 1119.4867411404848 298.32400566712022 1423.8828430175781 663.30023343861103
leaf_count=203463 151599 152534 22654 41140 8532 26297 1158 37659 22459 1698 12255 1954 5008 7921 10985 789 1237 6802 1386 30150 6765 2443 3343 51173 7513 2856 7205 6137 9938 22669
internal_value=0 0.00950101 0.0240822 0.0628511 -0.00902203 0.0784565 0.0899771 0.0293027 -0.0575873 0.0482885 0.0291085 -0.0763685 -0.000320255 0.0354484 0.0704136 0.102052 0.0538578 0.117173 0.0570401 -0.0536304 0.0701847 0.0458695 -0.069452 0.116902 0.0788216 0.060229 0.0945604 -0.0404214 0.118159 -0.0716366
internal_weight=0 29838 25506.8 11748.2 13758.6 10688.9 10031.2 7690.05 6068.52 6450.02 5175.79 4331.21 2145.58 1558.8 1258.77 9444.13 2224.55 990.033 3869.5 1306.29 3514.88 410.632 1240.03 7219.58 3349.7 2287.85 1705.96 581.895 1470.9 753.657
internal_count=867722 664259 510706 177055 333651 135915 109618 127942 205709 86940 78408 153553 53175 30716 22795 86964 34633 11810 44117 34291 31862 4141 41002 52331 25097 17584 10061 7523 11175 23458
is_linear=0
shrinkage=0.1


Tree=17
num_leaves=31
num_cat=0
split_feature=28 22 4 23 18 28 38 22 22 17 5 17 5 12 6 9 39 15 11 24 10 20 18 12 6 15 16 0 23 12
split_gain=4465.69 3286.39 3690.07 2696.52 2596.82 2582.78 1219.29 1006.04 813.628 1251.75 1098.11 628.084 623.684 610.007 1331.12 634.268 582.862 351.916 462.388 347.067 331.247 330.22 816.163 321.687 319.433 299.34 265.73 239.593 235.001 255.835
threshold=3.1415926535884986 1.1137152533131729 15.327243408203126 1.1152746850735107 1.5886402741368608 3.141592653589135 3.1238050791308685 1.1109252274584436 1.1094699011262656 1.5197493371544613 5.0780391845703141 1.5105253997255093 5.8678847656250008 16.161230509135141 21.956260742187506 52.751464843750007 39.375693369083706 0.0046133710584757006 18.617238394484787 1.1113601249223939 3.0596710275554706 2.7780484104809227 1.5137056394930091 24.738186265848089 53.199206665039078 -0.0041267051413936993 1.5084608981190069 46.000000000000007 1.1151943947612557 9.0215146757813027
decision_type=2 2 2 2 2 2 2 2 2 2 2 2 2 2 2 2 2 2 2 2 2 2 2 2 2 2 2 2 2 2
left_child=-1 2 8 -3 5 11 -4 13 -2 28 -11 20 -12 -8 15 19 21 25 26 -15 -5 -16 24 -24 -23 -13 -19 -6 -10 -30
right_child=1 3 6 4 27 -7 7 -9 9 10 12 17 -14 14 16 -17 -18 18 -20 -21 -22 22 23 -25 -26 -27 -28 -29 29 -31
leaf_value=-0.10123594706901073 -0.096977308046801644 -0.098751717899196512 -0.091723762831166122 0.11709082419347575 -0.10014682822397625 -0.093846341724098004 0.11437510868308731 -0.1000758932484936 -0.10051262714052184 -0.087042785764894451 0.14191793060498473 -0.017602531727896359 -0.10351680240806958 0.091807410082584417 0.12015517575285169 -0.097321273210676712 -0.091615443012850101 0.072187837028097598 0.10807218369209835 -0.096232026410552882 -0.072385314825754249 -0.082698664724809967 0.032860559627130442 0.12163476057192164 0.073431471208899451 0.10898898961635289 -0.082411605015740921 0.26516942247265046 0.064538402328300312 -0.096670328471339717
leaf_weight=4218.5116054452956 4575.4730341527611 1136.5107903778553 770.18404470384121 126.99838327243924 952.46813314594328 805.46280904859304 1235.2437123171985 471.92146507836878 1526.62956985645 428.30817590467632 756.4375841319561 191.46356851235032 119.95501316897571 374.29388850554824 1167.0088299568743 900.06701203808188 219.04055976867676 172.80705982446671 526.81420069932938 133.04600097984076 337.37083025090396 476.72100199572742 628.87160377204418 1163.1897896938026 180.71589851379395 7654.1641559042037 311.75279000774026 18.297852277755737 202.34002679027617 191.71617059037089
leaf_count=203463 204232 50315 32307 1029 41792 34816 8573 19574 69490 16366 5346 2050 4890 2247 8820 32226 8755 2407 4377 2428 7584 9100 3277 7914 863 65577 7933 102 1858 8011
internal_value=0 0.00919458 -0.0213554 0.0479527 0.0629768 0.0779539 0.0276573 0.0408867 -0.069862 -0.0313967 0.0441891 0.0927992 0.108324 0.0511555 0.0362609 -0.0469203 0.0667832 0.0987429 0.0432248 0.0424955 -0.0205663 0.0763769 0.0555197 0.090482 -0.0397817 0.1059 -0.0272773 -0.093261 -0.0827413 -0.0138928
internal_weight=0 27755.3 15521.2 12234.1 11097.6 10126.8 7720.3 6950.12 7800.86 3225.39 1304.7 9321.37 876.393 6478.2 5242.95 1407.41 3835.55 8857 1011.37 507.34 464.369 3616.51 2449.5 1792.06 657.437 7845.63 484.56 970.766 1920.69 394.056
internal_count=867722 664259 446277 217982 167667 125773 136084 103777 310193 105961 26602 90957 10236 84203 75630 36901 38729 82344 14717 4675 8613 29974 21154 11191 9963 67627 10340 41894 79359 9869
is_linear=0
shrinkage=0.1


Tree=18
num_leaves=31
num_cat=0
split_feature=28 14 23 18 28 10 21 9 6 5 23 10 37 39 6 9 22 22 12 18 16 39 17 22 18 11 0 12 0 6
split_gain=4018.81 2954.32 2551.73 1538.47 1705.14 1505.68 1369.32 1091.47 1076.38 1013.56 1004.22 968.659 958.751 755.161 752.216 1219.16 875.914 580.732 477.008 476.41 456.005 416.253 302.297 358.899 474.361 239.779 552.341 291.596 226.446 224.062
threshold=3.1415926535884986 -0.00080457892069334992 1.1175192980128148 1.5886402741368608 3.141592653589135 17.035355422968863 3.0057386537971222 49.548339843750007 21.956260742187506 7.5881981201171946 1.1139168392568426 2.8916075729725228 1.3519711307563196 13.262170266786198 4.6246618652343754 27.166503906250004 1.1165909690365947 1.1110298925882065 17.194580006397292 1.5228795749832098 1.4901712850101989 39.375693369083706 1.5208341857383194 1.1078955562955799 1.526175413309528 58.760307168095039 16.750000000000004 24.738186265848089 46.000000000000007 7.776917236328126
decision_type=2 2 2 2 2 2 2 2 2 2 2 2 2 2 2 2 2 2 2 2 2 2 2 2 2 2 2 2 2 2
left_child=28 6 5 4 11 10 9 -7 18 -2 22 -4 -10 -11 -12 16 20 21 19 -9 -16 25 -3 -24 -25 26 27 -14 -1 -13
right_child=1 2 3 -5 -6 7 -8 8 12 13 14 29 17 -15 15 -17 -18 -19 -20 -21 -22 -23 23 24 -26 -27 -28 -29 -30 -31
leaf_value=-0.10188689181630715 -0.1002381049735744 -0.096533868078382212 -0.10424777277137132 -0.091134715537232347 -0.093166662695358823 0.12328472006235075 -0.080350266884255006 0.097860749791158427 -0.097021809869460837 0.10899187627672202 -0.10426915293636906 0.11436918002428227 0.030645407882661693 -0.083031526675677661 -0.088571944524544921 -0.1007881806480001 -0.13454323605688942 -0.10304929745349452 -0.097626555628917741 -0.083174450610026707 0.13452587738372621 -0.086830687022744865 -0.09806264254934316 0.24730313143824573 -0.090043096088825714 0.11894838759328351 -0.032890953734700211 0.11647812606369644 0.51650333312670449 0.071487501586515234
leaf_weight=3822.1693858709186 478.62267136014998 2391.703827239573 231.29852557554841 539.46619510650635 506.85715452022851 1045.9499101992697 4484.8399696350098 318.83668655715883 452.62803341820836 1019.3887111358345 488.52720871567726 5010.3147351518273 619.83206976391375 256.29061707295477 100.25667123124003 480.63545836508274 159.56408349424601 211.54537015408278 1032.9815271347761 267.17197553254664 1063.231175031513 165.29597949981689 172.53883529081941 99.698829837143421 71.630859863013029 919.06429173797369 512.14609029516578 1095.0611059572548 5.9307854175567618 1610.0653497744352
leaf_count=203349 18251 111952 10133 25321 23885 8101 193775 2409 20985 8679 21634 41980 3265 10066 4380 23454 2408 9102 42365 7682 9115 6910 8356 902 3233 7553 7512 8899 114 21952
internal_value=0 0.00886882 0.0279753 0.0718696 0.0838197 -0.00173574 -0.0510502 0.0295215 0.0119917 0.0238549 -0.0430191 0.0969124 0.0399829 0.0704134 0.00580365 0.0356168 0.0851697 0.0575852 -0.0567432 0.0153235 0.115302 0.0678472 -0.0839291 0.00374083 0.106263 0.0759739 0.0582391 0.0854547 -0.100929 0.10394
internal_weight=0 25805.4 19566.3 7898 7358.54 11668.3 6239.14 6640.51 5594.56 1754.3 5027.79 6851.68 3975.57 1275.68 2292.21 1803.69 1323.05 3522.94 1618.99 586.009 1163.49 3311.4 2735.57 343.869 171.33 3146.1 2227.04 1714.89 3828.1 6620.38
internal_count=867722 664259 433488 123271 97950 310217 230771 124783 116682 36996 185434 74065 64226 18745 60991 39357 15903 43241 52456 10091 13495 34139 124443 12491 4135 27229 19676 12164 203463 63932
is_linear=0
shrinkage=0.1


Tree=19
num_leaves=31
num_cat=0
split_feature=28 15 14 23 28 18 19 10 4 9 9 4 5 12 37 10 36 23 22 19 22 16 24 12 10 39 0 23 11 9
split_gain=3620.34 2671.27 2268.64 1871.01 1220 1149.34 974.261 933 1030.27 1338.03 913.533 962.175 845.633 596.516 593.046 591.089 579.189 447.406 437.747 408.428 381.931 366.039 374.577 311.876 1112.57 295.564 270.774 253.085 250.834 224.926
threshold=3.1415926535884986 -0.0027290707521527998 -0.0011215466404261498 1.1166482895708811 3.141592653589135 1.5944794952199326 2.9790392122039857 17.035355422968863 5.7484382324218783 18.277832031250004 49.548339843750007 22.314149902343754 7.5881981201171946 9.1186504340873409 1.3519711307563196 2.8916075729725228 4.3508323263043502 1.1151943947612557 1.1098549898851588 2.9810326324181662 1.1109252274584436 1.4927632780204088 1.110658358241619 8.702917933389811 18.963758585045351 39.375693369083706 6.5000000000000009 1.1191781227538982 58.760307168095039 53.472167968750007
decision_type=2 2 2 2 2 2 2 2 2 2 2 2 2 2 2 2 2 2 2 2 2 2 2 2 2 2 2 2 2 2
left_child=-1 16 6 7 5 15 12 8 9 -4 -9 21 -3 -14 -13 -5 27 -10 -11 26 25 22 29 -17 -25 -16 -19 -2 -15 -12
right_child=1 2 3 4 -6 -7 -8 10 17 18 11 14 13 28 20 23 -18 19 -20 -21 -22 -23 -24 24 -26 -27 -28 -29 -30 -31
leaf_value=-0.10064982178680965 -0.097071111260482679 -0.091815345803014536 -0.10229025106202159 -0.10526443816675422 -0.08516222650569516 -0.096110246786041201 -0.078925733389427544 0.12045561915653565 -0.092796625950455736 0.39809308565508378 0.13308388601006316 -0.093733613535847443 0.1271258578608617 -0.083779308627203064 0.075359615395663104 0.11196484381010977 0.091383702061655761 0.14601010348279705 0.12932200702079008 -0.10278733254643689 -0.097951928586497233 -0.0878660150215715 -0.056435052063676917 -0.071460588758832266 0.11231846935359024 -0.081028488603288928 -0.10237572464347698 -0.030553458321133806 0.076099522298648511 -0.06555767864806214
leaf_weight=3473.9763409905136 2566.1685062386096 470.57043620944023 292.51235246472061 144.23977655172348 442.23875080794096 330.16356283426285 2706.4248895645142 961.53493834286928 1817.9670860208571 71.995602583512664 246.55653175711632 275.82570696622133 670.61385292746127 265.62685193680227 2614.5853058584034 4934.4592007957399 203.99180746078491 216.12906868755817 382.77794697321951 168.17356356233358 145.82914048805833 956.09162947162986 419.02821416780353 454.40475446358323 1197.523929938674 126.70587825775146 55.072074234485626 736.06472159549594 155.62215900421143 74.145511172711849
leaf_count=203463 127707 21929 15606 6507 22373 17290 122397 8053 90113 391 1715 13989 5421 8623 24899 44671 1982 1785 3236 5893 6744 37519 11250 14027 11017 5467 2815 26086 2450 2304
internal_value=0 0.0085442 0.0222796 0.0392493 0.0759614 0.086053 -0.0426276 0.00803637 -0.0372182 0.0645555 0.0313982 0.0137741 0.0202476 0.0685444 0.0463584 0.0949889 -0.0721427 -0.0709101 0.171871 0.0196481 0.0597423 -0.0470002 0.00581836 0.0993743 0.0617654 0.0681312 0.0955711 -0.0822444 -0.0247152 0.0871585
internal_weight=0 24103 20596.8 16328 7503.03 7060.79 4268.86 8824.93 3004.63 747.286 5820.3 4858.77 1562.43 1091.86 3162.95 6730.63 3506.23 2257.34 454.774 439.375 2887.12 1695.82 739.73 6586.39 1651.93 2741.29 271.201 3302.23 421.249 320.702
internal_count=867722 664259 508484 347664 115885 93512 160820 231779 119839 19233 111940 103887 38423 16494 51099 76222 155775 100606 3627 10493 37110 52788 15269 69715 25044 30366 4600 153793 11073 4019
is_linear=0
shrinkage=0.1


Tree=20
num_leaves=31
num_cat=0
split_feature=28 15 23 28 14 18 10 12 10 23 36 11 22 4 9 12 10 37 9 8 12 22 3 16 18 0 28 0 13 17
split_gain=3260.05 2354.25 2055.21 1808.1 1510.38 1346.97 1472.12 542.384 1341.7 537.706 514.134 462.76 447.047 576.823 436.96 757.763 428.453 413.563 356.096 355.877 478.388 526.73 314.651 260.983 248.624 240.442 215.299 202.77 197.096 187.22
threshold=3.1415926535884986 -0.0030920134815994493 1.1168279872211522 3.141592653589135 0.0023949523928637004 1.5944794952199326 2.8916075729725228 8.702917933389811 18.963758585045351 1.1146610445277252 4.3508323263043502 58.760307168095039 1.1110298925882065 15.327243408203126 51.189941406250007 24.413994744810868 6.2028050215664807 1.3519711307563196 18.981018066406254 16.756347656250004 9.1186504340873409 1.1164863510192207 26.748596191406005 1.4895390951466949 1.5228795749832098 6.5000000000000009 3.1415926535897212 20.250000000000004 -0.0063483097526093992 1.5224214953145039
decision_type=2 2 2 2 2 2 2 2 2 2 2 2 2 2 2 2 2 2 2 2 2 2 2 2 2 2 2 2 2 2
left_child=-1 10 4 5 9 6 -4 28 -9 11 -2 29 13 16 -15 22 18 -17 -6 -11 21 23 24 -21 -16 -14 -19 -10 -8 -3
right_child=1 2 3 -5 12 -7 7 8 27 19 -12 -13 25 14 15 17 -18 26 -20 20 -22 -23 -24 -25 -26 -27 -28 -29 -30 -31
leaf_value=-0.10036032198629828 -0.084455328076749367 -0.089633298565978139 -0.10326135540375664 -0.090543455932144676 -0.10171700136362492 -0.094171092102959653 -0.055889526286096315 -0.071238888943190998 -0.10739839960941817 -0.10285791096222507 0.087969977456566359 0.071174762870143085 0.022875507598011182 0.10306159868198035 0.12002014572104501 -0.089637399994505915 -0.10206083567559024 0.068173585385571223 0.2174508297550497 -0.097695723775145737 -0.097551042628536144 -0.12634347212572758 -0.097736549781393109 0.12693465295770942 -0.067598643343912676 -0.099625551779624094 -0.10369182693505011 0.11799019075943024 0.10950508296517469 -0.013552609979200547
leaf_weight=3151.9949865220115 2837.0666608810425 2857.6004673559219 410.4236182179302 760.94159332662821 57.287932258099318 466.4890781827271 73.040802914649248 646.96954137086868 41.449648723006248 240.21521982178092 184.15685677528381 212.98164648190141 260.62086857296526 1035.5726334024221 150.05289699323475 188.45030652731657 480.9060027860105 2676.1203892454505 89.676139160990715 56.819723492488265 216.98557127639651 114.43179230205715 556.23616768047214 576.49187516048551 133.44079847633839 415.93534932099283 74.930350042879581 1078.3409080505371 5311.6835940424353 364.73151543922722
leaf_count=203463 145076 149655 22328 41271 3472 26530 1088 22914 1011 13036 1887 3606 7034 8708 1142 10275 27907 24159 477 2492 12104 1886 25055 5379 3031 22588 4391 9938 50518 15301
internal_value=0 0.00820874 0.0209054 0.0567799 -0.00840013 0.0707434 0.0809169 0.0914868 0.0434086 -0.0514255 -0.0739452 -0.071586 0.0242263 0.0337559 0.0455119 0.0297424 -0.0563949 0.0536754 0.0930363 0.00605243 0.0331708 0.0711047 -0.054036 0.106781 0.0317078 -0.0524361 0.0634925 0.109647 0.107262 -0.0810218
internal_weight=0 22570 19548.8 8789.34 10759.5 8028.4 7561.91 7151.48 1766.76 4640.26 3021.22 3435.31 6119.23 5442.67 4814.8 3779.23 627.87 2939.5 146.964 1204.94 964.729 747.743 839.73 633.312 283.494 676.556 2751.05 1119.79 5384.72 3222.33
internal_count=867722 664259 517296 175598 341698 134327 107797 85469 33863 203459 146963 168562 138239 108617 76761 68053 31856 38825 3949 34897 21861 9757 29228 7871 4173 29622 28550 10949 51606 164956
is_linear=0
shrinkage=0.1


Tree=21
num_leaves=31
num_cat=0
split_feature=28 22 4 23 18 28 38 22 22 17 10 17 12 6 3 4 28 20 18 12 9 11 42 22 24 19 0 0 10 0
split_gain=2935.86 2088.44 2487.33 1808.47 1617.65 1590.84 753.977 592.307 532.074 852.003 708.7 447.095 437.391 763.46 428.577 375.317 369.718 313.802 655.342 315.954 305.346 1111.49 305.444 297.605 269.364 252.124 238.05 227.225 203.241 200.361
threshold=3.1415926535884986 1.1136124616417586 15.327243408203126 1.1151943947612557 1.5886402741368608 3.141592653589135 3.1238050791308685 1.1109252274584436 1.1094699011262656 1.5197493371544613 2.8916075729725228 1.5094145726091837 16.161230509135141 21.956260742187506 26.748596191406005 5.8612883300781258 3.1415926535897212 2.7780484104809227 1.5137056394930091 24.738186265848089 26.605957031250004 18.617238394484787 0.032125434596004553 1.1173653648002362 1.1111999837051356 2.7771777282264218 46.000000000000007 46.000000000000007 3.0596710275554706 20.250000000000004
decision_type=2 2 2 2 2 2 2 2 2 2 2 2 2 2 2 2 2 2 2 2 2 2 2 2 2 2 2 2 2 2
left_child=-1 2 8 -3 5 11 26 12 -2 -10 -11 28 -8 14 24 -12 17 -15 25 -20 22 -22 23 -13 -14 -19 -4 -6 -5 -23
right_child=1 3 6 4 27 -7 7 -9 9 10 15 20 13 16 -16 -17 -18 18 19 -21 21 29 -24 -25 -26 -27 -28 -29 -30 -31
leaf_value=-0.10007573986857166 -0.094622891778966045 -0.0977242768899131 -0.1008961781979175 0.11174077837786059 -0.098452407655752999 -0.089445282435976797 0.10370882632696737 -0.096281352928962893 -0.08363699958272508 -0.10183529522322017 0.11938183431702508 0.094422910930692883 0.074852923869169016 0.1105944748047786 -0.09879776940326597 -0.10286429752435181 -0.10511917388601062 0.019020808578670979 0.019187039751219857 0.1128989832892192 -0.078219610736490433 -0.10729626241571365 0.1056262476231743 -0.063198648956523204 -0.088239926320515902 -0.10611302719330916 0.21796252014587936 0.25538677616411554 -0.091403520621806289 0.11413533191665391
leaf_weight=2859.7492305617779 3271.633705641143 832.36710246652365 536.28560623992234 64.524535526521504 681.16557339951396 582.13754279259592 962.13097376562655 325.31366893835366 1329.1350703239441 257.86703103408217 616.30342729017138 261.85261315852404 344.81660301983356 902.36190481483936 609.21688794344664 86.671198919415474 139.97212982177734 319.15550397709012 589.90891167707741 922.23465509340167 480.68254880048335 42.579747974872589 4992.7768542524427 220.78875950723886 143.37398647889495 324.95551655255258 24.482696771621704 18.64544951915741 208.04127987287939 1013.6717185974121
leaf_count=203463 204232 51723 32101 710 41989 34977 8573 18877 77414 15051 6303 2788 2521 8997 30835 4778 8253 1632 3280 7977 18716 1020 49361 2714 3545 8590 206 102 6917 10077
internal_value=0 0.00789287 -0.0202951 0.0429982 0.0566709 0.0696312 0.0235614 0.034663 -0.0687456 -0.0317753 0.0399651 0.082343 0.0427644 0.0291152 -0.0428556 0.0919806 0.0538078 0.0610808 0.04036 0.0763406 0.0872272 0.0478409 0.0982828 0.0223175 0.0269551 -0.0441095 -0.0869751 -0.0890249 -0.0433131 0.105209
internal_weight=0 21105.1 11705.8 9399.23 8566.87 7867.06 6144.21 5583.44 5561.61 2289.98 960.842 7284.92 5258.13 4296 1097.41 702.975 3198.59 3058.62 2156.25 1512.14 7012.35 1536.93 5475.42 482.641 488.191 644.111 560.768 699.811 272.566 1056.25
internal_count=867722 664259 443165 221094 169371 127280 135387 103080 307778 103546 26132 92303 84203 75630 36901 11081 38729 30476 21479 11257 84676 29813 54863 5502 6066 10222 32307 42091 7627 11097
is_linear=0
shrinkage=0.1


Tree=22
num_leaves=31
num_cat=0
split_feature=28 15 23 28 10 10 18 9 23 14 16 22 9 22 12 4 34 12 11 12 9 37 24 17 22 24 38 38 0 28
split_gain=2644.35 1872.32 1635.39 1445.84 1164.16 1078.13 1177.95 783.659 768.415 613.35 484.276 668.34 599.839 436.663 428.053 1087.7 414.8 404.483 397.534 204.353 429.752 257.617 206.102 188.714 308.379 274.868 186.524 270.402 185.781 183.132
threshold=3.1415926535884986 -0.0032808613718867496 1.1169100503989162 3.141592653589135 17.035355422968863 2.8916075729725228 1.5944794952199326 49.548339843750007 1.1139168392568426 0.0043057026851440515 1.4919440790964793 1.1160939346910934 27.764587402344002 1.1112655945106475 8.702917933389811 16.805295410156255 0.060396763158337106 5.1864351390558312 58.760307168095039 24.413994744810868 53.472167968750007 1.3519711307563196 1.1111131161241381 1.5208341857383194 1.1081299332354495 1.1121763791746304 9.4241726506059873 4.2312829354221533 46.000000000000007 3.1415926535897212
decision_type=2 2 2 2 2 2 2 2 2 2 2 2 2 2 2 2 2 2 2 2 2 2 2 2 2 2 2 2 2 2
left_child=28 16 4 5 8 -4 14 -6 23 18 -10 12 17 19 -7 -16 -2 -12 -9 20 22 -21 -11 -3 -25 -26 27 -18 -1 -20
right_child=1 2 3 -5 7 6 -8 9 10 13 11 -13 -14 -15 15 -17 26 -19 29 21 -22 -23 -24 24 25 -27 -28 -29 -30 -31
leaf_value=-0.10119813853143816 -0.096152948061622279 -0.094884416934762697 -0.1033207487493993 -0.088384962497018882 0.11476882799011677 0.10285503245644292 -0.092289272293141475 -0.075871797499652185 -0.091858024265227073 0.12034836871239002 -0.10163265938262399 -0.11236925135566833 -0.10034440366727909 -0.10268959009401385 -0.078127774152951496 0.10168347868009707 -0.079575487490614744 0.1247465519507745 0.11051212871582693 -0.084608740024572235 -0.095735436160037921 0.060519215295907064 -0.071844916036882631 -0.096424710813723891 0.19223240277878151 -0.078683069182732657 -0.085762706960130677 0.092200585822019926 0.40997545526479967 -0.11041230831447679
leaf_weight=2587.4285184983164 1898.1684160456061 2098.0856651877984 349.15525662619621 648.08549217972904 789.53009844850749 4615.4676067847759 386.41162422299385 1091.6888203602284 403.4711028188467 226.04161967150867 87.667518590576947 253.3962884452194 175.42473392095417 230.29708722233772 505.50531859695911 1005.7325126677752 136.02294782549143 791.67090266011655 190.40342712402344 129.09089675825089 304.33056674897671 2329.4526073886082 74.082872560247779 211.42578963376582 97.477819414809346 60.815309210680425 179.54405272193253 280.85278727672994 7.1295221596956244 46.729839324951172
leaf_count=203349 121164 137074 22474 41432 8111 51306 26530 47740 25208 1834 6165 9189 12323 15238 22254 11289 7816 8730 2018 8283 15751 26299 2088 13850 821 3376 10201 3258 114 2437
internal_value=0 0.00763706 0.0194427 0.0543887 -0.00792203 0.0678725 0.0770499 0.0226953 -0.0475661 0.00696765 0.00391991 0.0334604 0.0684945 0.030107 0.0877301 0.0415371 -0.0732955 0.102177 -0.05038 0.0400916 -0.0120008 0.052899 0.0729073 -0.0832761 -0.0174008 0.0881482 -0.000549084 0.0361515 -0.0997935 0.0669764
internal_weight=0 19596 17101.4 7510.36 9591.08 6862.27 6513.12 5411.65 4179.44 4622.12 1711.63 1308.16 1054.76 3293.3 6126.71 1511.24 2494.59 879.338 1328.82 3063 604.455 2458.54 300.124 2467.8 369.719 158.293 596.42 416.876 2594.56 237.133
internal_count=867722 664259 521820 175285 346535 133853 111379 129799 216736 121688 61615 36407 27218 69493 84849 33543 142439 14895 52195 54255 19673 34582 3922 155121 18047 4197 21275 11074 203463 4455
is_linear=0
shrinkage=0.1


Tree=23
num_leaves=31
num_cat=0
split_feature=28 14 23 28 18 15 21 10 5 31 24 13 36 4 11 6 22 4 39 32 16 6 10 6 10 38 22 5 38 4
split_gain=2382.67 1666.35 1537.28 892.234 1048.57 881.267 752.183 619.557 546.691 500.82 495.383 478.303 390.858 366.766 529.613 402.587 709.615 493.988 362.571 352.931 325.437 229.861 488.511 211.46 819.45 165.206 147.476 143.586 147.925 136.252
threshold=3.1415926535884986 -0.0013946639678083998 1.1175192980128148 3.141592653589135 1.5944794952199326 -0.0019202675991687997 3.0057386537971222 2.8916075729725228 7.5881981201171946 -0.061900390624999947 1.11093718992868 -0.0049413166440658495 4.3508323263043502 5.7484382324218783 8.4724411725183817 8.049383056640627 1.1105345335400079 15.327243408203126 13.143384263025267 8.0173469238281267 1.4937169586162222 14.728399169921877 24.542692882904642 7.776917236328126 18.963758585045351 3.5032980788702983 1.1094699011262656 14.904771240234377 26.533956461858899 7.3939836425781253
decision_type=2 2 2 2 2 2 2 2 2 2 2 2 2 2 2 2 2 2 2 2 2 2 2 2 2 2 2 2 2 2
left_child=-1 6 5 4 7 12 8 -4 -2 11 20 29 -3 19 -15 -16 17 -17 -10 -13 27 -19 -23 -9 -25 -24 -21 -11 -29 -7
right_child=1 2 3 -5 -6 9 -8 23 18 10 -12 13 -14 14 15 16 -18 21 -20 26 -22 22 25 24 -26 -27 -28 28 -30 -31
leaf_value=-0.099538607045064342 -0.10227476258424367 -0.092923957262095486 -0.10329263472862862 -0.082336901296852172 -0.094154467821053911 -0.1065043187642333 -0.080566662628211161 0.10431690972962951 0.09479903947386116 -0.11112828894792559 -0.082363693115604972 -0.10483612221399102 0.078397922519935326 -0.10520543178193814 0.13207155362747741 -0.10137287817608434 -0.088589698019531662 0.098790076179076175 -0.073872504228193039 0.30631050348512429 -0.076703975712212311 -0.073435844738961739 -0.094207763206023226 -0.072116597477284217 0.10890766819168407 0.061466501551853604 0.12673000112448227 0.073078669523656409 -0.086656027977093195 0.040478002121012123
leaf_weight=2354.196857967414 277.10028508491814 1286.7579928077757 167.85853113234043 392.93071927968413 347.36656433716416 325.5914988424629 2671.222731590271 3595.4253575587645 633.78331229742616 52.822013815864921 991.41765094362199 63.186521771363914 148.53830027580261 287.73344066459686 388.00723394937813 224.81005974393338 479.17398142442107 786.84935496281832 159.51642607804388 51.851504070684314 282.51309129595757 345.3883607359603 70.77543016243726 353.4287742767483 855.01112499088049 1851.5379228238016 387.37268302030861 681.51206061057746 63.365962525829673 78.22010568715632
leaf_count=203463 15090 88173 11303 27398 25525 21142 172118 43762 7153 3741 61406 4313 1752 19159 4031 17162 32387 8092 8433 242 15586 11661 4752 13069 10291 19942 4039 7517 3060 1960
internal_value=0 0.00733919 0.0226361 0.0630767 0.0738187 -0.00347296 -0.0521842 0.0855547 0.0186452 0.0104152 -0.0313201 0.0266047 -0.0751939 0.0351639 0.0259892 0.0350929 0.0250814 0.0416908 0.0608826 0.11614 0.0155275 0.0522201 0.0360612 0.0921535 0.055964 0.0557349 0.14793 0.0481922 0.0594902 -0.0780332
internal_weight=0 18301.1 14559.4 5712.02 5319.09 8847.43 3741.62 4971.72 1070.4 7412.13 2071.63 5340.5 1435.3 4936.69 4434.28 4146.54 3758.54 3279.36 793.3 502.411 1080.21 3054.55 2267.7 4803.87 1208.44 1922.31 439.224 797.7 744.878 403.812
internal_count=867722 664259 461465 131348 103950 330117 202794 78425 30676 240192 91310 148882 89925 125780 117186 98027 93996 61609 15586 8594 29904 44447 36355 67122 23360 24694 4281 14318 10577 23102
is_linear=0
shrinkage=0.1


Tree=24
num_leaves=31
num_cat=0
split_feature=28 15 23 28 14 10 18 12 10 18 17 22 34 22 10 0 6 18 18 27 39 16 0 10 0 17 13 24 12 17
split_gain=2146.18 1481.96 1314.65 1145.25 930.08 866.674 925.659 357.843 1027.76 349.231 344.154 420.001 341.616 322.745 291.534 515.064 463.104 502.158 434.822 412.817 339.825 266.383 253.167 230.017 255.938 198.365 188.535 188.167 202.005 198.06
threshold=3.1415926535884986 -0.0033794163451436494 1.1169100503989162 3.141592653589135 0.0018332311976370502 2.8916075729725228 1.5944794952199326 9.0215146757813027 18.867773759137577 1.5195413577601842 1.5094145726091837 1.1080120761929111 0.052078189350617254 1.1164863510192207 59.132983297794652 16.750000000000004 22.247785156250004 1.5190545475405661 1.5139418895104024 1.6526883238276699 39.375693369083706 1.4877112484437636 6.5000000000000009 17.035355422968863 3.7250000000000005 1.4856199183718073 -0.0049413166440658495 1.1075142391356125 24.413994744810868 1.5351285525485161
decision_type=2 2 2 2 2 2 2 2 2 2 2 2 2 2 2 2 2 2 2 2 2 2 2 2 2 2 2 2 2 2
left_child=-1 12 4 5 9 -4 7 26 -9 10 21 -12 -2 22 15 16 17 19 -18 -6 -16 -3 -13 24 -21 -17 -7 -19 29 -29
right_child=1 2 3 -5 14 6 -8 8 -10 -11 11 13 -14 -15 20 25 18 27 -20 23 -22 -23 -24 -25 -26 -27 -28 28 -30 -31
leaf_value=-0.09924885056320315 -0.097020436229806703 0.016491113862614842 -0.102834547294803 -0.085628503787970559 -0.069242709322673415 -0.021239459073365694 -0.090159385129968933 -0.10044477392021647 0.096558604596668748 -0.086115006659856885 -0.09583449415735136 0.14249058464246972 -0.0069539106727763396 -0.12745676761234268 0.11458687804389311 0.018115831998641821 -0.10154531959637064 0.17570714763976905 0.11316507664238629 0.12338060151215846 -0.10437774190813581 -0.092091811925568992 -0.10154286400322639 0.10002975085988673 -0.030647612702258499 -0.095802635126878311 0.10168544837563726 -0.086954715381286921 0.0075423940652380693 0.049423879259462983
leaf_weight=2136.073486383073 1506.3539858926088 337.8637395715341 293.46431710012257 553.82992107048631 265.60824024118483 128.84502316638827 325.97998243384063 380.50243226531893 871.01017571985722 1483.5460995929316 176.82568925153464 379.06172799691558 584.54386501014233 62.931467339396477 506.48299217224121 209.14782998617738 107.20555445365608 41.046736627817154 784.74382230639458 153.26471326127648 82.409769058227539 681.99591632466763 47.881506714969873 823.92970769107342 364.2912634126842 567.89128049463034 3945.6562270363793 820.33800386358052 538.03928077034652 122.37450324557722
leaf_count=203463 115326 7855 22658 41653 18436 1799 26677 21910 11180 107680 14023 4055 24904 951 5955 1447 7883 1012 7945 2898 4541 50657 3483 12781 16000 26895 50143 46041 3122 4349
internal_value=0 0.00704772 0.0180032 0.0519089 -0.0077495 0.0647208 0.0734207 0.0834326 0.0366629 -0.0507259 -0.0195966 0.0362737 -0.0718409 0.0839596 0.017542 0.00939172 0.0237952 0.00567535 0.0873585 0.044659 0.0839449 -0.05612 0.115122 0.0672111 0.014965 -0.0651403 0.0977983 -0.0354933 -0.0413479 -0.0692513
internal_weight=0 17147.1 15056.2 6499.29 8556.88 5945.46 5651.99 5326.01 1251.51 3170.11 1686.56 666.7 2090.9 489.875 5386.77 4797.88 4020.84 3128.89 891.949 1607.09 588.893 1019.86 426.943 1341.49 517.556 777.039 4074.5 1521.8 1480.75 942.713
internal_count=867722 664259 524029 176020 348009 134367 111709 85032 33090 188704 81024 22512 140230 8489 159305 148809 120467 104639 15828 50115 10496 58512 7538 31679 18898 28342 51942 54524 53512 50390
is_linear=0
shrinkage=0.1


Tree=25
num_leaves=31
num_cat=0
split_feature=28 10 23 28 18 11 23 22 18 22 0 6 11 39 37 12 11 12 24 9 17 12 16 18 16 4 42 22 24 0
split_gain=1933.42 1319.03 1546.86 1162.03 1103.4 1077.32 700.228 515.549 452.858 452.167 460.391 338.73 410.698 687.321 454.376 326.25 808.913 316.092 307.451 280.975 261.492 252.683 238.919 230.022 226.313 213.683 185.455 227.95 183.278 177.718
threshold=3.1415926535884986 2.8916075729725228 1.1169100503989162 3.141592653589135 1.5944794952199326 16.74802685593944 1.1139168392568426 1.1089068714046655 1.5219543200809367 1.1165909690365947 6.5000000000000009 14.274726562500001 58.760307168095039 35.257930521284855 37.674585942887546 8.702917933389811 18.617238394484787 2.8875389348177953 1.114226179589705 53.472167968750007 1.5220103507453493 24.738186265848089 1.4752485929978454 1.5188132754675279 1.4877112484437636 15.577725280761721 0.032125434596004553 1.1184961902477697 1.1147077850405915 20.250000000000004
decision_type=2 2 2 2 2 2 2 2 2 2 2 2 2 2 2 2 2 2 2 2 2 2 2 2 2 2 2 2 2 2
left_child=-1 -2 5 4 15 6 20 11 9 10 24 -7 13 19 -14 26 -17 -5 -10 25 -3 -15 -21 -22 -8 -13 27 -4 -9 -18
right_child=1 2 3 17 -6 7 8 28 18 -11 -12 12 14 21 -16 16 29 -19 -20 22 23 -23 -24 -25 -26 -27 -28 -29 -30 -31
leaf_value=-0.098953542873600489 -0.10151406857847521 -0.099259771577333913 0.081036710782568855 0.96000215976666137 -0.090563427763883542 0.091492361321329874 -0.10232789397253755 -0.089537736827767597 0.065363812205951444 -0.11902071013861303 -0.10466368339763527 -0.078711081448435471 0.11052831005697317 0.0043077265096740595 -0.10318351561362037 -0.067952401040701396 -0.10772744263792387 -0.089480461455670568 -0.093699948107244357 0.071063498295941732 0.13616269748857071 0.1037519668245331 -0.074783214219343502 -0.070899724483654267 0.13950725707816089 0.079380992537313733 0.10002138607896363 -0.090084445679113737 0.033942092022281267 0.10858280943599963
leaf_weight=1938.2802790701389 1051.1155002815649 2043.7640621010214 232.32903220597655 2.8846435034647575 413.95683604944497 750.8046339256689 41.827766750007868 543.17810521554202 156.1467793174088 129.86741175036877 107.4019907200709 120.86729629617184 699.76733531989157 431.74071964621544 115.97300112247467 476.37907583173364 40.039606563746929 560.50325944274664 547.9006413212046 123.79831030312926 91.909617242403328 625.99356833100319 1211.423975456506 128.87957971263677 516.90119206625968 292.15884524583817 3585.9647399727255 117.07218863815069 154.36391877103597 739.04887008666992
leaf_count=203463 91574 179840 3890 31 36045 9441 3352 41237 4903 3399 8944 4667 8940 4042 7413 23773 983 45787 38943 575 1504 7993 53997 9379 5651 3996 48685 1493 3702 10080
internal_value=0 0.00677838 0.0143655 0.0527941 0.0665552 -0.0124646 -0.0529897 0.0176259 9.38492e-07 0.0516751 0.0849536 0.0303623 0.0176897 -0.000467034 0.0801451 0.0790851 0.0346991 -0.0841069 -0.0584221 -0.0389638 -0.0880908 0.0631613 -0.0612607 0.0152957 0.121403 0.0331172 0.0932452 0.0237 -0.062212 0.097466
internal_weight=0 16054 15002.8 6168.18 5604.79 8834.67 3764.6 5070.07 1500.05 795.998 666.131 4372.53 3621.72 2805.98 815.74 5190.83 1255.47 563.388 704.047 1748.25 2264.55 1057.73 1335.22 220.789 558.729 413.026 3935.37 349.401 697.542 779.088
internal_count=867722 664259 572685 170767 124949 401918 255915 146003 65192 21346 17947 101064 91623 75270 16353 88904 34836 45818 43846 63235 190723 12035 54572 10883 9003 8663 54068 5383 44939 11063
is_linear=0
shrinkage=0.1


Tree=26
num_leaves=31
num_cat=0
split_feature=28 10 23 28 18 10 23 9 11 39 22 16 9 38 18 38 4 21 12 17 16 18 9 24 16 0 18 5 0 12
split_gain=1741.45 1184.31 1362.72 1032.84 972.841 932.959 629.06 592.875 515.48 677.674 433.005 619.946 518.269 407.087 338.796 288.683 826.36 397.281 258.546 216.81 215.755 207.012 199.344 197.922 177.614 168.578 168.359 195.665 167.334 150.014
threshold=3.1415926535884986 2.8916075729725228 1.1169987725685517 3.141592653589135 1.5944794952199326 17.035355422968863 1.1139168392568426 49.548339843750007 58.760307168095039 35.257930521284855 1.1163855242112228 1.4945278596429992 27.764587402344002 38.109779652500457 1.5134483225193482 9.7819486165775 7.1712413330078126 3.1058800288333424 24.738186265848089 1.5220103507453493 1.4937169586162222 1.5082255965958422 53.472167968750007 1.1104650921229389 1.4752485929978454 13.000000000000002 1.526175413309528 6.237380249023448 46.000000000000007 2.8875389348177953
decision_type=2 2 2 2 2 2 2 2 2 2 2 2 2 2 2 2 2 2 2 2 2 2 2 2 2 2 2 2 2 2
left_child=28 -2 5 4 15 6 19 -7 9 20 11 -8 -13 -10 -11 -4 -17 21 -16 -3 22 -18 23 -9 -24 -20 27 -21 -1 -5
right_child=1 2 3 29 -6 7 10 8 13 14 -12 12 -14 -15 18 16 17 -19 25 26 -22 -23 24 -25 -26 -27 -28 -29 -30 -31
leaf_value=-0.10071045617916491 -0.10134833198423153 -0.093715803998160208 0.098559514320906039 0.44234065398028072 -0.089318804344994424 0.10998921909153279 -0.072238529253342162 0.11268499367095204 0.109082659542395 -0.10098336120329852 -0.1120471220079631 0.11697841510549985 -0.099598002069848021 -0.10295718585650503 0.0050902905573262372 -0.20039403385692736 -0.08989326556585292 -0.081639530877099409 -0.79455959648134244 0.16555321707053683 -0.08540066355219203 0.086751418269313818 0.06478974195001809 -0.042809778273087774 -0.065840889177427447 0.1051166605005131 -0.092168898220023984 -0.10513268806459308 0.3626511678582614 -0.088729623781344288
leaf_weight=1751.1564014898613 952.56688951142132 1985.5877062343061 2756.8251511193812 5.3750295359641305 376.98365947045386 607.13238788675517 408.73479654360563 188.87209205143154 641.14198926091194 142.37935172766447 273.71504605468363 644.75077144708484 133.34401432517916 105.43159624934196 461.74340335279703 124.89425709657371 69.133615509606898 167.73377920873463 2.0892083169892421 89.904114857316017 892.21378683205694 1643.5162478648126 122.28845605254173 144.47475704085082 699.21318706870079 668.87560929637402 92.109170037321746 37.987861915491521 7.828563153743743 509.88234301563352
leaf_count=203349 91574 184080 43177 31 35809 8150 31004 1640 8940 11745 13609 9684 12704 7416 4341 900 3140 11146 19 839 63874 29208 575 3208 23498 7846 7879 2830 114 45393
internal_value=0 0.00654312 0.013886 0.0517861 0.0653191 -0.0118033 -0.0495712 0.0178089 0.00405377 -0.0128197 0.0013322 0.0274805 0.0798632 0.0791383 0.0444067 0.0775608 0.048692 0.0652362 0.062682 -0.0832795 -0.0484652 0.0796209 -0.0199296 0.0452925 -0.0463953 0.102315 0.0109115 0.0851512 -0.0986482 -0.0831896
internal_weight=0 14948.9 13996.3 5654.34 5139.09 8341.99 3666.13 4675.86 4068.72 3322.15 1460.54 1186.83 778.095 746.574 1275.09 4762.1 2005.28 1880.38 1132.71 2205.59 2047.06 1712.65 1154.85 333.347 821.502 670.965 220.001 127.892 1758.98 515.257
internal_count=867722 664259 572685 168804 123380 403881 262629 141252 133102 116746 67001 53392 22388 16356 23951 87571 44394 43494 12206 195628 92795 32348 28921 4848 24073 7865 11548 3669 203463 45424
is_linear=0
shrinkage=0.1


Tree=27
num_leaves=31
num_cat=0
split_feature=28 10 23 28 18 11 23 18 22 22 0 12 10 24 6 11 39 38 17 16 18 3 4 42 32 16 39 16 10 18
split_gain=1570.06 1063.23 1187.45 904.547 848.339 806.864 641.82 419.642 415.907 415.399 414.576 284.627 731.143 272.365 271.245 330.212 508.468 363.113 224.758 200.472 192.254 171.799 163.516 162.676 211.876 160.062 174.767 158.674 150.611 150.181
threshold=3.1415926535884986 2.8916075729725228 1.1170830171824651 3.141592653589135 1.5944794952199326 16.74802685593944 1.1139168392568426 1.5224303866583655 1.1165909690365947 1.1089068714046655 6.5000000000000009 8.702917933389811 18.963758585045351 1.1145390168252671 14.274726562500001 58.760307168095039 35.717659488980317 38.109779652500457 1.5208341857383194 1.4877112484437636 1.5173618807115481 26.748596191406005 15.577725280761721 0.032125434596004553 7.3671225585937501 1.4738340436143005 34.68492263425906 1.5092925934104784 17.035355422968863 1.5161212312302974
decision_type=2 2 2 2 2 2 2 2 2 2 2 2 2 2 2 2 2 2 2 2 2 2 2 2 2 2 2 2 2 2
left_child=-1 -2 5 4 11 6 18 8 10 14 19 23 -13 27 28 16 21 -17 -3 -8 -20 22 -16 24 -4 -23 -27 -9 -7 -11
right_child=1 2 3 -5 -6 9 7 13 -10 29 -12 12 -14 -15 15 17 -18 -19 20 -21 -22 25 -24 -25 -26 26 -28 -29 -30 -31
leaf_value=-0.098377519596941909 -0.10119268915511281 -0.099299024032496838 -0.11183228251557434 -0.082059245894310295 -0.087983057004905163 -0.0068305275768136544 -0.10157177618528029 -0.10006199045647023 -0.11801587399232227 -0.093363126456195267 -0.10440066741758916 -0.064887812833526862 0.10044114533495324 -0.095215950464769689 -0.073712984393533285 0.10768538794301741 0.067705146657164803 -0.1026333306574425 0.12034003896001966 0.1322029823594478 -0.067506260249570835 0.12272239860518828 0.071194536746271311 0.096836558467114864 0.072638253909171335 -0.073876186965741455 0.0064432377776519976 0.11873576623909105 0.11110255809038426 0.012964434549807917
leaf_weight=1596.4970271489583 863.17686269339174 1672.7881504641846 86.868224969133735 469.76388479955494 343.50718563515693 136.50456203706563 39.447212407831103 46.749704542104155 122.7314927871339 423.29302581585944 100.7950093112886 461.01927961502224 637.19488495588303 483.79576402856037 108.55448896344751 587.27631282061338 776.69664889574051 95.428122013807297 89.900957839563489 523.38725160807371 138.30111204460263 54.599765122868121 275.5049361884594 3011.3774209488183 219.81427471339703 989.7379654571414 373.00327599048615 113.89728900045156 523.90185385942459 193.59082404430956
leaf_count=203463 91574 177542 2101 44941 35555 1598 3765 4234 3550 40550 9869 22959 10661 39192 4500 8940 9725 7413 1464 6618 11717 279 3537 47577 2990 52714 4522 1574 7843 4755
internal_value=0 0.00630711 0.0133907 0.0503253 0.0633909 -0.0111523 -0.0485215 0.0020688 0.0510952 0.0162835 0.0823706 0.0751651 0.0310377 -0.0577542 0.0282837 0.0164474 7.16914e-05 0.0782871 -0.0865989 0.115818 0.00649641 -0.0290893 0.0302364 0.0897704 0.0203867 -0.0451649 -0.0518915 0.0550637 0.086726 -0.0599954
internal_weight=0 13962.6 13099.4 5229.55 4759.78 7869.89 3331.79 1430.8 786.361 4538.09 663.629 4416.27 1098.21 644.443 3921.21 3260.8 2578.1 682.704 1900.99 562.834 228.202 1801.4 384.059 3318.06 306.682 1417.34 1362.74 160.647 660.406 616.884
internal_count=867722 664259 572685 166784 121843 405901 259525 68802 23802 146376 20252 86288 33620 45000 101071 91630 75277 16353 190723 10383 13181 65552 8037 52668 5091 57515 57236 5808 9441 45305
is_linear=0
shrinkage=0.1


Tree=28
num_leaves=31
num_cat=0
split_feature=28 10 23 28 18 4 23 18 12 20 39 22 0 37 24 38 10 21 18 6 16 16 18 16 0 0 0 35 24 9
