tree
version=v4
num_class=1
num_tree_per_iteration=1
label_index=0
max_feature_idx=45
objective=binary sigmoid:1
feature_names=WATT R_AbsMax S_AbsMax T_AbsMax R_AbsMean S_AbsMean T_AbsMean R_P2P S_P2P T_P2P R_RMS S_RMS T_RMS R_Skewness S_Skewness T_Skewness R_Kurtosis S_Kurtosis T_Kurtosis R_Crest S_Crest T_Crest R_Shape S_Shape T_Shape R_Impulse S_Impulse T_Impulse RS_phase ST_phase TR_phase RS_Level ST_Level TR_Level R_1x S_1x T_1x R_2x S_2x T_2x R_3x S_3x T_3x R_4x S_4x T_4x
feature_infos=[2.2000000000000002:55] [0.0400390625:244.72875976562] [0.1451416015625:245.20922851562] [0.080078125:244.73876953125] [0.00046044921874999998:70.85797473144531] [0.011671386718749999:70.97627014160156] [0.00086083984374999995:70.073609497070308] [0.0400390625:326.358398437495] [0.16015625:326.878906249995] [0.0400390625:326.408447265625] [0.0067593717154443003:73.919086226500724] [0.032871070539950198:73.963889594602549] [0.0112893117065378:73.471783643070026] [-16.421383540937114:11.143789372162191] [-11.045611392738511:5.6089627696841546] [-14.668152675871976:6.0902332681384621] [1.0797343690792085:455.8715338219136] [1.0809313962166067:228.80654766671464] [1.0818999634549855:411.86353371771247] [0.28501134902161029:41.464421443136473] [0.58999446022385749:26.171337567487928] [0.12645317614257881:28.373076085276349] [1.0002881656996083:14.679950448812288] [1.0014091186952794:10.124198034730044] [1.0007042711820977:13.114299702206218] [1.0075546688012489:347.82608695652169] [1.1501681250905746:150.07945382849744] [1.0123378677633661:279.06976744186051] [-3.1415926535897931:3.1415926535897598] [-3.1415926535897931:3.1415926535897816] [-3.1415926535897931:3.1415926535897816] [-126.43063946533204:51.52948266601814] [-0.99009082031249995:244.29304980468248] [-243.80845703124496:0.98924999999999996] [0.00069081687893250004:83.751144040890779] [0.0011152792927761001:81.800053597958524] [0.00041794884058699998:83.444997245148485] [0.00065978870508019997:137.19527127005321] [0.00078349650308860003:137.04152121711385] [0.0004334326324017:137.75510230324073] [0.00061116651551980004:10.628039275342854] [0.00095314303680639999:7.1577445578447332] [0.00066737935966599995:8.9909126017285015] [0.0006707522662484:9.7136651887577248] [0.0010739759839509999:4.1824108479666533] [0.00047498362098900002:3.5980151040934709]
tree_sizes=3385 3436 3447 3444 3446 3460 3448 3460 3464 3458 3461 3469 3461 3456 3466 3470 3472 3469 3475 3472 3473 3463 3466 3474 3475 3485 3489 3475 3487 3480 3479 3476 3486 3482 3482 3478 3473 3462 3476 3482 3489 3482 3475 3475 3490 3483 3490 3488 3498 3467 3492 3475 3474 3480 3467 3487 3477 3479 3478 3496 3488 3475 3480 3489 3485 3465 3485 3491 3486 3502 3502 3458 3499 3510 3481 3494 3498 3493 3507 3502 3503 3497 3498 3519 3491 3517 3514 3449 3471 3450 3462 3457 3446 3448 3498 3488 3432 3473 3504 3511

Tree=0
num_leaves=31
num_cat=0
split_feature=27 22 37 17 17 11 28 22 2 18 12 10 10 16 12 10 18 26 5 23 0 0 1 0 36 0 17 16 38 10
split_gain=101101 79806.6 54181 28414.2 24536.1 46513.3 25926 43997.9 25325 45067.1 41728.5 39662.1 32832.2 21805.9 63541.4 18995.6 15945 13376.8 8095.3 7828.29 6375.98 12679.9 5093.3 3054.77 2996.78 2464.42 2083.08 5460.26 12385.9 3686.16
threshold=1.6674512954948755 1.1083840806635139 16.91500163523466 1.4898769687321016 1.5076583088211324 12.77604892346808 3.1415926535897212 1.1089068714046655 11.8440551757815 1.5429628920327971 7.7696992607316675 4.6988738485215604 11.913774112845942 1.5921004743022951 17.892685854742655 3.0956975441323826 1.6008669581785553 1.6841307392356852 4.870869567871094 1.1109632173483872 9.2500000000000018 6.5000000000000009 10.858093261718503 2.9500000000000006 0.13496139974928259 9.2500000000000018 1.5119521795764388 1.5088747424030975 10.618244217128952 8.4918420613639309
decision_type=2 2 2 2 2 2 2 2 2 2 2 2 2 2 2 2 2 2 2 2 2 2 2 2 2 2 2 2 2 2
left_child=1 20 17 -4 5 8 13 15 9 -2 -10 -11 -12 26 -15 -8 -16 -3 -13 25 21 -1 -19 -17 -14 -5 27 -6 -29 -30
right_child=4 2 3 19 6 -7 7 -9 10 11 12 18 24 14 16 23 -18 22 -20 -21 -22 -23 -24 -25 -26 -27 -28 28 29 -31
leaf_value=-1.9984847280067746 -1.9761998535587681 -1.9766385943884424 -1.9948411751215693 -1.1346797607689587 -1.9848199852210751 -1.9927741382023823 -1.9984833427727962 -1.9917345697044171 -1.140500703721806 -1.9984809030230575 -1.9671392176090075 -1.1506931683033677 -1.131191258417378 -1.9973328826210555 -1.1358131225009731 -1.1512020276871717 -1.9793050835229296 -1.9952448067411861 -1.9976541482020607 -1.1533352038717219 -1.9984013901614175 -1.1280160094818807 -1.1542752841324528 -1.9984813242275137 -1.8984835842964864 -1.9743628789259406 -1.9947284402229983 -1.9649840156518148 -1.1393470055945643 -1.9951247616048309
leaf_weight=446.78596390783787 5488.7816071212292 1652.7863196134567 466.59445196390152 44.917807340621948 3828.4303056001663 10057.548283278942 349.60087388753891 2401.1474861502647 1792.5814327895641 971.34438572824001 2032.4099686592817 1697.4754989147186 682.93185736238956 4092.5502184927464 1424.4174244552851 1400.0103950053453 265.95384992659092 92.700015485286713 120.88811783492565 4811.0026589781046 3753.2611586600542 267.55806159973145 322.78846627473831 43.886405691504478 55.001241475343704 157.55561427772045 49535.944894492626 788.12172591686249 324.16352219879627 59.584674939513206
leaf_count=3899 47901 14424 4072 392 33411 87773 3051 20955 15644 8477 17737 14814 5960 35716 12431 12218 2321 809 1055 41986 32755 2335 2817 383 480 1375 432304 6878 2829 520
internal_value=-1.88327 -1.6113 -1.41303 -1.24844 -1.92066 -1.83173 -1.95222 -1.71183 -1.7056 -1.80986 -1.51644 -1.48259 -1.7597 -1.96894 -1.7843 -1.33709 -1.26852 -1.84913 -1.207 -1.17897 -1.94628 -1.67245 -1.3419 -1.17695 -1.18838 -1.78808 -1.98852 -1.92701 -1.73813 -1.27222
internal_weight=0 12016 7548.35 5480.07 87412.8 22899 64513.8 4194.65 12841.4 8278.49 4562.92 2789.71 2770.34 60319.2 5782.92 1793.5 1690.37 2068.27 1818.36 5013.48 4467.61 714.344 415.488 1443.9 737.933 202.473 54536.2 5000.3 1171.87 383.748
internal_count=867722 104864 65875 47825 762858 199841 563017 36607 112068 72247 39821 24346 24177 526410 50468 15652 14752 18050 15869 43753 38989 6234 3626 12601 6440 1767 475942 43638 10227 3349
is_linear=0
shrinkage=1


Tree=1
num_leaves=31
num_cat=0
split_feature=27 22 37 17 11 28 22 16 12 10 42 4 22 19 5 26 10 18 0 37 2 24 2 10 7 23 1 18 18 17
split_gain=65520.9 39047.4 20289.5 19068.1 32624.8 20087.3 22756.4 18369.3 33270.7 16508.9 21628.5 12904.5 11016.1 10359.8 9694.73 8500.18 7448.46 5624.06 4512.23 6001.41 3991.73 3914.4 3468.1 14047 2832.96 2818.56 2210.01 1924.04 1408.19 1296.86
threshold=1.6691263191983534 1.1083207905985584 16.499407534456804 1.5085197563377462 12.77604892346808 3.1415926535897212 1.1091885380684727 1.5921004743022951 17.892685854742655 4.6988738485215604 0.051034057376258914 10.722195678710937 1.1192948217735352 2.9810326324181662 4.5584973144531258 1.6817308348087388 3.0956975441323826 1.6072831112405197 9.2500000000000018 16.91500163523466 7.8151245117187509 1.1107513345902407 11.8440551757815 8.163378424142314 26.405761718750004 1.1107351891840664 10.858093261718503 1.4974432240977145 1.5484822094742734 1.5125512240183248
decision_type=2 2 2 2 2 2 2 2 2 2 2 2 2 2 2 2 2 2 2 2 2 2 2 2 2 2 2 2 2 2
left_child=1 18 15 4 9 7 16 29 -9 -2 13 14 25 20 -12 -3 -7 -10 19 -1 -11 -15 28 -24 -23 -4 -17 -6 -16 -5
right_child=3 2 12 5 27 6 -8 8 17 10 11 -13 -14 21 22 26 -18 -19 -20 -21 -22 24 23 -25 -26 -27 -28 -29 -30 -31
leaf_value=-0.11360501130957271 -0.11374644754543282 -0.1009720720062481 0.023412064232060385 -0.054550124020755021 0.45297531927377205 -0.11355732753968409 -0.11001248253997538 -0.11231879846220974 0.40494340021526853 0.46330051380974518 0.42433593976711004 0.38370805657761009 -0.10885615878440208 -0.084972768766119353 -0.10684753472326874 -0.11062610950437884 0.39233324616852927 -0.10183851707804037 -0.11347175621664551 0.40790234298612521 -0.10573430358443577 0.41585950948546513 0.4054927168916555 -0.10020425430592346 -0.11422013659918201 0.39890997492317726 0.39928493286672623 -0.11177701698887016 0.31574108828653347 -0.11011478306761567
leaf_weight=454.94518958777189 2381.8451824262738 1591.9003555551171 205.13840352743864 4635.843987390399 60.712104216217995 333.59510980546474 2174.291462957859 3757.5784633010626 2292.2816440239549 151.08572255820036 514.40185126662254 1069.30236081779 469.8395512253046 170.56054305285215 3203.3485249951482 99.859974339604378 2281.5251414179802 242.11070404201746 3513.9611921533942 428.50398860126734 669.77579581737518 4270.1058798655868 801.81593735516071 1744.096049785614 103.26088963449001 7827.5435644313693 571.08781582862139 9467.0877030640841 80.844444766640663 44723.097727663815
leaf_count=4320 22419 14901 1718 42133 575 3173 20579 35716 12478 912 2882 6024 4397 1558 29765 946 12705 2270 33424 2321 6165 24084 4485 16047 955 43216 3189 89652 458 424255
internal_value=0 0.188406 0.290969 -0.0372232 0.0368284 -0.0674712 0.129042 -0.0843835 0.0765327 0.12796 0.173012 0.0623431 0.361792 0.325951 0.00818029 0.0248546 0.3278 0.35653 -0.0626804 0.139344 -0.000999175 0.385014 -0.028538 0.0590612 0.403344 0.389321 0.323393 -0.108178 -0.096445 -0.104896
internal_weight=0 15162.8 10765.4 85128.6 24688.2 60440.3 4789.41 55650.9 6291.97 15160.4 12778.6 7413.81 8502.52 5364.79 6344.51 2262.85 2615.12 2534.39 4397.41 883.449 820.862 4543.93 5830.1 2545.91 4373.37 8032.68 670.948 9527.8 3284.19 49358.9
internal_count=867722 108432 68367 759290 205981 553309 36457 516852 50464 115754 93335 59661 49331 33674 53637 19036 15878 14748 40065 6641 7077 26597 50755 20532 25039 44934 4135 90227 30223 466388
is_linear=0
shrinkage=0.1


Tree=2
num_leaves=31
num_cat=0
split_feature=27 22 6 40 17 28 16 12 24 2 19 17 11 10 4 6 20 24 12 10 0 37 0 6 7 18 32 24 23 1
split_gain=49600.9 26068.2 15796.8 26978.1 17822.8 18611 15136.2 17567.5 13107.2 7923.18 7643.79 5314.35 10367.5 7696.89 5264.81 5126.54 4509.57 5576.16 6270.79 4294.71 3803.83 4299.87 3794.46 6340.46 3404.68 3366.14 2738.55 2275.37 2041.39 1998.29
threshold=1.6706755028202573 1.1083207905985584 2.7715089111328131 0.052820510477368611 1.5094145726091837 3.1415926535896705 1.5921004743022951 17.892685854742655 1.1187109612430595 6.3787231445312509 2.9771016588962822 1.5102669634181096 12.77604892346808 11.913774112845942 10.543571411132815 6.8668994140625008 3.053488553796885 1.1111999837051356 7.6781588168026067 3.0956975441323826 9.2500000000000018 16.91500163523466 4.6250000000000009 6.5801196289062522 26.405761718750004 1.6072831112405197 6.8011704101562502 1.110563025729739 1.1104878429151253 10.858093261718503
decision_type=2 2 2 2 2 2 2 2 2 2 2 2 2 2 2 2 2 2 2 2 2 2 2 2 2 2 2 2 2 2
left_child=1 20 -2 4 10 22 9 -8 14 -5 26 12 13 16 15 29 -11 -18 -19 -7 21 -1 -6 -24 27 -9 -4 -12 -16 -3
right_child=2 8 3 6 5 19 7 25 -10 11 24 -13 -14 -15 28 -17 17 18 -20 -21 -22 -23 23 -25 -26 -27 -28 -29 -30 -31
leaf_value=-0.11223063256742799 -0.1122272249979655 -0.10987124277356078 0.33110440185986062 0.27945713681691714 -0.1092811591702903 -0.11212556397311679 -0.1094508698792251 0.3021984711996637 -0.042291399967917663 -0.071998461111249121 -0.09502903833956429 -0.10622750362375843 -0.10713888285690068 0.28436110462986414 -0.028064736407982366 -0.11295793996509258 -0.10712809082989933 0.26803469121120199 -0.082734135175355897 0.29701932861802305 -0.1120183493520194 0.30478328727812631 0.55345641947486923 -0.096240689233988055 -0.11242384081152007 -0.099629818552182295 -0.10878742171845884 0.30280935499537498 0.29881484007063736 0.32613120822204089
leaf_weight=461.62078760564327 20539.204050250351 124.10009562969208 172.50156415998936 641.82090854644775 5460.2908896058798 292.31695582717657 2053.0813214629889 2725.4136606827378 1597.1297229528427 3486.5411617234349 147.88148967176676 22898.86811170727 8940.4319999217987 1183.917198702693 195.08967391401529 679.00615237653255 1035.1982532292604 1799.5432155951858 711.03753375262022 2097.0303981080651 3297.9731608182192 532.47056017816067 240.72192711383104 399.49201161414385 216.9718571305275 225.74097952991724 788.07378146797419 5158.5188747271895 9228.8301085308194 687.27735063433647
leaf_count=4768 211556 1273 857 3212 56121 3031 21281 12440 14559 33399 1456 235341 91725 5638 1695 6797 10420 9678 6841 9837 34234 2421 1759 4014 2208 2289 7933 24827 42852 3260
internal_value=0 0.152322 -0.0364251 -0.0107653 0.105728 0.0103838 -0.0489334 0.115185 0.225274 -0.0691138 0.230567 -0.074699 -0.0326182 0.0484709 0.264428 0.0897812 0.00875792 0.0881651 0.168691 0.246964 -0.0603331 0.111137 -0.082276 0.148047 0.275846 0.271462 -0.029791 0.291722 0.292048 0.259445
internal_weight=0 16803.5 81214.6 60675.4 14973.8 8489.85 45701.6 5004.24 12511.4 40697.4 6483.95 40055.5 17156.7 8216.24 10914.3 1490.38 7032.32 3545.78 2510.58 2389.35 4292.06 994.091 6100.5 640.214 5523.37 2951.15 960.575 5306.4 9423.92 811.377
internal_count=867722 111859 755863 544307 112043 74762 432264 36010 70436 396254 37281 393042 157701 65976 55877 11330 60338 26939 16519 12868 41423 7189 61894 5773 28491 14729 8790 26283 44547 4533
is_linear=0
shrinkage=0.1


Tree=3
num_leaves=31
num_cat=0
split_feature=27 28 6 42 6 16 12 17 31 22 24 2 19 17 11 4 4 4 12 0 0 10 27 18 2 24 10 18 2 10
split_gain=39475.1 19259.9 14121.8 22395.8 15639.2 13569.9 13042.2 9357.89 14008.5 8013.53 6524.4 5343.22 4679.59 3513.15 6768.16 5933.48 3321.04 3083.1 4529.19 3001.97 2955.48 3990.61 2665.51 2331.2 1859.74 1796.4 1360.62 1257.13 1151.5 6843.21
threshold=1.6720931398533287 3.1415926535890399 2.7715089111328131 0.055473985923476354 6.9546650390625002 1.5921004743022951 17.892685854742655 1.5110484125423349 -0.43284228515625051 1.1086388847828894 1.1195177356953954 6.3787231445312509 2.9711263003637334 1.5102669634181096 12.77604892346808 10.722195678710937 2.8128142089843755 10.543571411132815 7.6781588168026067 4.6250000000000009 9.2500000000000018 11.712046857903763 1.8043384871326291 1.6072831112405197 7.8151245117187509 1.1108421134049453 4.6988738485215604 1.4968385257718537 11.598815917968503 8.1147745551945434
decision_type=2 2 2 2 2 2 2 2 2 2 2 2 2 2 2 2 2 2 2 2 2 2 2 2 2 2 2 2 2 2
left_child=1 9 -2 4 7 11 -7 12 16 20 17 -5 24 14 15 22 -9 18 -11 -10 21 -1 28 -8 -4 -14 -27 -16 -13 -30
right_child=2 -3 3 5 -6 6 23 8 19 10 -12 13 25 -15 27 -17 -18 -19 -20 -21 -22 -23 -24 -25 -26 26 -28 -29 29 -31
leaf_value=-0.11103994205038514 -0.1109287367420794 -0.11161123726955502 0.27231659097166366 0.22928231643841279 -0.098231119289762636 -0.10781504500967241 0.24841322523687548 -0.026231290307890388 -0.10455490607079471 0.23751204687523605 -0.066449980720502372 -0.080929121898921416 -0.075328784877092436 -0.10601411706164028 0.35608751670028638 0.23039746463390723 0.2571292582933572 0.24546886008168581 -0.11195199113310178 0.4875215500429555 -0.11250197277698176 0.25473595754444495 0.16334970536900839 -0.097397902832995042 -0.10870360912347193 -0.11598310306014786 0.25294418166301086 -0.1092180032093355 0.26542125142014655 -0.099145634451037759
leaf_weight=490.32482870668173 18788.572529904544 2782.21788995713 163.90404905378819 573.68462235480547 3706.2594800069928 1864.0550062134862 2956.3893914967775 500.31303475797176 3405.4948481991887 898.54570773243904 817.70308901369572 2845.7767441570759 177.7179868966341 19910.185435973108 58.49391795694828 1205.8070686757565 2386.8463992923498 10233.227960258722 631.5149300545454 87.843687050044537 1113.0933971405029 761.49609887599945 752.89650627970695 208.7019939571619 586.46407963335514 101.5950905829668 6236.5872999429703 7892.6984889358282 743.39687942713499 1674.9697866439819
leaf_count=5506 211528 30874 740 2621 40494 21075 12391 4186 38238 4380 8028 29044 1806 222650 434 5279 10982 44130 6789 588 12198 3215 4436 2289 6342 863 27252 88351 3471 17542
internal_value=0 0.129969 -0.0355759 -0.0111829 0.0839346 -0.0517504 0.102026 0.133408 0.0450386 0.174939 0.206686 -0.0734389 0.211005 -0.0783889 -0.0421413 0.027931 0.208026 0.225673 0.0932748 -0.0896665 0.00605079 0.111465 -0.012643 0.225611 -0.0254768 0.238238 0.247031 -0.105795 -0.0378141 0.0129209
internal_weight=0 17728.1 76828.7 58040.1 17353 40687.1 5029.15 13646.8 6380.5 14945.9 12581 35657.9 7266.27 35084.2 15174 7222.85 2887.16 11763.3 1530.06 3493.34 2364.91 1251.82 6017.04 3165.09 750.368 6515.9 6338.18 7951.19 5264.14 2418.37
internal_count=867722 115120 752602 541074 131491 409583 35755 90997 53994 84246 63327 373828 37003 371207 148557 59772 15168 55299 11169 38826 20919 8721 54493 14680 7082 29921 28115 88785 50057 21013
is_linear=0
shrinkage=0.1


Tree=4
num_leaves=31
num_cat=0
split_feature=27 22 6 42 6 16 12 24 17 31 2 37 6 19 17 11 4 10 0 37 5 10 2 10 0 18 1 2 24 23
split_gain=32386.6 15152 12527.8 18945.2 12214.1 11834 10280.4 7924.04 6862.04 11068.3 4440.34 3479.99 3783.65 3300.18 2906.81 5468.41 3953.99 2633.24 2632.18 2833.79 2137.77 2427.53 2303.24 5620.23 2065.63 1744.45 1736.74 1556.94 1325.27 1264.56
threshold=1.6748843240710163 1.1081299332354495 2.7715089111328131 0.055473985923476354 6.9546650390625002 1.5921004743022951 17.892685854742655 1.119241536700357 1.5110484125423349 -0.43284228515625051 6.3787231445312509 16.91500163523466 6.8668994140625008 2.9731395596131387 1.5099844472583006 12.77604892346808 10.82266119384766 3.0956975441323826 9.2500000000000018 16.91500163523466 4.870869567871094 4.6988738485215604 11.598815917968503 8.1147745551945434 4.6250000000000009 1.6072831112405197 10.858093261718503 7.8151245117187509 1.110563025729739 1.1110386856020649
decision_type=2 2 2 2 2 2 2 2 2 2 2 2 2 2 2 2 2 2 2 2 2 2 2 2 2 2 2 2 2 2
left_child=1 18 -2 4 8 10 -7 11 13 17 -5 12 26 27 15 16 20 -10 19 -1 21 -12 -22 -24 -11 -8 -3 -4 -15 -13
right_child=2 7 3 5 -6 6 25 -9 9 24 14 29 -14 28 -16 -17 -18 -19 -20 -21 22 -23 23 -25 -26 -27 -28 -29 -30 -31
leaf_value=-0.10976315238538936 -0.1097802375758144 -0.11068479095372395 0.22986675985877822 0.19549946506584048 -0.095674601107998164 -0.10642279966285982 0.21477027360253254 -0.066804915718148603 -0.11079976198688457 -0.10287667297534658 -0.11433427915047395 0.035111315366420967 -0.088012067283823298 -0.090458379530010263 -0.1043743086216789 -0.10499083856824563 0.21178980223727689 0.20899475895254818 -0.1096088608410188 0.217691605855969 -0.11005557866674068 0.23238735731400292 0.22673218027519862 -0.082280515191457182 0.33636881790879758 -0.095215428178728134 0.23550700797242263 -0.1074561125932476 0.21167968627554973 0.21266139395084546
leaf_weight=471.71220262348652 17162.853806309402 169.85530032962561 184.11303453147411 603.67076770961285 3333.357002645731 1707.1041439920664 3070.1344466656446 1393.4172978103161 284.38022780418396 3121.573772162199 290.17295591533184 416.72415582090616 908.64531522244215 148.47791816294193 18305.882888123393 7071.4725560545921 934.84162080287933 2722.3074141144753 2904.3504599034786 600.99114790558815 2275.1896225512028 664.02238565683365 916.06055617332458 1646.3887951374054 110.86505601555109 192.95042227208614 986.75728034973145 532.78587935864925 6526.2326184660196 10727.651650764048
leaf_count=5765 211448 1783 784 2621 39387 21069 12391 14624 3251 38152 2777 2782 10462 1666 222838 86101 3848 11878 36043 2425 25900 3237 3997 17636 580 2289 4108 6262 27707 43911
internal_value=0 0.112875 -0.0352505 -0.0118409 0.0759124 -0.051351 0.0924164 0.160002 0.117874 0.0406456 -0.0731976 0.183927 0.0646971 0.18306 -0.0782501 -0.0435913 0.0209555 0.178748 -0.0601673 0.0736962 -0.00984644 0.126949 -0.0368284 0.0281897 -0.0878116 0.19644 0.184667 -0.0208253 0.204959 0.206022
internal_weight=0 18580.1 71804.8 54642 16964.1 37677.9 4970.19 14603.1 13630.7 6239.13 32707.7 13209.6 2065.26 7391.61 32104 13798.1 6726.68 3006.69 3977.05 1072.7 5791.83 954.195 4837.64 2562.45 3232.44 3263.08 1156.61 716.899 6674.71 11144.4
internal_count=867722 121903 745819 534371 129667 404704 35749 77670 90280 53861 368955 63046 16353 36419 366334 143496 57395 15129 44233 8190 53547 6014 47533 21633 38732 14680 5891 7046 29373 46693
is_linear=0
shrinkage=0.1


Tree=5
num_leaves=31
num_cat=0
split_feature=27 28 6 42 16 6 12 17 31 22 24 2 17 12 10 19 0 10 10 4 12 20 24 10 0 18 24 10 18 27
split_gain=27043.7 12472.6 11346.9 16081 10314.7 10220.9 8356.76 5348.55 9254.08 5251.43 4338.57 3429.31 2628.61 4811.11 3273.1 2597.08 2533.61 2990.81 2075.37 1949.71 3488.2 1906.61 2325.71 2803.02 1635.36 1367.05 1053.89 1042.95 1016.47 957.445
threshold=1.6748843240710163 3.1415926535890399 2.7715089111328131 0.056234575594015658 1.5921004743022951 6.9546650390625002 17.892685854742655 1.5110484125423349 -0.43284228515625051 1.1087050139521362 1.1198764219163333 6.3787231445312509 1.5114964635530415 12.142937304403487 11.913774112845942 2.9588727559139874 9.2500000000000018 11.712046857903763 3.0956975441323826 10.543571411132815 7.6781588168026067 3.0618607907064774 1.1115993029981321 8.0144144845215841 4.6250000000000009 1.6072831112405197 1.1110298099720761 4.6988738485215604 1.4974432240977145 1.9802512080220949
decision_type=2 2 2 2 2 2 2 2 2 2 2 2 2 2 2 2 2 2 2 2 2 2 2 2 2 2 2 2 2 2
left_child=1 9 -2 5 11 7 -6 15 18 16 19 -5 13 14 21 -4 17 -1 -9 20 -11 -13 -23 -24 -10 -8 -17 -28 -15 -14
right_child=2 -3 3 4 6 -7 25 8 24 10 -12 12 29 28 -16 26 -18 -19 -20 -21 -22 22 23 -25 -26 -27 27 -29 -30 -31
leaf_value=-0.10901068381201773 -0.10876219987290658 -0.10972028906292662 -0.04285169976697803 0.17053601538142199 -0.10512419410968561 -0.093544835664286785 0.19160665563379575 -0.10982070890501719 -0.10130778751659247 0.18247069418795769 -0.07928898360228348 -0.071330386814096286 -0.10526445608129874 0.26917197387518527 0.17418746164004453 -0.056442335642371312 -0.111955440966354 0.19848754360000892 0.18375426881729406 0.18886372145052749 -0.11000536444023792 -0.098530959803860479 0.17849610733322116 -0.09026592046459006 0.26732087171503677 -0.093061412123662812 -0.11757892216067521 0.19074219859906852 -0.10776873836105941 0.49037704120527609
leaf_weight=485.92016563564539 15667.513978973031 2398.9201550260186 569.502281665802 571.40759681910276 1560.8427613154054 3160.3022102713585 3093.8191113471985 263.1599440574646 2942.2036934643984 1113.6947091668844 719.29092374444008 2920.6385708525777 15965.361059747636 72.308738231658936 1089.0151052474976 184.68188425153494 1099.0769494175911 906.15225826948881 2834.0999103784561 10944.343233130872 643.32611447572708 800.84915238618851 1401.0873758643866 536.69829531013966 125.47986397147179 178.42522668838501 111.54792969673872 6670.4587477892637 6726.996693983674 27.032042369246483
leaf_count=6475 211448 31566 6339 2422 21044 40351 12386 3275 39159 5200 8107 33350 212615 476 4548 1946 14027 3661 12078 44814 8053 9839 6782 6329 588 2289 887 27749 89559 360
internal_value=0 0.102838 -0.0341926 -0.0116407 -0.050342 0.0685658 0.0852684 0.105958 0.0368783 0.134884 0.159635 -0.0721083 -0.0768019 -0.0443916 0.0154257 0.162469 0.00154218 0.0911515 0.158811 0.173165 0.0753818 -0.0151248 0.044816 0.104059 -0.0862295 0.176085 0.179253 0.185671 -0.10376 -0.104258
internal_weight=0 18310.7 67473.4 51805.9 34944.5 16861.4 4833.09 13701.1 6164.94 15911.8 13420.7 30111.4 29540 13547.6 6748.29 7536.19 2491.15 1392.07 3097.26 12701.4 1757.02 5659.27 2738.63 1937.79 3067.68 3272.24 6966.69 6782.01 6799.31 15992.4
internal_count=867722 121903 745819 534371 401999 132372 35719 92021 55100 90337 66174 366280 363858 150883 60848 36921 24163 10136 15353 58067 13253 56300 22950 13111 39747 14675 30582 28636 90035 212975
is_linear=0
shrinkage=0.1


Tree=6
num_leaves=31
num_cat=0
split_feature=27 28 6 42 16 12 12 22 23 24 2 0 10 5 2 17 11 4 7 12 22 20 24 10 10 4 18 10 23 18
split_gain=22863.6 10360.7 10200.2 13827.3 9056.13 8431.3 6944.99 4414.07 4303.92 3787.68 2933.72 2763.11 2859.33 2391.13 11835.4 2337.11 4149.31 2456.12 1765.19 2978.13 1761.78 1496.12 1945.28 2206.94 1183.23 1107.82 1104.44 936.961 770.254 767.809
threshold=1.6762431059334741 3.1415926535890399 2.7715089111328131 0.056234575594015658 1.5921004743022951 7.6781588168026067 17.892685854742655 1.1089068714046655 1.1193538523108184 1.1205654904956261 6.3787231445312509 9.2500000000000018 11.712046857903763 4.870869567871094 11.598815917968503 1.5117135052437158 12.77604892346808 10.82266119384766 33.812988281250007 7.6781588168026067 1.1093954625864229 3.0618607907064774 1.1112794993120094 8.0750553289655631 3.0956975441323826 6.3915756835937509 1.6072831112405197 4.6988738485215604 1.1105763704228009 1.4974432240977145
decision_type=2 2 2 2 2 2 2 2 2 2 2 2 2 2 2 2 2 2 2 2 2 2 2 2 2 2 2 2 2 2
left_child=1 7 -2 5 10 8 -6 11 13 18 -5 12 -1 24 -15 16 17 21 19 25 -10 -12 -23 27 -4 -9 -8 -24 -20 -18
right_child=2 -3 3 4 6 -7 26 9 20 -11 15 -13 -14 14 -16 -17 29 -19 28 -21 -22 22 23 -25 -26 -27 -28 -29 -30 -31
leaf_value=-0.1081950867355306 -0.10785798954395004 -0.10876393166821925 -0.10875929546856139 0.15222264976035935 -0.1039085004162125 -0.086256916170628459 0.17464800571977718 -0.11438780208549626 0.13487738604412011 -0.10015239453222109 -0.062809280400949311 -0.11376966159482259 0.18194198258474714 -0.10922184157672835 0.18834974187096945 -0.10325602523689228 0.20127563866321135 0.16684485109100478 -0.053656268667249069 -0.091106062933349066 -0.10407632743376516 -0.10264440361815015 -0.11831858087785459 -0.093251812931448158 0.1731505413629624 0.19765061476820853 -0.090917636352961462 0.17479702813848366 0.17636613105609461 -0.10697252482395199
leaf_weight=494.649200566113 14286.144856110215 2217.981669485569 152.92391740530729 575.83029236644506 1427.8534403517842 3048.315995901823 3056.3579777479172 127.03900818526745 401.7636845856905 598.47876934707165 2887.8308540508151 1130.3303986340761 1084.1355661451817 2167.5449781417847 3486.5300342962146 14514.018879555166 81.889928564429283 880.84197103977203 147.61132401973009 723.63740658760071 1329.8662366867065 698.3621244058013 118.42254610359669 488.10271436721087 5635.9970543533564 1089.8369090557098 165.06011509895325 1378.5783276259899 10565.18753747642 6114.2034328132868
leaf_count=7175 211401 31957 2095 2422 21042 41198 12386 1209 2083 7454 33872 15254 4423 28013 14727 211112 461 3614 984 9297 18837 9511 940 6272 24459 4519 2289 6419 43138 89159
internal_value=0 0.0937531 -0.0335737 -0.0117421 -0.049489 0.0636155 0.0796714 0.121896 0.0982927 0.145673 -0.0711381 0.00558627 0.0910391 0.120527 0.0742728 -0.0758732 -0.0444511 0.011677 0.1573 0.0695421 -0.0486355 -0.0128556 0.0409025 0.0914025 0.165703 0.165075 0.161041 0.15161 0.173197 -0.102899
internal_weight=0 18178.9 62896.4 48610.3 32387.4 16222.9 4649.27 15960.9 13174.6 13251.8 27738.1 2709.12 1578.78 11443 5654.08 27162.3 12648.2 6452.14 12653.3 1940.51 1731.63 5571.3 2683.47 1985.1 5788.92 1216.88 3221.42 1497 10712.8 6196.09
internal_count=867722 125410 742312 530911 399499 131412 35717 93453 90214 66601 363782 26852 11598 69294 42740 361360 150248 60628 59147 15025 20920 57014 23142 13631 26554 5728 14675 7359 44122 89620
is_linear=0
shrinkage=0.1


Tree=7
num_leaves=31
num_cat=0
split_feature=27 6 42 28 16 12 12 23 22 24 0 10 2 17 12 4 20 8 22 4 12 20 24 12 17 31 10 18 4 17
split_gain=19542.2 9254.71 11923.8 8760.63 7977.85 7249.17 5850.41 3742.91 3569.46 3128.57 2411.98 2397.21 2329.02 2125.1 3637.2 2124 2028.76 3004.57 1555.84 1417.04 2767.31 1384.2 1649.96 2194.32 1278.2 3017.66 945.689 914.995 911.008 833.608
threshold=1.6762431059334741 2.7715089111328131 0.056975637222897557 3.1415926535890399 1.5921004743022951 7.7696992607316675 17.892685854742655 1.1193538523108184 1.1089068714046655 1.1205654904956261 9.2500000000000018 11.712046857903763 6.3787231445312509 1.512932599157752 12.142937304403487 10.82266119384766 3.0406322254949987 15.595214843750002 1.1093954625864229 10.543571411132815 7.6781588168026067 3.0608055450272578 1.1116755705166359 7.6781588168026067 1.5140633873864437 -0.45294189453124944 4.6988738485215604 1.6008669581785553 6.3915756835937509 1.5105253997255093
decision_type=2 2 2 2 2 2 2 2 2 2 2 2 2 2 2 2 2 2 2 2 2 2 2 2 2 2 2 2 2 2
left_child=3 -2 5 8 12 7 -6 16 10 19 11 -1 -4 14 15 21 17 -3 -9 20 28 -14 -23 26 -18 -26 -24 -8 -10 -28
right_child=1 2 4 -5 6 -7 27 18 9 -11 -12 -13 13 -15 -16 -17 24 -19 -20 -21 -22 22 23 -25 25 -27 29 -29 -30 -31
leaf_value=-0.10735467605305656 -0.10705329438149969 0.15095267752433272 0.13847415677697822 -0.10790195674238579 -0.1027473542175962 -0.090325256406414284 0.16216554310313558 0.12098669688703495 -0.11285825250197508 -0.098298943026398522 -0.11264399699864694 0.16800813404552262 -0.063707107353021653 -0.10306002127820729 -0.10184841826236546 0.15331467382484651 0.15794326456882821 -0.076618745548577061 -0.10308140398743702 0.15920232390853262 -0.10828972848014649 -0.094471898691586717 -0.11546460692609904 -0.082309439286995023 0.14308584701804783 -0.076035252955594032 0.16019666690663803 -0.080502734310751112 0.1817242497605206 0.57541297957451121
leaf_weight=450.90127756819129 13018.841336943209 1065.3646912053227 524.18612585961819 2022.1251689679921 1303.3144077286124 2704.8147112578154 2962.9646564126015 408.1108433008194 116.4264067709446 551.21980793774128 1032.4652235805988 1057.9170806109905 2859.6521478891373 12756.384381234646 5825.5555106475949 862.92754125595093 6060.4292473569512 1273.850651204586 1287.5790289342403 10545.87675987184 617.9574898481369 707.26738047599792 121.42033605277538 566.06899443268776 2125.3746323138475 892.3797056004405 1221.3428832143545 163.97829884290695 1067.8419849872589 50.344984173774719
leaf_count=7175 211401 5035 2210 31957 21003 40167 12334 2106 1209 7454 15254 4423 35846 202966 91984 3600 27497 16005 19828 44358 9061 10067 1121 7604 10211 13224 5318 2336 4519 449
internal_value=0 -0.032664 -0.0114924 0.0878201 -0.0486115 0.0587321 0.0752502 0.0894779 0.113452 0.134793 0.00512784 0.0857176 -0.0701348 -0.0745139 -0.0447015 0.00740552 0.110067 0.0270256 -0.0491537 0.145198 0.0632521 -0.0153789 0.0364511 0.0837146 0.131465 0.0782896 0.151176 0.14944 0.152764 0.176635
internal_weight=0 58762.2 45743.3 17462.7 29925.4 15817.9 4430.26 13113.1 15440.6 12899.3 2541.28 1508.82 25495.2 24971 12214.6 6389.02 11417.4 2339.22 1695.69 12348.1 1802.23 5526.1 2666.44 1959.18 9078.18 3017.75 1393.11 3126.94 1184.27 1271.69
internal_count=867722 742312 530911 125410 396838 134073 35673 93906 93453 66601 26852 11598 361165 358955 155989 64005 71972 21040 21934 59147 14789 60405 24559 14492 50932 23435 6888 14670 5728 5767
is_linear=0
shrinkage=0.1


Tree=8
num_leaves=31
num_cat=0
split_feature=27 6 42 28 16 12 12 23 22 24 6 10 27 20 8 17 11 33 2 22 33 4 12 17 31 2 10 10 10 42
split_gain=16794.4 8410.21 10289.2 7476.06 6985.77 6138.12 4990.88 3100.13 2961.37 2652.13 2640.74 2188.2 2076.28 1670.64 2456.66 1536.3 2712.89 2072.12 1605.49 1420.15 1213.1 1129.79 2336.93 1094.9 2526.19 1080.89 2710.36 833.779 805.01 799.714
threshold=1.6762431059334741 2.7715089111328131 0.056975637222897557 3.1415926535890399 1.5921004743022951 7.7696992607316675 17.892685854742655 1.1192671071488647 1.1091217829642999 1.1205654904956261 12.596133911132815 11.712046857903763 1.8436389845952379 3.036101602272105 15.595214843750002 1.5076583088211324 12.77604892346808 -16.40527026367187 7.9902954101562509 1.1093954625864229 -4.4685246582031235 10.543571411132815 7.6781588168026067 1.5131311260140337 -0.40061083984374973 11.598815917968503 8.163378424142314 3.0956975441323826 4.6988738485215604 0.1482076006112911
decision_type=2 2 2 2 2 2 2 2 2 2 2 2 2 2 2 2 2 2 2 2 2 2 2 2 2 2 2 2 2 2
left_child=3 -2 5 8 12 7 -6 13 10 21 11 -1 15 14 -3 16 17 29 28 -9 -17 22 -10 -15 27 -20 -27 -25 -19 -4
right_child=1 2 4 -5 6 -7 -8 19 9 -11 -12 -13 -14 23 -16 20 -18 18 25 -21 -22 -23 -24 24 -26 26 -28 -29 -30 -31
leaf_value=-0.10663738698686608 -0.10633563483792983 0.13804838452142118 0.1732404716906687 -0.10713052257810679 -0.10164132877769766 -0.088171006973833635 0.14021823332662431 0.1094468487820018 0.14326754167042777 -0.096473216419234994 -0.11669861865144858 0.15782948953410386 0.081897330166667448 0.14539787030519322 -0.081826371866681874 -0.099531497644071931 -0.099629477448996737 -0.11113717699712287 -0.10373025679073554 -0.10185798735383944 0.13406261567313779 0.14978986429835872 -0.1074514632880324 -0.11015251850853264 -0.071414628847581249 0.16803263637090099 -0.096673002993287058 0.14558750690501437 0.20509878115733904 -0.11346777978843058
leaf_weight=422.52778255566955 11855.36576577276 949.64806753396988 851.75486667454243 1842.1979133337736 1191.4711597859859 2504.1949720755219 3005.1607199683785 433.28838951513171 1138.3889104612172 507.72630013525486 1009.2521809898317 1205.3172903060913 884.20296646654606 5982.6512770690024 1093.0240192115307 13358.427034206688 4377.1392002105713 100.43112240359187 1728.1871525272727 1196.063758328557 226.08038304373622 9987.275671236217 552.05339989066124 135.98841776698828 877.58229561150074 648.7616330832243 958.00655308365822 2038.3440879806876 405.55108794569969 109.83177749812603
leaf_count=7367 211401 4543 3659 31957 21003 40167 14670 2241 5725 7454 15606 5219 7706 27525 14838 227217 75979 1204 25196 20091 976 43203 8879 1763 13865 2902 13660 9040 1921 745
internal_value=0 -0.0317541 -0.0112181 0.0828593 -0.0473489 0.0549232 0.0715516 0.083124 0.106472 0.127265 0.0103898 0.0891838 -0.068449 0.102068 0.0203945 -0.0742887 -0.0426862 0.00921326 -0.0236529 -0.0456664 -0.0956439 0.136993 0.0613894 0.120534 0.0717929 -0.0488359 0.0102067 0.129593 0.14233 0.140493
internal_weight=0 54911.2 43055.8 16664.7 27845 15210.8 4196.63 12706.6 14822.5 12185.4 2637.1 1627.85 23648.4 11077.2 2042.67 22764.2 9179.66 4802.52 3840.94 1629.35 13584.5 11677.7 1690.44 9034.57 3051.91 3334.96 1606.77 2174.33 505.982 961.587
internal_count=867722 742312 530911 125410 396838 134073 35673 93906 93453 65261 28192 12586 361165 71574 19381 353459 125266 49287 44883 22332 228193 57807 14604 52193 24668 41758 16562 10803 3125 4404
is_linear=0
shrinkage=0.1


Tree=9
num_leaves=31
num_cat=0
split_feature=27 6 42 28 16 12 12 23 22 11 24 10 27 2 5 17 11 4 22 6 11 4 7 12 2 18 2 10 2 10
split_gain=14495.5 7645.33 8910.59 6421.4 6118.42 5232.43 4240.95 2595.92 2456.37 2491.4 2245.58 1910.68 1835.12 1576.64 7051.62 1408.79 2432.23 1724.52 1171.63 1077.98 1011.5 987.464 956.94 1769.07 880.786 832.848 809.552 1243.52 1037.4 2661.32
threshold=1.6762431059334741 2.7715089111328131 0.056975637222897557 3.1415926535890399 1.5921004743022951 7.7696992607316675 17.892685854742655 1.1193538523108184 1.1091885380684727 13.044386724864745 1.1205654904956261 11.712046857903763 1.832070694172828 12.034240722656003 4.870869567871094 1.5102669634181096 12.77604892346808 10.722195678710937 1.1094699011262656 6.9546650390625002 7.2585410875427181 2.8128142089843755 33.812988281250007 7.6781588168026067 5.9633178710937509 1.6008669581785553 7.9902954101562509 4.6988738485215604 11.598815917968503 8.1147745551945434
decision_type=2 2 2 2 2 2 2 2 2 2 2 2 2 2 2 2 2 2 2 2 2 2 2 2 2 2 2 2 2 2
left_child=3 -2 5 8 12 7 -6 13 9 11 22 -1 15 14 21 16 17 26 -9 -14 -16 -3 23 -10 -17 -8 27 -4 -28 -30
right_child=1 2 4 -5 6 -7 25 18 10 -11 -12 -13 19 -15 20 24 -18 -19 -20 -21 -22 -23 -24 -25 -26 -27 28 -29 29 -31
leaf_value=-0.10597719785312271 -0.1056949083738183 -0.036010092853153125 -0.11000103879757479 -0.1064384059538295 -0.10057022382024888 -0.085991002413747575 0.14427628882075202 0.098487633518560255 0.13195250506235084 -0.11761836580174799 -0.094658740707599442 0.14920669686018947 0.11018533558393334 0.154994965076345 -0.11077193007995588 0.12936718984583354 -0.098775434852431399 0.12545802595117192 -0.1007960234323465 -0.1059815328100619 0.075942191485247307 0.14212982642614222 0.14129646019959047 -0.08639316740755687 -0.10096649023314973 -0.082537751314232771 -0.10283015273021701 0.18976737003971997 0.15724417439267013 -0.091376711201477001
leaf_weight=387.15134055539966 10788.901387777179 331.29753874242306 216.42775043845177 1677.1751514673233 1088.989326801151 2320.4344120584428 2731.7948104515672 406.3242634832859 1113.6903792582452 941.54824115335941 467.7715662419796 1211.8637676239014 882.08318522199988 3106.0993179157376 1839.8651511743665 168.52332262322307 4447.5621516853571 935.10417750477791 1076.9499096423388 312.39360337331891 344.46271715313196 5122.0035159885883 9475.2851843498647 556.48570024967194 11167.670186057687 172.09065312892199 1601.3323418870568 383.74967679381371 716.67512935400009 1078.4106123447418
leaf_count=7414 211401 2860 2822 31957 21003 40167 12334 2129 5725 15710 7454 5483 6251 14671 27905 730 84012 4187 19805 5257 2491 24045 42600 9067 210548 2336 25447 1814 3280 16817
internal_value=0 -0.0309005 -0.0109513 0.0785772 -0.0461246 0.0516773 0.067723 0.0778039 0.100501 0.0114327 0.119986 0.0874219 -0.0668722 0.0949245 0.0704948 -0.0738217 -0.0451519 0.00320748 -0.0462048 0.0536508 -0.0813276 0.131308 0.128994 0.0592019 -0.0975424 0.130835 -0.0253961 0.081669 -0.0443155 0.0078834
internal_weight=0 51239.1 40450.2 15831 25902.8 14547.4 3992.87 12227 14153.8 2540.56 11613.2 1599.02 21909.9 10743.7 7637.63 20715.5 9379.26 4931.7 1483.27 1194.48 2184.33 5453.3 11145.5 1670.18 11336.2 2903.89 3996.6 600.177 3396.42 1795.09
internal_count=867722 742312 530911 125410 396838 134073 35673 93906 93453 28607 64846 12897 361165 71972 57301 349657 138379 54367 21934 11508 30396 26905 57392 14792 211278 14670 50180 4636 45544 20097
is_linear=0
shrinkage=0.1


Tree=10
num_leaves=31
num_cat=0
split_feature=27 6 42 28 16 12 12 23 22 0 24 10 27 2 5 17 11 4 22 9 2 4 12 4 18 10 2 4 10 4
split_gain=12570.1 6895.26 7790 5563.38 5436.58 4422.24 3672.17 2198.75 2148.2 2230.56 2017.49 1759.36 1653.65 1297.65 5971.94 1249.69 2068.43 1380.88 1076.34 1011.15 867.533 847.675 1790.84 899.519 841.956 837.178 2415.89 1012.77 1195.95 821.28
threshold=1.677502542970877 2.7715089111328131 0.056975637222897557 3.1415926535890399 1.5921004743022951 7.7696992607316675 17.892685854742655 1.1192671071488647 1.1091885380684727 9.2500000000000018 1.1205654904956261 11.712046857903763 1.8283859147927173 12.034240722656003 4.870869567871094 1.512932599157752 12.77604892346808 10.722195678710937 1.1092570350150042 22.679626464844002 11.598815917968503 10.543571411132815 7.6781588168026067 6.3915756835937509 1.4979662372602978 8.163378424142314 11.934143066406003 4.690220825195313 4.6988738485215604 2.8128142089843755
decision_type=2 2 2 2 2 2 2 2 2 2 2 2 2 2 2 2 2 2 2 2 2 2 2 2 2 2 2 2 2 2
left_child=3 -2 5 8 12 7 -6 13 9 11 21 -1 15 14 29 16 17 25 -9 -14 -16 22 23 -10 -18 26 27 28 -4 -3
right_child=1 2 4 -5 6 -7 -8 18 10 -11 -12 -13 19 -15 20 -17 24 -19 -20 -21 -22 -23 -24 -25 -26 -27 -28 -29 -30 -31
leaf_value=-0.10556367459449086 -0.10512196582977001 -0.031526354219980193 -0.10793480158371004 -0.10584338014587875 -0.099521352579233155 -0.083535876231653955 0.12463929339363333 0.091936868210461709 -0.11458836832710206 -0.11608116977320292 -0.093247707307012845 0.14214599330022568 0.097414654546121138 0.14577932732043747 -0.10748223577071842 -0.099095517435174557 0.22894656506909306 0.11192631313807991 -0.09878146848862257 -0.10104955973889579 0.077337593503244817 0.13327660588597895 -0.10616865138904848 0.1558935627221239 -0.10417374597611258 -0.094968853549435628 0.16426087962520877 -0.099702167933649763 0.15135683156608928 0.13333595993894815
leaf_weight=378.97953390330076 9809.7235033474863 322.00158527120948 301.41179966181517 1546.8896153345704 995.17048742249608 2125.1840719170868 2751.0779307931662 418.75879492983222 139.97142367810011 897.66369247063994 456.27727656066418 1177.8907428309321 940.52780442684889 2935.146260805428 1703.5296325907111 9522.6867910474539 77.256694242358208 856.74799340963364 1008.7249792963266 353.09010561555624 298.47204960137606 9154.397396594286 484.49839079380035 1011.1505506038666 4236.3496617078781 1274.199122428894 697.3696610480547 1407.7903223671019 434.03732597827911 4905.7366471886635
leaf_count=7888 211337 2807 4753 32318 21002 39659 14670 2185 1362 16507 7946 5612 6671 14471 28131 195890 508 4032 20126 6527 1849 43104 9221 4781 88224 22261 3629 24117 2240 23894
internal_value=0 -0.0304658 -0.0109703 0.0739239 -0.0455077 0.0490725 0.0650922 0.073383 0.0942205 0.00946173 0.112719 0.0818475 -0.0661199 0.0897036 0.0669379 -0.073642 -0.0475374 -0.00357314 -0.0428334 0.0432443 -0.079928 0.121429 0.0551193 0.123004 -0.0982076 -0.0276214 0.00258835 -0.0500168 0.0450904 0.123181
internal_weight=0 47375 37565.3 15247.7 23847.7 13717.6 3746.25 11592.4 13700.8 2454.53 11246.3 1556.87 20101.5 10164.9 7229.74 18807.8 9285.16 4971.56 1427.48 1293.62 2002 10790 1635.62 1151.12 4313.61 4114.81 2840.61 2143.24 735.449 5227.74
internal_count=867722 738983 527646 128739 394524 133122 35672 93463 96421 30007 66414 13500 358852 71152 56681 345654 149764 61032 22311 13198 29980 58468 15364 6143 88732 57000 34739 31110 6993 26701
is_linear=0
shrinkage=0.1


Tree=11
num_leaves=31
num_cat=0
split_feature=27 6 42 16 28 12 12 38 4 22 22 12 24 4 4 27 17 3 4 5 18 23 21 0 18 16 11 2 22 12
split_gain=10956.2 6224.56 6823.68 4867.14 4866.97 3837.09 3149.68 2073.44 6136.12 2299.47 1913.21 2006.92 1821.95 1636.94 1523.81 1423.53 1055.54 1743.58 1173.22 894.206 773.982 765.908 757.447 721.477 697.738 676.438 1187.8 623.728 596.72 592.486
threshold=1.6788364715268018 2.7715089111328131 0.057701795438070608 1.5921004743022951 3.1415926535890399 7.6781588168026067 17.892685854742655 10.985675564222019 4.690220825195313 1.1159936396505052 1.1091885380684727 12.58789408590051 1.1204780928832239 10.722195678710937 2.8128142089843755 1.8283859147927173 1.512932599157752 18.510559082031502 10.82266119384766 4.870869567871094 1.6008669581785553 1.1176903536126936 3.2116075513671336 2.9500000000000006 1.4984869251007558 1.5028278018522898 8.8539874867956492 11.413635253906003 1.1117226793076112 7.7696992607316675
decision_type=2 2 2 2 2 2 2 2 2 2 2 2 2 2 2 2 2 2 2 2 2 2 2 2 2 2 2 2 2 2
left_child=4 -2 5 15 10 7 -5 8 9 14 11 13 21 -1 -3 16 17 18 29 -17 -8 27 -21 -18 28 -7 -27 -12 -19 -4
right_child=1 2 3 6 -6 25 20 -9 -10 -11 12 -13 -14 -15 -16 19 23 24 -20 22 -22 -23 -24 -25 -26 26 -28 -29 -30 -31
leaf_value=-0.099379484306368199 -0.10460865708384073 -0.053136944839226596 0.0017459677078094172 -0.098480767038062189 -0.1053178887136316 -0.10062187252533139 0.13201273173670597 0.14434895444477844 -0.099168025576455696 -0.099650145642481841 -0.11221641513197665 -0.11466652010027707 -0.088220878570974437 0.13829897838844085 0.13343043399077617 0.12854701577903177 0.12727008743056176 -0.12771245967803888 0.11995785622786226 0.15819479491469476 -0.083938283109121048 -0.029336956544858434 -0.10031086306662301 -0.10190593029964566 -0.10373076243531716 0.3195834226834145 -0.069591586274657891 0.12325508251508487 0.39697628090411041 -0.08050551262727515
leaf_weight=390.73515475913882 8915.4704448916018 480.50884481146932 2534.9017729014158 908.99729742482305 1428.9884994886816 1801.4473452717066 2455.2699887230992 2804.4439724832773 2173.4944634437561 539.60901862382889 113.78628401085734 856.95770793035626 458.61518697440624 1121.3983402252197 4923.5885229557753 576.952517837286 139.63166393712163 37.068190518766642 635.18192100524902 146.0848169028759 177.99836791306734 352.83298288285732 505.79430532455444 8471.4390679858625 3819.3683804869652 112.09157973155379 261.10892322286963 9882.8807239532471 52.197623394429684 1338.0457791686058
leaf_count=8513 211288 4403 33086 20991 32743 35653 12329 14131 39883 10144 1244 17358 8619 5658 24621 2998 668 316 3071 1038 2336 4901 8913 192895 87084 914 5107 53298 281 23238
internal_value=0 -0.0300367 -0.0109842 -0.0452596 0.0699724 0.0460677 0.0620132 0.070221 0.0446103 0.0971871 0.0889816 0.00759482 0.106821 0.0768829 0.116842 -0.0660733 -0.0735746 -0.0483913 -0.00601117 0.0378723 0.117415 0.115464 -0.0423803 -0.0981898 -0.0972715 -0.0752367 0.047298 0.120575 0.179096 -0.0266707
internal_weight=0 43810.7 34895.2 21798.9 14606.2 13096.3 3542.27 10921.6 8117.2 5943.71 13177.2 2369.09 10808.1 1512.13 5404.1 18256.7 17027.8 8416.76 4508.13 1228.83 2633.27 10349.5 651.879 8611.07 3908.63 2174.65 373.201 9996.67 89.2658 3872.95
internal_count=867722 735388 524100 389244 132334 134856 35656 93182 79051 39168 99591 31529 68062 14171 29024 353588 340639 147076 59395 12949 14665 59443 9951 193563 87681 41674 6021 54542 597 56324
is_linear=0
shrinkage=0.1


Tree=12
num_leaves=31
num_cat=0
split_feature=27 6 42 16 28 12 12 2 5 22 18 11 17 23 5 4 3 11 3 10 17 11 28 16 20 12 42 18 16 10
split_gain=9519.35 5663.28 5957.9 4269.64 4222.91 3337.79 2752.52 1788.06 5326.42 1953.79 1768.01 5194.47 2296.45 1327.29 2805.62 1321.4 1271.86 1632.25 2572.08 1881.72 1016.92 1588.06 863.831 793.16 760.528 696.993 677.845 676.402 610.102 899.965
threshold=1.6788364715268018 2.7715089111328131 0.057701795438070608 1.5921004743022951 3.1415926535890399 7.6781588168026067 17.892685854742655 11.8440551757815 4.870869567871094 1.115788726125339 1.5031743101269754 12.77604892346808 1.5068278845780509 1.1182990611180548 4.870869567871094 2.8128142089843755 17.980041503906005 7.2585410875427181 11.536254882812502 11.712046857903763 1.5119521795764388 7.6050358904964215 3.1415926535884986 1.512609904855325 3.0173807415628544 16.372732715283885 0.14046190074575063 1.6072831112405197 1.502420959208685 8.4918420613639309
decision_type=2 2 2 2 2 2 2 2 2 2 2 2 2 2 2 2 2 2 2 2 2 2 2 2 2 2 2 2 2 2
left_child=4 -2 5 13 10 7 -5 8 9 15 25 12 -12 14 22 -3 17 -16 20 -20 -19 -22 -4 -24 -14 -1 -21 -8 -7 -30
right_child=1 2 3 6 -6 28 27 -9 -10 -11 11 -13 24 -15 16 -17 -18 18 19 26 21 -23 23 -25 -26 -27 -28 -29 29 -31
leaf_value=-0.0050145462866885183 -0.10414895496077048 -0.048801822311181249 -0.10804928347602645 -0.097445419394826982 -0.10480890522676914 -0.10003941472714982 0.12648723274214527 0.13794843951188571 -0.097570487552091953 -0.09361999697528918 0.12056843805992308 -0.12804924842766038 -0.099337562028041268 -0.099728483733435472 -0.10581902451567851 0.12700241211693802 -0.096641958879513226 0.16017506270462964 -0.087939830139505903 0.15051904312716824 -0.078033887943354294 1.2784120165286614 0.12349276977540016 0.56143635927091129 0.15176505168074531 0.13553347680244535 -0.11244982301827169 -0.089196272841090107 0.26549602525820515 -0.065232490463723952
leaf_weight=378.20227985829115 8100.8510772399604 470.668741684407 159.51444827765226 830.79561334103346 1298.961622197181 1636.3025735355914 2316.735804118216 2650.4231123030186 2000.8186702877283 513.86416634172201 4679.4945569597185 1316.2744413018227 716.67576245591044 6503.5480094850063 1573.7729799710214 4665.670983068645 4724.3734731115401 663.25594057515264 1672.9845639839768 588.57569489628077 14.858820307999848 20.592716030776501 916.09660882502794 43.309740833938122 145.02651832252741 5261.7726122438908 117.60815431922674 155.13909638673067 121.22243370860815 256.10468161478639
leaf_count=4630 211288 4397 2696 20991 32743 35429 12376 14008 40049 10292 27559 22882 15644 157320 31063 24436 114775 3456 34415 3007 343 298 4712 369 842 28034 1134 2289 945 5300
internal_value=0 -0.0293153 -0.0107289 -0.0440169 0.0667982 0.0441457 0.0600249 0.0671629 0.0426418 0.092293 0.0846348 0.0505242 0.0929432 -0.0642314 -0.0422344 0.110893 -0.0600958 -0.0229782 0.0193797 -0.0301598 0.188067 0.709884 0.107435 0.143263 -0.0570764 0.126109 0.106724 0.112951 -0.0736069 0.0410194
internal_weight=0 40717.1 32616.2 20301.2 13796.4 12315.1 3302.67 10301.4 7651.02 5650.2 12497.4 6857.47 5541.2 16998.5 10494.9 5136.34 9376.02 4651.65 3077.88 2379.17 698.707 35.4515 1118.92 959.406 861.702 5639.97 706.184 2471.87 2013.63 377.327
internal_count=867722 735388 524100 389244 132334 134856 35656 93182 79174 39125 99591 66927 44045 353588 196268 28833 188491 73716 42653 38556 4097 641 7777 5081 16486 32664 4141 14665 41674 6245
is_linear=0
shrinkage=0.1


Tree=13
num_leaves=31
num_cat=0
split_feature=6 0 27 20 12 16 17 5 5 12 31 18 28 12 12 4 0 12 4 16 36 10 4 17 16 22 33 16 8 0
split_gain=8490.08 5635.41 5624.9 3927.06 4165.04 5001.8 3174.34 2133.87 6258.18 1469.03 2032.51 1843.87 1238.5 1125.85 1085.87 1042.87 1039.07 961.667 904.119 744.228 815.309 638.246 569.907 553.125 539.397 538.756 2291.54 509.814 610.815 493.819
threshold=2.8024115600585944 20.250000000000004 1.6569800052850605 3.0449945924732646 7.8051277468657654 1.5921004743022951 1.5076583088211324 6.8332065429687505 4.870869567871094 12.142937304403487 -0.35640771484374845 1.502558911314573 3.1415926535884986 17.892685854742655 16.721596370013113 10.543571411132815 2.9500000000000006 7.6781588168026067 2.8128142089843755 1.5097200843919742 0.13756130654509288 7.0788456272988887 16.211461059570315 1.4889387933639286 1.509084508572242 1.1100124113585339 -19.795067382812494 1.5005211435537296 22.481933593750004 4.6250000000000009
decision_type=2 2 2 2 2 2 2 2 2 2 2 2 2 2 2 2 2 2 2 2 2 2 2 2 2 2 2 2 2 2
left_child=-1 2 15 6 7 -6 9 8 12 10 27 -11 -5 -7 16 17 -8 -2 -14 20 -12 -10 -15 -17 -20 26 -25 -4 -29 -9
right_child=1 -3 3 4 5 13 14 29 21 11 19 -13 18 22 -16 23 -18 -19 24 -21 -22 -23 -24 25 -26 -27 -28 28 -30 -31
leaf_value=-0.10169901415497225 0.12476214595736415 -0.10472425916102553 -0.076848729997161538 -0.1094188424592088 -0.092577306825334743 -0.096745262592802195 0.10586939569242648 -0.1087816010041224 -0.10748610127612912 0.14700561660258629 0.11430781621577697 -0.10539580094415518 -0.042043284212022206 -0.10845194251903632 0.077723776784248189 -0.10085261755452468 -0.10338896155003544 -0.10495068680518629 0.12639242567039127 -0.074727264057900686 -0.12288041827486135 0.053208779007118824 0.12421015821867221 -0.14162807187375537 0.3240345253795418 0.12585027329189999 0.13017995194764484 -0.10815141782106835 0.14490878838406407 0.14522860435188148
leaf_weight=7698.8904855959117 300.30403131991625 3753.5355318412185 1324.5668548345566 246.03273463249207 4208.3402703814209 292.8756517060101 246.94299397990108 78.328345615416765 2112.4876587204635 351.06829959526658 2792.297621730715 1648.5437258593738 316.95326887071133 111.0011182539165 385.24239785969257 124.72130213677883 6070.2449487671256 463.56878191232681 4116.1893945597112 259.27023413777351 152.85582483187318 279.91342355683446 2043.2942610569298 416.5652275159955 142.87904445827007 5770.1970814839005 1214.4282525703311 151.72926073148847 256.83333588764071 3344.6760764531791
leaf_count=215249 1944 102784 23975 4548 108007 8080 1473 1391 46933 2814 18418 43125 2483 1717 4828 2852 153862 10882 22264 4409 1311 3142 11948 6160 1208 32220 6835 2680 1527 18653
internal_value=0 0.0123326 0.0235348 0.0039304 0.0355744 -0.02647 -0.0361895 0.0743936 0.0435428 0.0112293 0.0405141 -0.0610821 0.109146 0.0872131 -0.0852691 0.096687 -0.0952089 -0.0146429 0.120897 0.0876987 0.101998 -0.0886846 0.112222 0.107987 0.133023 0.111506 0.0607586 -0.0467268 0.050929 0.139416
internal_weight=0 42975.9 39222.4 30932.6 17293 6655.51 13639.6 10637.5 7214.46 6937.17 4937.55 1999.61 4822.05 2447.17 6702.43 8289.78 6317.19 763.873 4576.02 3204.42 2945.15 2392.4 2154.3 7525.91 4259.07 7401.19 1630.99 1733.13 408.563 3423
internal_count=867722 652473 549689 488796 230374 129752 258422 100622 80578 98259 52320 45939 30503 21745 160163 60893 155335 12826 25955 24138 19729 50075 13665 48067 23472 45215 12995 28182 4207 20044
is_linear=0
shrinkage=0.1


Tree=14
num_leaves=31
num_cat=0
split_feature=6 0 27 20 12 16 17 5 5 11 31 18 28 12 12 0 4 12 4 16 36 5 22 18 42 23 33 22 0 17
split_gain=7594.76 5031.44 4929.91 3439.26 3613.91 4416.94 2847.86 1874.16 5422.69 1333.48 1775.38 1509.84 1064.56 999.626 985.414 921.272 910.284 842.533 792.41 640.071 668.301 597.448 574.349 506.695 494.884 492.22 941.689 480.658 429.414 414.579
threshold=2.8024115600585944 20.250000000000004 1.6569800052850605 3.0449945924732646 7.8051277468657654 1.5921004743022951 1.5068278845780509 6.8332065429687505 4.870869567871094 12.77604892346808 -0.31541772460938139 1.502558911314573 3.1415926535884986 16.721596370013113 17.892685854742655 2.9500000000000006 10.543571411132815 7.6781588168026067 2.8128142089843755 1.5097200843919742 0.13756130654509288 6.5125336914062508 1.11072125362776 1.6072831112405197 0.04331626043295541 1.1113750068830341 -17.783074462890621 1.1106258507078242 4.6250000000000009 1.4880046846007968
decision_type=2 2 2 2 2 2 2 2 2 2 2 2 2 2 2 2 2 2 2 2 2 2 2 2 2 2 2 2 2 2
left_child=-1 2 16 6 7 -6 9 8 12 10 24 27 -5 15 -7 -8 17 -2 -14 20 -12 -10 -15 -16 -4 26 -18 -11 -9 -27
right_child=1 -3 3 4 5 14 13 28 21 11 19 -13 18 22 23 -17 25 -19 -20 -21 -22 -23 -24 -25 -26 29 -28 -29 -30 -31
leaf_value=-0.10090802909413782 0.11760105026162244 -0.10432765480577454 0.053354280967351411 -0.10855263916320607 -0.090888078713785403 -0.095710229472696418 0.099449287154431215 -0.10794659145669994 -0.10554478841146193 -0.1187849421038073 0.11591067581639794 -0.10511689014128918 -0.038266099745877268 -0.10170604353771234 0.12152762086293334 -0.10202495735073765 -0.11472214124698699 -0.10446367897331976 0.1267591606850918 -0.07827507921710497 -0.11548728015327014 0.058881586045326874 0.1454526480496926 -0.084829395444835823 -0.065400654798348251 -0.10190497045755798 0.12990084167706753 0.18994432286990026 0.14007962125101339 0.11588100750730951
leaf_weight=7018.1101450826973 287.40865720435977 3408.5914719514549 468.38689796626568 224.30690682865679 3875.0921855345368 267.7268600910902 236.51880575157702 71.395483173429966 1958.047670841217 62.145722467452288 2441.5057008564472 1466.6261482797563 313.59849238395691 139.74147821962833 1885.3737725764513 5615.6887798942626 284.34938373602927 421.31013906002045 4032.5696198418736 208.04264813289046 131.53515471145511 249.09444046020508 287.36723122000694 127.00498995929956 1399.1567073017359 88.637065256014466 352.38817288540304 267.47600527107716 3131.844710431993 6299.4706523623317
leaf_count=215249 1944 102784 5239 4548 108007 8080 1478 1391 48117 1243 15701 42208 2483 3555 11537 155354 4530 10882 23472 3803 1103 1958 2112 2128 25159 2277 2114 1467 18653 39146
internal_value=0 0.011876 0.0226999 0.00369985 0.0343547 -0.0259086 -0.0351748 0.0715191 0.0417287 0.0115227 0.039798 -0.0616527 0.103888 -0.0831035 0.0845255 -0.0938823 0.0936048 -0.0144092 0.114852 0.0904401 0.104081 -0.0869879 0.0645872 0.108504 -0.0356165 0.104502 0.020659 0.131738 0.134551 0.112859
internal_weight=0 40002.4 36593.8 28860.2 16136.1 6155.2 12724.2 9980.86 6777.62 6444.87 4648.63 1796.25 4570.48 6279.32 2280.11 5852.21 7733.56 708.719 4346.17 2781.08 2573.04 2207.14 427.109 2012.38 1867.54 7024.85 636.738 329.622 3203.24 6388.11
internal_count=867722 652473 549689 488796 230374 129752 258422 100622 80578 95923 51005 44918 30503 162499 21745 156832 60893 12826 25955 20607 16804 50075 5667 13665 30398 48067 6644 2710 20044 41423
is_linear=0
shrinkage=0.1


Tree=15
num_leaves=31
num_cat=0
split_feature=6 0 27 20 39 16 17 38 37 10 11 7 2 18 4 45 12 12 17 40 16 2 34 22 32 4 31 18 11 0
split_gain=6847.89 4465.09 4350.63 2954.9 3191.63 3214.44 2399.19 1893.07 4479.42 1052.89 923.21 1759.25 1479.28 1412.69 790.644 773.008 738.834 666.809 642.519 973.98 578.487 590.607 573.054 510.003 697.654 564.064 452.236 440.465 2993.79 422.704
threshold=2.7715089111328131 20.250000000000004 1.6569800052850605 3.0372806835900268 11.065294372298775 1.5921004743022951 1.5076583088211324 10.985675564222019 8.1014134326414684 3.0956975441323826 12.77604892346808 34.676330566406008 7.8151245117187509 1.502558911314573 10.543571411132815 0.14872688854633428 7.6781588168026067 17.892685854742655 1.5062621771743541 0.065174884428146215 1.4993785960812176 11.413635253906003 0.14599235988285703 1.1152076079421349 6.4447426757812503 4.690220825195313 0.28142456054687509 1.5037797413299281 13.044386724864745 2.9500000000000006
decision_type=2 2 2 2 2 2 2 2 2 2 2 2 2 2 2 2 2 2 2 2 2 2 2 2 2 2 2 2 2 2
left_child=-1 2 14 6 7 18 10 8 9 -5 11 12 -4 -12 16 29 -2 -7 19 -6 -14 -22 -13 25 -25 -11 -23 -16 -29 -8
right_child=1 -3 3 4 5 17 15 -9 -10 23 13 22 20 -15 27 -17 -18 -19 -20 -21 21 26 -24 24 -26 -27 -28 28 -30 -31
leaf_value=-0.10306026953742334 0.11080599615573844 -0.10397026563599106 0.11626356534608695 -0.11854884512660879 0.18357772536828426 -0.090766576338308508 0.080249631733794555 0.13346965100278541 -0.093916608186098025 0.11443506177020742 0.12823180881422017 0.13160741645463217 -0.098224064937714767 -0.10450709113992505 0.12132802330641344 0.12927383104318971 -0.10402619142757041 0.10729449072083792 -0.10037457334358552 -0.05702184072864061 -0.10690046421915432 0.14772677669006837 -0.11062887013771494 -0.10694529813950254 0.082969509205617076 -0.044748171585861619 -0.10572896102105356 0.12199694847840857 -0.15085669359564655 -0.09816081502769762
leaf_weight=6111.9242168273777 275.18128784187138 3094.3117023240775 620.86962700076401 248.25733250379562 208.4792906884104 191.03339281491935 136.50945213995874 2821.7758210115135 1930.3875702768564 4208.785173162818 327.51211930625141 1469.7675068080425 1334.9248477183282 1280.359404982999 4037.7446848861873 161.02522499859333 382.73865723609924 1542.5396570265293 3040.3850149270147 871.97524569928646 240.85284290835261 313.88152931630611 104.61111649870872 281.79892023839056 616.81992558948696 235.03564761206508 90.752184361219406 2038.5744778178632 500.93968943506479 4886.186979772523
leaf_count=211831 1944 102785 3830 3414 2121 6189 968 18407 49435 25854 2812 8965 26601 40386 26753 1348 10882 11191 93221 22167 4714 1987 739 6448 6904 4945 2062 12925 8389 147505
internal_value=0 0.0110911 0.0214411 0.00308744 0.0302267 -0.0287749 -0.0369939 0.0636237 0.0374187 0.0827669 0.00728607 0.0320784 -0.0184182 -0.0570998 0.09035 -0.0863976 -0.0141706 0.0854689 -0.0768355 -0.0105969 -0.0606417 0.0170821 0.115512 0.0921218 0.0234139 0.106016 0.0908811 0.100805 0.0681744 -0.0933119
internal_weight=0 37494 34399.7 27164.5 16197.3 5854.41 10967.3 10342.9 7521.08 5590.7 5783.53 4175.66 2601.28 1607.87 7235.18 5183.72 657.92 1733.57 4120.84 1080.45 1980.41 645.487 1574.38 5342.44 898.619 4443.82 404.634 6577.26 2539.51 5022.7
internal_count=867722 655891 553106 492213 250296 134889 241917 115407 97000 47565 92096 48898 39194 43198 60893 149821 12826 17380 117509 24288 35364 8763 9704 44151 13352 30799 4049 48067 21314 148473
is_linear=0
shrinkage=0.1


Tree=16
num_leaves=31
num_cat=0
split_feature=6 0 27 20 12 16 17 5 5 28 10 12 23 2 4 28 45 12 10 33 12 18 11 2 12 17 10 22 0 17
split_gain=6160.15 3994.54 3837.39 2592.77 2838.85 3497.17 2121.64 1911.65 4028.3 1010.68 1103.85 873.09 828.735 945.879 697.846 693.359 673.625 648.285 591.689 507.06 583.509 484.067 1118.31 599.47 409.607 399.706 814.121 395.641 1822.86 394.072
threshold=2.7715089111328131 20.250000000000004 1.6569800052850605 3.036101602272105 7.6781588168026067 1.5984678447171103 1.5079493182786781 6.8332065429687505 4.870869567871094 3.1415926535884986 3.0956975441323826 17.892685854742655 1.1120479177494882 7.8151245117187509 10.543571411132815 3.1415926535884986 0.14872688854633428 7.6781588168026067 7.0788456272988887 -16.40527026367187 7.8319684045483369 1.525104341734923 12.77604892346808 11.413635253906003 6.9342741928179263 1.5062621771743541 8.1147745551945434 1.110094363033103 9.2500000000000018 1.4908667446603756
decision_type=2 2 2 2 2 2 2 2 2 2 2 2 2 2 2 2 2 2 2 2 2 2 2 2 2 2 2 2 2 2
left_child=-1 2 14 6 7 25 12 8 9 -5 -11 -7 13 -4 17 -14 -8 -2 -10 -17 -21 22 23 -15 -20 26 -6 28 -16 -29
right_child=1 -3 3 4 5 11 16 -9 18 10 -12 -13 15 21 27 19 -18 -19 24 20 -22 -23 -24 -25 -26 -27 -28 29 -30 -31
leaf_value=-0.10275735326168217 0.10429207591206079 -0.10364769492437159 0.11199075582092421 -0.10726982591238288 0.2132846610342306 -0.093612254220256957 -0.092802560599770309 0.13283037889056487 -0.10591803092021793 -0.11692025440851271 0.10934060116329902 0.10982674471353414 -0.10443787544379653 -0.10591205196211098 0.12020365877365678 0.11101737175432627 0.12110236857425989 -0.10363285713912473 0.16651095779644531 0.10368593439748666 -0.081470408603273384 -0.10257822336328913 -0.10263621039640165 0.098650702656468636 -0.080635699667258046 -0.096353508658507017 -0.058146079930199573 -0.090223249196153765 -0.13635274503066577 0.11628943534380738
leaf_weight=5545.7685719393194 263.73963005281985 2808.1199875157326 427.06180432252586 255.80370603315532 127.07973223365843 240.62560629099607 4520.8295169752091 2776.3963375687599 1730.6801328025758 227.70017063803971 4064.7881610002369 1710.8526652157307 246.64811051636934 177.37622234970331 1039.1807771716267 1265.5616034902632 152.17920671589673 347.56366282701492 146.28969174996018 316.73000826127827 367.91337563842535 1020.1246140673757 793.34958293661475 744.73646099492908 123.81635928153992 3036.8502073660493 847.08715841546655 94.299013258889318 377.56238314509392 4593.5948750190437
leaf_count=211831 1944 102785 2500 6283 1011 8170 146241 18909 49886 3416 26855 12543 7758 3822 7251 9721 1314 10882 753 2756 7430 24958 26464 6504 2455 99034 23430 2654 6488 31674
internal_value=0 0.0107139 0.0207382 0.00291383 0.0288363 -0.0250549 -0.0365879 0.0632931 0.0338136 0.0858308 0.0973383 0.0847418 0.00635261 -0.0264207 0.0879396 0.053534 -0.0858366 -0.0139261 -0.0844345 0.0735132 0.0041867 -0.0480286 -0.0155899 0.0593013 0.0532192 -0.0784743 -0.022738 0.0981402 0.0518313 0.112135
internal_weight=0 34844.5 32036.4 25320.5 15288 5962.5 10032.5 9325.47 6549.08 4548.29 4292.49 1951.48 5359.5 3162.65 6715.94 2196.85 4673.01 611.303 2000.79 1950.2 684.643 2735.59 1715.46 922.113 270.106 4011.02 974.167 6104.64 1416.74 4687.89
internal_count=867722 655891 553106 492213 252745 144188 239468 108557 89648 36554 30271 20713 91913 64248 60893 27665 147555 12826 53094 19907 10186 61748 36790 10326 3208 123475 24441 48067 13739 34328
is_linear=0
shrinkage=0.1


Tree=17
num_leaves=31
num_cat=0
split_feature=6 0 27 20 12 16 17 5 5 28 4 4 17 2 40 18 31 12 12 18 11 17 0 10 17 40 22 12 3 16
split_gain=5543.86 3575.15 3388.72 2270.75 2483.3 3100.12 1879.79 1700.51 3517.72 876.283 955.562 761.843 725.712 1013.11 655.222 883.334 770.356 722.633 634.348 625.711 1689.96 852.691 592.691 535.93 435.252 713.441 412.697 388.073 360.78 358.068
threshold=2.7715089111328131 20.250000000000004 1.6569800052850605 3.036101602272105 7.6781588168026067 1.5921004743022951 1.5079493182786781 6.8332065429687505 4.870869567871094 3.1415926535884986 2.8128142089843755 16.536630798339846 1.4898769687321016 7.7100219726562509 0.14458683739196507 1.5031743101269754 -0.43966894531249506 12.41644103159633 16.721596370013113 1.502558911314573 13.044386724864745 1.5038768454982674 2.9500000000000006 7.0788456272988887 1.5062621771743541 0.058750237845728255 1.1299712119088419 24.738186265848089 24.626525878906005 1.4995660692751602
decision_type=2 2 2 2 2 2 2 2 2 2 2 2 2 2 2 2 2 2 2 2 2 2 2 2 2 2 2 2 2 2
left_child=-1 2 19 6 7 24 12 8 9 -5 -11 -7 13 -4 16 28 -14 -18 22 -2 21 -21 -8 -10 25 -6 -24 -22 -16 -25
right_child=1 -3 3 4 5 11 18 -9 23 10 -12 -13 14 -15 15 -17 17 -19 -20 20 27 -23 26 29 -26 -27 -28 -29 -30 -31
leaf_value=-0.10248475572125407 0.11344354394326589 -0.10335604738177531 0.10818965277639198 -0.10661145554343049 0.21542050714595265 -0.065608213601119653 0.075208550805894669 0.1294146686275742 -0.10535022802306 -0.045610101675487874 0.10987354330903974 0.10381452905211819 -0.042627304611934945 -0.1041400356014231 -0.11735302609985068 -0.098884150490556239 0.10279917382846791 -0.090291698182036279 0.0816655690950715 0.11230852458408772 -0.15348502790166402 -0.065249722602086863 -0.10266253080963764 -0.10560254249403714 -0.10051657444827052 -0.053351147224397592 0.71525982173013425 0.09784541293035065 0.17243055453209594 0.13967228130512643
leaf_weight=5030.6879768576473 3522.7166060786694 2547.6972072105855 287.42681639641523 232.81758377142251 112.13342671468854 316.32197288423777 199.82650832086802 2575.0789541602135 1573.997069997713 443.77046175859869 3616.3065787088126 1649.1320774257183 636.68726334162056 1029.9758461453021 53.802606828510761 720.33155510760844 1884.4293087460101 216.03799029253423 219.64985473453999 1894.9538374561816 424.96244260668755 315.49435005523264 3896.1127803251147 93.592439031228423 2643.5414853785187 828.24138289690018 6.1786695420742026 71.818655282258987 213.24895154125988 163.49058581516147
leaf_count=211831 27710 102785 1816 6283 1210 7796 1434 18909 49886 4472 25799 14704 14873 28232 1264 20060 16276 8065 3175 14555 8396 9718 142887 2257 97261 23217 59 514 1327 951
internal_value=0 0.0103501 0.0200575 0.00274825 0.0278878 -0.0243813 -0.0355058 0.0612318 0.0325615 0.08206 0.092879 0.0765475 0.00597653 -0.0578146 0.02854 -0.0412936 0.0537314 0.0829393 -0.0839006 0.0856612 0.0495101 0.0869659 -0.0927659 -0.0834859 -0.0797316 -0.0213019 -0.101367 -0.117151 0.114048 0.0503787
internal_weight=0 32389.8 29842.1 23612.1 14248.4 5549.37 9363.71 8699.05 6123.97 4292.89 4060.08 1965.45 5041.94 1317.4 3724.54 987.383 2737.15 2100.47 4321.77 6229.95 2707.23 2210.45 4102.12 1831.08 3583.92 940.375 3902.29 496.781 267.052 257.083
internal_count=867722 655891 553106 492213 252745 144188 239468 108557 89648 36554 30271 22500 91913 30048 61865 22651 39214 24341 147555 60893 33183 24273 144380 53094 121688 24427 142946 8910 2591 3208
is_linear=0
shrinkage=0.1


Tree=18
num_leaves=31
num_cat=0
split_feature=6 0 27 20 12 16 17 5 5 10 28 6 17 2 40 18 31 37 12 4 12 0 10 17 10 18 25 31 22 18
split_gain=4989.93 3199.75 2982.18 1991.94 2189.79 2732.79 1682.83 1538.04 3094.62 790.857 870.256 693.636 676.051 968.641 616.281 703.293 672.253 611.237 600.302 596.992 524.018 516.968 483.043 435.165 594.63 413.67 387.483 355.544 355.294 329.869
threshold=2.7715089111328131 20.250000000000004 1.6569800052850605 3.0350284756231152 7.6781588168026067 1.5921004743022951 1.5068278845780509 6.8332065429687505 4.870869567871094 3.0956975441323826 3.1415926535884986 15.96896697998047 1.4908667446603756 7.8151245117187509 0.14770821985849183 1.502558911314573 -0.4753137207031316 20.698714975591141 16.721596370013113 10.543571411132815 7.6781588168026067 2.9500000000000006 7.0788456272988887 1.5062621771743541 8.163378424142314 1.6008669581785553 1.6442288868064401 0.38648706054687493 1.11072125362776 1.5037797413299281
decision_type=2 2 2 2 2 2 2 2 2 2 2 2 2 2 2 2 2 2 2 2 2 2 2 2 2 2 2 2 2 2
left_child=-1 2 19 6 7 23 12 8 9 -5 -11 -7 13 -4 16 -16 -14 -18 21 20 -2 -8 -10 24 27 -13 -26 -6 -20 -21
right_child=1 -3 3 4 5 11 18 -9 22 10 -12 25 14 -15 15 -17 17 -19 28 29 -22 -23 -24 -25 26 -27 -28 -29 -30 -31
leaf_value=-0.1022389170157903 0.092830780779885755 -0.10309187036980068 0.096978808956817403 -0.11488131384733252 0.25451155335683551 -0.046880657586622798 0.068522665526037904 0.12637292172478867 -0.10481450167879119 -0.10594820050132808 0.09976501177261976 0.11965240854557098 -0.049223188125427086 -0.10454630461693758 0.11153488897732178 -0.09627032214745912 0.10030708356723755 -0.085241455510676398 -0.099292937141121085 0.11355490445865089 -0.10324784628700222 -0.10042468990295597 0.046828643170479391 -0.099897397457773901 0.15270483528049286 -0.077054353460945565 -0.077495491213658646 -0.11452918832072947 0.15463291266992016 0.062082366869982843
leaf_weight=4562.3413254711777 246.08394117467105 2310.8579606506974 316.13968810066581 201.68935527093709 110.13128174655139 381.8390657119453 190.7305415943265 2397.8232205510139 1443.3913998268545 217.87723171524704 3663.541931156069 1366.5278681740165 489.12983039580286 971.29267247579992 219.13998783379793 634.18531888537109 1774.7482669577003 197.27374207600951 83.094144530594349 3211.2765022385865 305.50485301017761 3593.6009347811341 245.8351607657969 2431.8637696243823 81.545880891382694 115.98312159627676 707.73601591214538 34.217323236167431 163.57663852721453 2033.4652558621019
leaf_count=211831 1944 102785 2063 3419 657 9741 1410 18993 50277 6502 26991 10970 12257 29388 2184 19007 15805 7834 2527 26753 10882 143304 3236 98255 452 1847 23139 646 1309 21314
internal_value=0 0.00997871 0.0193678 0.00257751 0.0267114 -0.0238151 -0.0348832 0.0590543 0.0310902 0.0781853 0.0882176 0.0733073 0.00643857 -0.0550601 0.0303263 -0.0429045 0.0557168 0.0817455 -0.0820573 0.0831906 -0.01577 -0.0919097 -0.0827457 -0.0776171 -0.0195828 0.104263 -0.053712 0.167032 0.0690948 0.0935982
internal_weight=0 30140.1 27829.2 22032.9 13400 5229.84 8632.91 8170.16 5772.34 4083.11 3881.42 1864.35 4601.91 1287.43 3314.48 853.325 2461.15 1972.02 4031 5796.33 551.589 3784.33 1689.23 3365.49 933.631 1482.51 789.282 144.349 246.671 5244.74
internal_count=867722 655891 553106 492213 255125 145707 237088 109418 90425 36912 33493 22558 88538 31451 57087 21191 35896 23639 148550 60893 12826 144714 53513 123149 24894 12817 23591 1303 3836 48067
is_linear=0
shrinkage=0.1


Tree=19
num_leaves=31
num_cat=0
split_feature=6 0 18 24 18 27 16 23 22 6 4 10 17 18 17 2 8 4 12 18 23 28 5 10 10 4 1 22 39 7
split_gain=4492.37 2864.14 2645.19 2228.3 1890.69 2474.46 1594.42 1115.63 889.737 2510.3 1375.56 885.188 835.976 776.467 721.783 802.059 597.07 492.126 500.039 489.033 454.372 453.401 434.91 349.918 307.433 307.274 301.116 288.313 319.149 275.656
threshold=2.7715089111328131 20.250000000000004 1.5237986914315986 1.1102616347971772 1.5600692076756781 1.7778739791396581 1.5034368473719668 1.1176098481883545 1.1101786033980618 11.215907348632816 6.3915756835937509 4.6988738485215604 1.4908667446603756 1.6008669581785553 1.5053201976507535 7.8151245117187509 16.756347656250004 10.722195678710937 7.6781588168026067 1.5276116027748987 1.1142377705101552 3.1415926535890399 11.363005859375003 3.0956975441323826 8.163378424142314 2.8128142089843755 17.364440917968505 1.1075149296418141 25.012438648872578 18.620666503906254
decision_type=2 2 2 2 2 2 2 2 2 2 2 2 2 2 2 2 2 2 2 2 2 2 2 2 2 2 2 2 2 2
left_child=-1 2 3 -2 5 14 16 8 9 17 -10 -6 -12 29 15 -4 23 18 25 22 24 -14 26 -7 -8 -5 -17 -9 -29 -13
right_child=1 -3 4 7 11 6 20 27 10 -11 12 13 21 -15 -16 19 -18 -19 -20 -21 -22 -23 -24 -25 -26 -27 -28 28 -30 -31
leaf_value=-0.10201707745015531 -0.079550977061592212 -0.10285201419521016 0.10806511274660949 -0.069522264880900311 -0.11507110607713292 -0.11312903851811543 0.12319128472464935 0.056020181357907185 -0.1048970064540411 -0.12115420754030076 -0.095283043090949149 0.15725507688392548 0.10918584780952821 -0.071806577943547528 -0.097552604123790423 -0.027536432911725785 -0.10281404838182484 0.11555765824943361 -0.077471067031810337 -0.091730749318113369 -0.096112986649801169 -0.10502914644751829 -0.1041894598652188 0.10025508610151534 -0.10044047742522372 0.11244548985805401 0.12473607261599851 -0.090088866836723083 0.1199328318309078 0.076280193022465456
leaf_weight=4136.6978882849216 1201.7558260373771 2095.5792233757675 366.75729428976774 115.16206482611597 268.35651516541839 79.68893807567656 186.98617171682417 249.96279332786798 341.79714486002922 831.22857386060059 212.13115083798766 554.58398371003568 7016.7653779890388 313.99573361873627 4001.8791590332985 225.98054229840636 168.01152102649212 1500.9247150123119 323.39284498989582 1234.1927398741245 919.42481729947031 100.21716066077352 231.79333356767893 2156.8692027088255 91.580461915582418 477.84709039516747 305.32876205444336 680.45849528163671 80.963447898626328 1737.5809668432921
leaf_count=211831 43635 102785 2391 1143 6839 1448 1584 2100 8319 25994 5989 4210 66730 9630 172383 4644 6140 12265 11874 37375 35555 3577 10000 16745 4013 4125 2252 27377 642 24127
internal_value=0 0.00960793 0.0186806 0.0502382 -0.0135886 -0.0341922 0.0320372 0.0633115 0.0726178 0.0287538 0.0911938 0.0578626 0.100339 0.0756696 -0.0716723 -0.0278621 0.0789946 0.0803016 0.0225576 -0.0528219 -0.0622141 0.106169 0.0101066 0.0926522 0.049671 0.0771074 0.0599704 -0.0371655 -0.0677569 0.0958719
internal_weight=0 28071.2 25975.6 13132.6 12843 9968.49 3602.56 11930.9 10919.5 3248.56 7670.91 2874.52 7329.11 2606.16 6365.93 2364.05 2404.57 2417.33 916.402 1997.3 1197.99 7116.98 763.103 2236.56 278.567 593.009 531.309 1011.38 761.422 2292.16
internal_count=867722 655891 553106 213770 339336 294530 65485 170135 140016 55401 84615 44806 76296 37967 229045 56662 24333 29407 17142 54271 41152 70307 16896 18193 5597 5268 6896 30119 28019 28337
is_linear=0
shrinkage=0.1


Tree=20
num_leaves=31
num_cat=0
split_feature=6 0 18 24 18 27 16 23 22 0 10 10 28 8 18 17 2 28 4 28 23 17 26 10 4 5 12 17 10 22
split_gain=4046.91 2565.58 2313.28 1943.69 1644.75 2192.25 1465.48 971.053 770.932 2237.5 1249.04 765.791 735.357 669.225 661.266 584.627 610.648 582.548 445.02 439.35 436.824 434.298 396.279 312.29 287.462 270.412 1050.15 297.527 253.482 252.646
threshold=2.7715089111328131 20.250000000000004 1.5237986914315986 1.1101583975321965 1.5600692076756781 1.7740934916633768 1.5050392127535333 1.1176098481883545 1.1101786033980618 9.2500000000000018 7.0788456272988887 4.6988738485215604 3.1415926535884986 16.756347656250004 1.6008669581785553 1.5053201976507535 7.8151245117187509 3.1415926535890399 10.722195678710937 3.1415926535891017 1.1144453936352134 1.4936819778632482 1.6543690273090006 3.0956975441323826 2.8128142089843755 4.870869567871094 17.892685854742655 1.5114964635530415 8.163378424142314 1.107583989895649
decision_type=2 2 2 2 2 2 2 2 2 2 2 2 2 2 2 2 2 2 2 2 2 2 2 2 2 2 2 2 2 2
left_child=-1 2 3 -2 5 15 13 8 9 18 -10 -6 -12 23 25 16 -4 -14 19 -5 28 -18 -23 -7 -21 27 -27 -13 -8 -9
right_child=1 -3 4 7 11 6 20 29 10 -11 12 14 17 -15 -16 -17 21 -19 -20 24 -22 22 -24 -25 -26 26 -28 -29 -30 -31
leaf_value=-0.10181671474196022 -0.079304764485006451 -0.10263384876218073 0.10325387803485267 -0.068659664267358533 -0.113172688347238 -0.11203084292206644 0.11394258441691385 0.051047909909677142 -0.10960650221698816 -0.11883902513774552 -0.10996152590437246 0.11814174841647838 0.10576246663942662 -0.098264784323589746 -0.069091160237767443 -0.096652170677586191 -0.10389514148768608 -0.10614257210684518 0.11304311070109457 -0.063628403051283297 -0.099302044722919924 0.08997059005479191 -0.048235906560301411 0.095899404127946786 0.11622357108655196 -0.097998532929367471 0.10802173583233628 0.31580743656609933 -0.10008577392100981 -0.0665408337771317
leaf_weight=3750.0307748168707 1084.1924764085561 1899.9843329098076 294.40092282183468 331.83553436025977 246.6876151971519 74.776007257401943 180.4531103502959 247.13016835600138 307.28512762859464 776.46339467167854 168.4001340623945 418.41880986839533 6605.6482480894774 209.42405833117664 294.71447455883026 3558.6560030784458 857.21668362244964 132.33144137263298 1389.4167223125696 112.8449674770236 872.66358873061836 297.06255995109677 687.85179163143039 2122.2142553254962 418.27031707763672 301.47753524407744 1379.8174358308315 93.090525522828102 79.808917546644807 701.03575452789664
leaf_count=211831 42373 102785 1984 12482 6839 1482 1579 2126 8651 26573 5265 3766 66393 8613 9630 167800 29491 4907 12303 1139 37662 3025 21346 17767 3563 11447 12680 444 3781 27995
internal_value=0 0.00926719 0.0180369 0.0485391 -0.0132454 -0.0334167 0.0283892 0.0609251 0.0698877 0.0275482 0.087665 0.0548813 0.0964421 0.0725406 0.0715473 -0.0718267 -0.0304769 0.101601 0.0780126 0.0216107 -0.0653915 -0.0518491 -0.00655109 0.0888224 0.0780108 0.0904492 0.0710797 0.154115 0.0483111 -0.0358925
internal_weight=0 26143.6 24243.6 12274.9 11968.7 9234.53 3539.34 11190.7 10242.5 3028.83 7213.66 2734.21 6906.38 2406.41 2487.52 5695.19 2136.53 6737.98 2252.37 862.951 1132.93 1842.13 984.914 2196.99 531.115 2192.8 1681.29 511.509 260.262 948.166
internal_count=867722 655891 553106 213770 339336 294530 70884 171397 141276 56060 85216 44806 76565 27862 37967 223646 55846 71300 29487 17184 43022 53862 24371 19249 4702 28337 24127 4210 5360 30121
is_linear=0
shrinkage=0.1


Tree=21
num_leaves=31
num_cat=0
split_feature=6 0 18 17 11 20 28 10 12 39 28 38 39 41 28 31 4 12 6 16 0 18 24 28 12 10 17 27 22 22
split_gain=3646.74 2299.39 2083.82 1617.92 3172.66 2162.58 1173.65 1111.97 1063.29 968.096 1942.36 680.493 1409.23 658.603 609.98 623.879 536.577 504.309 491.043 459.889 405.927 387.415 325.076 284.767 420.943 278.796 267.363 562.943 264.948 254.935
threshold=2.7715089111328131 20.250000000000004 1.5019191963326295 1.5055431669577732 12.77604892346808 3.042853582791555 3.1415926535891017 4.6988738485215604 16.372732715283885 11.065294372298775 -3.1415926535889556 10.985675564222019 7.9988764886783468 0.16274700595831945 3.1415926535884986 -0.48317138671876497 2.8128142089843755 16.721596370013113 15.96896697998047 1.4973771849121491 2.9500000000000006 1.6072831112405197 1.1101583975321965 3.1415926535884986 17.892685854742655 7.0788456272988887 1.4880046846007968 1.7436398778314992 1.1299712119088419 1.1105345335400079
decision_type=2 2 2 2 2 2 2 2 2 2 2 2 2 2 2 2 2 2 2 2 2 2 2 2 2 2 2 2 2 2
left_child=-1 2 8 4 6 17 7 -4 -2 11 18 12 16 14 -9 19 -7 20 -11 -16 -5 23 -17 24 -18 -21 27 -24 -22 -19
right_child=1 -3 3 5 -6 9 -8 13 -10 10 -12 -13 -14 -15 15 22 21 29 -20 25 28 -23 26 -25 -26 -27 -28 -29 -30 -31
leaf_value=-0.10163537715367876 -0.054716468689868014 -0.10243494873362369 -0.18110204413072506 0.058367179150929274 -0.10810157390752601 -0.046445836788031672 -0.10963894067290668 -0.11105183861132076 0.11604975583738425 -0.0555589617192217 -0.090600560485066817 0.12727695374301945 -0.095221890127620223 -0.087019355602482903 -0.08154015166205078 -0.080076095429697375 -0.10429050811417365 -0.080933946492441122 0.1149324750441285 -0.10359321474901906 -0.099285170824172181 -0.094057916435550101 -0.10647971770797238 0.11302709921702606 0.1032832252329772 0.12316996440027404 0.11020076858584743 0.10512810325050498 0.41823851590914851 0.11052137190490936
leaf_weight=3398.9126803260297 421.23237737920135 1722.3459613090381 169.5011553671211 174.91904051974416 1276.0645461082458 385.91587342694402 375.17526584863663 156.49301798455417 2713.2917368486524 212.7242585439235 1894.6716704797 807.43982955440879 750.85033572465181 233.07731790840626 349.33564831689 98.903184823691845 165.12940786033869 106.99665651656687 820.62510974705219 66.872379153966904 3431.5555781796575 117.48638741672039 183.20367585867643 1506.8675192538649 239.23840789310634 286.5077106654644 5056.2228918634355 400.66723590344191 9.9209729433059675 198.72146586328745
leaf_count=211831 10666 102785 968 1534 58750 4421 12381 4609 27360 5944 93549 7092 34991 4605 10640 3798 6206 4370 8269 2128 165967 3083 4748 15441 2357 2910 50425 3725 87 2082
internal_value=0 0.00894438 0.017429 0.00524948 0.0374865 -0.020521 0.0626737 0.071908 0.0931014 0.013178 -0.0304508 0.0453321 0.0244299 0.0781858 0.0840216 0.0887606 0.0616366 -0.0798142 0.0798353 -0.000175408 -0.09024 0.0821967 0.0996505 0.0930313 0.0185175 0.0802581 0.102802 0.038731 -0.0977933 0.0435149
internal_weight=0 24332 22609.6 19475.1 8652.02 10823.1 7375.96 7000.78 3134.52 6900.95 2928.02 3972.93 3165.49 6831.28 6598.21 6441.71 2414.64 3922.11 1033.35 702.716 3616.4 2028.72 5739 1911.24 404.368 353.38 5640.09 583.871 3441.48 305.718
internal_count=867722 655891 553106 515080 159687 355393 100937 88556 38026 181353 107762 73591 66499 87588 82983 78374 31508 174040 14213 15678 167588 27087 62696 24004 8563 5038 58898 8473 166054 6452
is_linear=0
shrinkage=0.1


Tree=22
num_leaves=31
num_cat=0
split_feature=6 0 18 17 11 20 28 6 10 39 28 38 39 41 28 31 10 12 16 10 6 0 18 4 23 37 39 0 24 1
split_gain=3289.03 2064.49 1847.3 1423.12 2807.29 1923.01 1034.45 959.511 956.367 839.833 1679.7 590.923 1093.67 578.773 538.232 549.25 489.728 485.592 457.521 458.632 430.857 377.791 310.31 274.32 243.921 233.467 283.351 223.992 218.687 204.063
threshold=2.7715089111328131 20.250000000000004 1.5019191963326295 1.5055431669577732 12.77604892346808 3.0449945924732646 3.1415926535890399 14.728399169921877 4.6988738485215604 11.065294372298775 -3.1415926535889556 11.207015689159066 7.9988764886783468 0.15757220268331343 3.1415926535884986 -0.40061083984374973 3.0956975441323826 16.721596370013113 1.4973771849121491 7.0788456272988887 15.96896697998047 2.9500000000000006 1.6072831112405197 4.4409000854492193 1.113776849427434 6.9042026262975718 6.188168849708485 2.9500000000000006 1.1101583975321965 17.499572753906005
decision_type=2 2 2 2 2 2 2 2 2 2 2 2 2 2 2 2 2 2 2 2 2 2 2 2 2 2 2 2 2 2
left_child=-1 2 7 4 6 17 8 -2 -4 11 20 12 16 14 -10 18 -7 21 23 -20 -11 -5 25 -16 -19 26 -18 -17 -29 -25
right_child=1 -3 3 5 -6 9 -8 -9 13 10 -12 -13 -14 -15 15 27 22 24 19 -21 -22 -23 -24 29 -26 -27 -28 28 -30 -31
leaf_value=-0.10147169517759157 -0.050648811892956516 -0.10225304110342587 -0.16896799411619468 0.054094972908688324 -0.10717912752981769 -0.11164474410934724 -0.10880485707647894 0.1144255255061977 -0.11052333102466733 -0.050067998421484773 -0.088652955755977592 0.1277326161478971 -0.080246247825243686 -0.075855133305394271 0.11290346581079345 -0.97241443978481856 0.079535251682142385 -0.081108045765869385 -0.096272529421051398 0.12326340803291372 0.11309227543545995 -0.096178629338527805 -0.092551417497063804 -0.099251634360484314 0.10472844737467074 0.18216507318227304 -0.089954762330861471 -0.070863521918189495 0.10421023323259077 0.13065282778258161
leaf_weight=3080.1706080548465 410.1663574539125 1561.0743872132152 163.79608311317861 176.49463942274451 1164.0781971290708 155.47424629051238 341.94592156261206 2488.1585872471333 142.21495192684233 207.2020535254851 1710.266905689612 689.19729134254158 742.46683971770108 242.22501486353576 92.230385540053248 1.9426821377128352 1688.1634775493294 107.03695219010115 116.98906904086471 509.98706079646945 739.38335157930851 3209.9942634105682 108.35593025386333 395.80697544291615 207.64912578091025 205.48993322998285 104.75712712667882 72.434934922493994 4753.3887213757262 42.780037641525269
leaf_count=211831 10666 102785 968 1606 58750 3357 12381 27360 4608 5876 91564 6378 35230 4867 805 22 19699 4719 3747 5609 8125 168670 3095 13415 2355 1172 3547 2864 51366 285
internal_value=0 0.00869434 0.0169457 0.00507179 0.0364323 -0.0200112 0.060746 0.0910645 0.0696194 0.0133793 -0.0294995 0.04422 0.0250645 0.0757544 0.0817474 0.0863157 0.0596275 -0.0773052 0.0244585 0.0822996 0.0773774 -0.0883468 0.072267 -0.0438607 0.0415182 0.0812036 0.0696323 0.10115 0.101582 -0.0768266
internal_weight=0 22551.2 20990.1 18091.8 8039.82 10051.9 6875.74 2898.32 6533.8 6350.76 2656.85 3693.9 3004.71 6370 6127.77 5985.56 2262.24 3701.17 1157.79 626.976 946.585 3386.49 2106.77 530.817 314.686 1998.41 1792.92 4827.77 4825.82 438.587
internal_count=867722 655891 553106 515080 159687 355393 100937 38026 88556 178043 105565 72478 66100 87588 82721 78113 30870 177350 23861 9356 14001 170276 27513 14505 7074 24418 23246 54252 54230 13700
is_linear=0
shrinkage=0.1


Tree=23
num_leaves=31
num_cat=0
split_feature=6 0 18 17 11 20 28 6 10 9 28 11 11 6 4 41 28 31 28 45 16 4 4 10 22 22 16 42 0 0
split_gain=2966.67 1852.88 1638.9 1249.81 2503.65 1688.87 914.069 868.449 830.044 720.094 1791.26 700.679 1110.53 546.76 534.539 533.942 472.205 480.437 461.218 417.849 384.728 281.544 1199.86 258.807 247.404 201.915 205.142 196.731 190.357 176.894
threshold=2.7715089111328131 20.250000000000004 1.5019191963326295 1.505788836239466 12.77604892346808 3.0417532542814221 3.1415926535890399 14.728399169921877 4.6988738485215604 22.679626464844002 -3.1415926535890226 7.6050358904964215 5.5445656579505478 15.96896697998047 2.8128142089843755 0.16274700595831945 3.1415926535884986 -0.4753137207031316 3.1415926535884986 0.12409720624647776 1.4961669736793393 6.3915756835937509 4.690220825195313 7.0788456272988887 1.1180791896117086 1.1299712119088419 1.5921004743022951 0.061331730644040405 2.9500000000000006 9.2500000000000018
decision_type=2 2 2 2 2 2 2 2 2 2 2 2 2 2 2 2 2 2 2 2 2 2 2 2 2 2 2 2 2 2
left_child=-1 2 7 4 6 19 8 27 -4 11 13 12 14 -11 -7 16 -10 20 -16 25 -18 22 -19 -22 -20 26 28 -2 -5 -9
right_child=1 -3 3 5 -6 9 -8 29 15 10 -12 -13 -14 -15 18 -17 17 21 24 -21 23 -23 -24 -25 -26 -27 -28 -29 -30 -31
leaf_value=-0.10132321540452648 0.043482543078122368 -0.10208625327621075 -0.15859899622404838 0.051274339580561726 -0.10589939679222105 -0.04479121277265409 -0.10788018467397197 -0.7733845534255035 -0.11002665457278456 -0.050025067729289489 -0.087323973691350532 0.13479236183085883 -0.086807416223391928 0.11128388052267242 -0.10396665686470474 -0.078272192805628638 -0.078181833486805241 0.10260669840231196 0.11823580251548488 0.065530494444616602 -0.099893913045510985 0.11137035628842092 -0.10504808723649006 0.11683249562593848 -0.091421899452032218 0.33260863005508456 0.071751173463065351 -0.10117987012045432 -0.096686426973464509 0.11379493620577592
leaf_weight=2790.9313960634172 150.72964100632817 1414.7087246533483 158.7862815214321 89.641966151073575 1079.4934978485107 365.43308419175446 313.84146972000599 2.2496732100844374 129.31167439743876 276.00615069083869 1766.0661819130182 681.01864409446716 695.03748632967472 880.32490047812462 111.21392800286412 224.4895795006305 309.45990910194814 1410.3188828248531 1205.3469065250829 192.09879057854414 68.401088569313288 3232.2872803620994 346.65159356594086 283.35787405818701 59.040969504974782 11.452911734580992 78.27515235543251 249.80668555945158 2896.6445384006947 2277.6275571361184
leaf_count=211831 2193 102785 1016 810 59686 4427 12473 21 4612 7806 98724 6197 36375 10455 4958 4720 10878 14928 11632 3106 2508 36513 10836 3426 1289 85 894 8473 166726 27339
internal_value=0 0.00842715 0.0164266 0.00488179 0.0350954 -0.0196472 0.0585948 0.0890614 0.0670722 0.0116876 -0.0239739 0.0451217 0.0200537 0.0727808 0.0627137 0.0730402 0.0789172 0.0832412 0.0912728 -0.0775542 0.0031433 0.0938565 0.0616363 0.0746891 0.108446 -0.0864899 -0.0880562 -0.0467406 -0.092245 0.11292
internal_weight=0 20959.1 19544.4 16864 7556.4 9307.6 6476.91 2680.41 6163.06 6039.49 2922.4 3117.09 2436.07 1156.33 1741.03 6004.28 5779.79 5650.48 1375.6 3268.11 661.219 4989.26 1756.97 351.759 1264.39 3076.01 3064.56 400.536 2986.29 2279.88
internal_count=867722 655891 553106 515080 161596 353484 101910 38026 89437 181863 116985 64878 58681 18261 22306 88421 83701 79089 17879 171621 16812 62277 25764 5934 12921 168515 168430 10666 167536 27360
is_linear=0
shrinkage=0.1


Tree=24
num_leaves=31
num_cat=0
split_feature=6 0 18 17 11 20 28 10 6 38 22 21 42 28 31 16 12 10 10 41 0 4 18 10 3 12 17 4 22 37
split_gain=2677.79 1665.59 1459.82 1105.97 2334.03 1434.78 842.078 788.606 783.661 613.096 1041.53 766.44 568.14 416.008 450.086 471.578 413.439 400.791 399.126 366.197 307.217 244.072 243.931 220.19 240.804 717.112 215.721 281.303 177.941 177.802
threshold=2.7715089111328131 20.250000000000004 1.5019191963326295 1.507362717321733 12.77604892346808 3.0417532542814221 3.1415926535891017 4.6988738485215604 14.728399169921877 8.4092332879787097 1.1135192219137242 3.132119621769903 0.15819350223099773 3.1415926535884986 -0.40061083984374973 1.4993785960812176 16.721596370013113 7.0788456272988887 3.0956975441323826 1.0862362864944171 2.9500000000000006 4.4409000854492193 1.6008669581785553 7.0788456272988887 11.536254882812502 17.892685854742655 1.5208341857383194 16.536630798339846 1.1299712119088419 6.7438716241890502
decision_type=2 2 2 2 2 2 2 2 2 2 2 2 2 2 2 2 2 2 2 2 2 2 2 2 2 2 2 2 2 2
left_child=-1 2 8 4 6 16 7 -4 -2 18 -11 19 13 -9 15 21 20 -17 -7 23 -5 -15 29 -12 -25 -26 -13 -28 -22 -20
right_child=1 -3 3 5 -6 9 -8 12 -10 10 11 26 -14 14 -16 17 -18 -19 22 -21 28 -23 -24 24 25 -27 27 -29 -30 -31
leaf_value=-0.10118867524269051 -0.044652547619323822 -0.1019330283669105 -0.14555902468702869 0.045813160661687231 -0.10402354022937702 -0.11014790789368689 -0.10701850325300535 -0.10955218272192882 0.11154780253981951 -0.098009774244553025 -0.10358767727486949 0.085144281035437683 -0.077885957024206282 0.10904835206087307 0.095182288740764592 -0.098846372135741406 0.051221011228632353 0.1201346886461904 0.064593606730532743 1.7942366627050406 -0.099433921298390585 -0.07401373861390817 -0.078212721239017319 0.13731311279197753 -0.098438404280121905 0.10055726384964501 -0.097172163686581464 0.058523144575183608 0.28681978603469738 0.17152626882979416
leaf_weight=2528.5248083211482 379.60104462783784 1281.9080924782902 174.67431760951877 159.05865988973528 1068.7223154753447 138.11496060434729 302.90823809802532 117.56819184310734 2087.4077309370041 1061.4453087197617 72.616200022399426 102.67305598314852 248.62138820067048 87.067967968992889 4368.9019075175747 99.812640992924571 228.87696423567832 513.9449652377516 1577.520194333978 1.2271234840154637 2461.7966602742672 445.4408212210983 110.26977130770683 425.70607503596693 249.09324432630092 663.35460645146668 641.62525636609644 141.66600674577057 11.985033690929411 172.49731253366917
leaf_count=211831 10666 102785 1656 1483 65210 3389 13252 4617 27360 66554 4966 1249 5272 849 56829 3700 4705 6667 23161 28 160001 16076 3575 3798 15243 8221 41255 2258 77 989
internal_value=0 0.00822302 0.0160186 0.0047464 0.0327137 -0.0205265 0.0556945 0.0638331 0.0875131 0.0100078 -0.0160826 0.0217602 0.0700519 0.0765817 0.0805496 0.0247782 -0.077694 0.0845228 0.053867 0.0675068 -0.0889008 -0.0440821 0.0660441 0.0660048 0.0752079 0.0462325 -0.0511481 -0.0690131 -0.0975626 0.0751338
internal_weight=0 19396.1 18114.2 15647.2 7427.66 8219.53 6358.94 6056.03 2467.01 5357.81 3359.41 2297.96 5881.36 5632.74 5515.17 1146.27 2861.72 613.758 1998.4 1412 2632.84 532.509 1860.29 1410.77 1338.15 912.448 885.964 783.291 2473.78 1750.02
internal_count=867722 655891 553106 515080 174128 340952 108918 95666 38026 174686 143572 77018 94010 88738 84121 27292 166266 10367 31114 32256 161561 16925 27725 32228 27262 23464 44762 43513 160078 24150
is_linear=0
shrinkage=0.1


Tree=25
num_leaves=31
num_cat=0
split_feature=6 0 18 17 11 20 28 12 10 11 22 21 41 4 28 17 11 31 45 24 6 17 4 17 22 44 42 10 28 22
split_gain=2414.06 1493.67 1296.86 968.599 2053.16 1273.63 737.82 712.432 684.21 532.781 1175.19 718.481 501.983 437.721 474.862 372.596 708.753 374.372 321.663 270.337 270.136 746.105 239.522 330.757 199.273 197.241 181.422 175.803 152.112 145.443
threshold=2.7715089111328131 20.250000000000004 1.5019191963326295 1.507362717321733 12.77604892346808 3.0328594107120432 3.1415926535891017 16.372732715283885 4.6988738485215604 5.5445656579505478 1.1136124616417586 3.132119621769903 0.14901523385311027 2.8128142089843755 3.1415926535884986 1.4898769687321016 5.0574196344390208 -0.59339892578125031 0.10972600831040537 1.1103641375792181 15.96896697998047 1.5166893125241407 16.619231384277345 1.5208341857383194 1.1172693829012765 0.35603511781291103 0.061331730644040405 8.7842891891508881 3.1415926535884986 1.1276143552509399
decision_type=2 2 2 2 2 2 2 2 2 2 2 2 2 2 2 2 2 2 2 2 2 2 2 2 2 2 2 2 2 2
left_child=-1 2 7 4 6 18 8 26 -4 13 -11 20 15 -7 -15 16 -10 27 29 -19 21 -12 23 -13 -16 -23 -2 -17 -21 -5
right_child=1 -3 3 5 -6 9 -8 -9 12 10 11 22 -14 14 24 17 -18 19 -20 28 -22 25 -24 -25 -26 -27 -28 -29 -30 -31
leaf_value=-0.10106638640778368 0.043590335457401416 -0.10179184903240963 -0.14013108020062687 -0.09312398490965336 -0.10276636951785086 -0.042481008665844311 -0.10595795471343308 0.1101942014923577 0.10733635638907596 -0.09707087659371047 0.120698422062441 0.086842316180634135 -0.05990011452086224 -0.10339003191264798 0.11445957117487847 0.068463269766105103 -0.087981907518939237 -0.070501573275096943 0.045884369425296605 -0.11029231917998383 0.11202025198645071 -0.066399835282349634 0.0624619785309855 -0.095626874985918639 -0.075397476563510368 1.2113774420154557 -0.098623585073207426 -0.10273959408673324 0.09786762115740838 0.22746833918990161
leaf_weight=2290.5330819208175 150.76403876580298 1161.4455314865336 163.85405151266605 2197.1319748023525 978.26501805335283 351.7316171657294 276.69031089916825 1910.7917401120067 368.10395752824843 1153.0948354005814 443.24000714533031 117.04361069202423 294.14736682455987 121.91097370348871 1054.2186576221138 100.34417948033661 375.09924171492457 99.749898829497397 185.94390497356653 35.407080695033073 703.67680062167346 440.92448904272169 171.91061323136091 656.82926393859088 58.342956276610494 1.2113761818036426 221.48076200485229 149.10740107297897 4113.4244861714542 14.242764115333555
leaf_count=211831 2193 102785 1656 150357 65210 4479 13252 27360 4563 77075 5753 1312 6207 6396 11510 2030 11760 4615 3390 1451 9736 22473 2607 44236 1434 19 8473 6625 56759 175
internal_value=0 0.00790719 0.0154423 0.0045005 0.0315295 -0.0200014 0.0535139 0.0855382 0.061256 0.00746938 -0.0133749 0.0246983 0.0672173 0.0559324 0.0839728 0.0743514 0.00875802 0.0851893 -0.0804374 0.0921798 0.0657716 0.0290142 -0.0443107 -0.0680295 0.104503 -0.0628989 -0.0410251 -0.0338717 0.0960911 -0.0910592
internal_weight=0 18070.1 16908.7 14625.6 6954.19 7671.45 5975.93 2283.04 5699.24 5274.14 3687.93 2534.84 5535.38 1586.2 1234.47 5241.24 743.203 4498.03 2397.32 4248.58 1589.05 885.376 945.783 773.873 1112.56 442.136 372.245 249.452 4148.83 2211.37
internal_count=867722 655891 553106 515080 174128 340952 108918 38026 95666 187030 163211 86136 94010 23819 19340 87803 16323 71480 153922 62825 37981 28245 48155 45548 12944 22492 10666 8655 58210 150532
is_linear=0
shrinkage=0.1


Tree=26
num_leaves=31
num_cat=0
split_feature=6 0 18 17 11 20 12 28 9 16 11 11 10 12 31 4 28 28 20 43 35 10 24 18 21 22 40 24 11 31
split_gain=2178.28 1341.15 1156.13 847.911 1708.57 1203.71 644.398 619.756 547.542 1431.26 642.341 805.14 544.704 406.729 376.497 370.547 508.556 369.272 340.184 281.68 263.164 240.598 280.093 227.447 217.049 185.194 161.941 148.948 142.227 142.055
threshold=2.7715089111328131 20.250000000000004 1.5019191963326295 1.5055431669577732 12.77604892346808 3.0273020193866427 16.372732715283885 3.1415926535891017 22.679626464844002 1.5921004743022951 7.6050358904964215 5.5445656579505478 4.6988738485215604 17.892685854742655 -0.3524638671875121 2.8128142089843755 3.1415926535884986 3.1415926535884986 3.010759136517319 0.080952258473363264 0.13110169496582799 7.0788456272988887 1.1213279080520631 1.529705074374746 3.2197667144419033 1.1180791896117086 0.063224737567929568 1.1097317408318899 7.2585410875427181 0.21043530273437483
decision_type=2 2 2 2 2 2 2 2 2 2 2 2 2 2 2 2 2 2 2 2 2 2 2 2 2 2 2 2 2 2
left_child=-1 2 6 4 7 19 26 12 10 -10 11 15 -4 -11 18 -7 -17 -16 -14 -5 27 22 -20 -23 -15 -18 -2 -19 -13 -22
right_child=1 -3 3 5 -6 8 -8 -9 9 13 -12 28 14 24 17 16 25 20 21 -21 29 23 -24 -25 -26 -27 -28 -29 -30 -31
leaf_value=-0.10095504983103126 0.04230428776499337 -0.10166134300944624 -0.1391336723189196 -0.092352398167048599 -0.10238137653269137 -0.039013099847225487 0.10887733465661226 -0.10466287954599141 -0.092129507054968363 -0.082367441972777455 0.13011842161617035 -0.10207538862250663 -0.052735097729257385 0.095463681856460231 -0.10873660203038614 -0.10301861450688379 0.1097655197741207 -0.095456950170491273 -0.10847704781843487 0.021486469072547792 -0.12053054043518141 0.1167957747999635 0.088805084471259163 -0.084687751775649633 -0.091162992525472802 -0.087436850513958761 -0.095270229968272446 0.095609930475241203 0.046800332118462476 0.11336365192277818
leaf_weight=2074.7281605070457 144.67976027727127 1052.1999924005941 132.97461375780404 1978.6402986487374 816.79836117476225 352.89510793425143 1748.8130390234292 237.78973182290792 1434.0853351354599 176.19143186789006 600.0302095413208 536.56236124038696 432.2352313362062 910.70257071778178 98.127456562593579 138.42586233094335 1025.9380705691874 41.306107627227902 156.72782516479492 244.18175772577524 90.491952583193779 500.39117025211453 133.06765800714493 63.091790746897459 66.895073797553778 49.939658708870411 209.39658836554736 3332.4330935683101 72.887564659118652 36.416351139545441
leaf_count=211831 2142 102785 968 144256 58750 4500 27360 12381 108306 8562 6696 39339 14393 12731 4609 8116 12161 2197 6267 6550 1105 7496 1595 2668 1721 1440 8524 46964 1015 294
internal_value=0 0.00764795 0.0149449 0.00431838 0.0321698 -0.0179699 0.083969 0.0530832 0.00766906 -0.0254237 0.0385116 0.0132587 0.0605595 0.0574873 0.0659961 0.0511857 0.0773988 0.0825898 0.0195426 -0.079847 0.0879529 0.0561554 -0.0178895 0.0942362 0.0826932 0.100612 -0.0390557 0.0932706 -0.0842705 -0.0534146
internal_weight=0 16814.3 15762.1 13659.2 6071.85 7587.38 2102.89 5255.05 5364.55 2587.87 2776.68 2176.65 5017.26 1153.79 4884.29 1567.2 1214.3 3598.77 1285.51 2222.82 3500.65 853.278 289.795 563.483 977.598 1075.88 354.076 3373.74 609.45 126.908
internal_count=867722 655891 553106 515080 159687 355393 38026 100937 204587 131320 73267 66571 88556 23014 87588 26217 21717 55169 32419 150806 50560 18026 7862 10164 14452 13601 10666 49161 40354 1399
is_linear=0
shrinkage=0.1


Tree=27
num_leaves=31
num_cat=0
split_feature=6 0 18 24 27 16 11 10 28 23 4 16 4 0 24 6 0 22 31 20 17 4 6 44 31 31 4 22 0 36
split_gain=1966.34 1205.27 1037.6 967.855 832.712 1146.02 673.955 751.279 867.848 473.212 411.291 360.068 857.881 717.093 324.081 474.897 291.118 290.868 285.478 255.184 250.006 239.2 218.933 238.501 218.33 209.542 180.81 176.565 387.109 195.248
threshold=2.7715089111328131 20.250000000000004 1.5237986914315986 1.1100531007854906 1.7546779035665347 1.5508707450979837 5.5022612732076732 4.6988738485215604 3.1415926535897212 1.1179569544059635 16.536630798339846 1.4893164422024687 6.3915756835937509 9.2500000000000018 1.1171594519426129 6.5801196289062522 4.6250000000000009 1.1129319568866716 0.21043530273437483 2.9628711760223285 1.5094145726091837 2.7927546386718753 15.96896697998047 0.21040218782309339 -1.6667661132812499 0.081059082031247315 2.8128142089843755 1.1110298925882065 9.2500000000000018 0.12768887624536868
decision_type=2 2 2 2 2 2 2 2 2 2 2 2 2 2 2 2 2 2 2 2 2 2 2 2 2 2 2 2 2 2
left_child=-1 2 3 -2 5 18 7 8 -6 11 20 13 -13 26 16 -16 -14 25 -4 -20 -8 -10 23 -7 -15 -17 -5 28 29 -18
right_child=1 -3 4 9 6 22 10 -9 21 -11 -12 12 14 24 15 17 27 -19 19 -21 -22 -23 -24 -25 -26 -27 -28 -29 -30 -31
leaf_value=-0.10085379887621536 -0.078632496032306612 -0.10154057692495422 -0.084799996196682534 -0.05763439619122343 -0.11466359652193805 -0.054791686891551922 0.04014498810526862 0.10883849882408986 -0.11068941860662314 -0.04204888071928245 0.051319973708879307 -0.10303551901206748 -0.13521895213681176 0.093901058621965974 0.13688223000815947 -0.11707157325509794 0.11246417361485678 -0.095228025309579897 0.094019490023447616 -0.10015036908665907 -0.086065720286360531 0.087840586397548423 0.11245414252420666 0.84469733646093137 -0.12751514018457275 0.09845106757293573 0.075086170298328023 0.10964095378029566 -0.059909341146154843 -0.069757668225925981
leaf_weight=1879.0819073873572 621.3398421863094 953.14541673380882 2565.5810397295281 116.15895137190819 438.64918674714863 128.40950506925583 189.8365843417123 1196.6407146155834 67.71760194003582 498.23448854032904 428.80091039836407 264.91500487923622 54.51905080396682 51.09339714050293 257.37051432579756 58.208806834183633 620.35005284659564 295.74748455360532 178.27803581301123 109.10813902691007 905.95391936879605 584.69356091320515 453.04962246119976 3.0170694068074217 346.91410275548697 200.48741940408945 882.43545381445438 2865.710308406502 210.29691825807095 64.958347737789154
leaf_count=211831 41156 102785 184070 1315 19963 3946 6535 15634 1971 26164 10657 10089 4230 834 2839 1254 9118 16972 2768 9023 70346 7242 7152 29 20117 2731 18866 48300 8280 1505
internal_value=0 0.00742324 0.0145084 0.0408268 -0.0123872 -0.0480784 0.0197947 0.0541188 -0.005896 0.0517625 -0.0317098 0.0591944 0.0719783 0.0144099 0.0819971 0.0246234 0.0942033 -0.0274867 -0.0742129 0.0203016 -0.0642008 0.067234 0.0794901 -0.0341427 -0.0990913 0.0499567 0.0596478 0.0975287 0.0587726 0.0951919
internal_weight=0 15611.6 14658.5 7408.74 7249.74 3437.44 3812.29 2287.7 1091.06 6787.4 1524.59 6289.17 4892.56 1396.6 4627.65 811.814 3815.83 554.444 2852.97 287.386 1095.79 652.411 584.476 131.427 398.007 258.696 998.594 3761.32 895.605 685.308
internal_count=867722 655891 553106 213770 339336 206988 132348 44810 29176 172614 87538 146450 105318 41132 95229 23796 71433 20957 195861 11791 76881 9213 11127 3975 20951 3985 20181 67203 18903 10623
is_linear=0
shrinkage=0.1


Tree=28
num_leaves=31
num_cat=0
split_feature=6 0 18 17 11 20 12 28 10 9 16 33 11 36 6 4 28 17 11 31 11 24 22 18 43 42 16 0 28 4
